svm_type c_svc
kernel_type linear
nr_class 2
total_sv 156
rho -1.00697
label -1 1
nr_sv 97 59
SV
0.006455506635202302 8:1 9:1 11:1 24:1 25:1 27:1 33:1 34:1 35:1 36:1 37:1 38:1 39:1 40:1 41:1 42:1 43:1 44:1 45:1 46:1 47:1 48:1 49:1 50:1 51:1 52:1 53:1 54:1 55:1 
0.03363585511628421 2:1 8:1 13:1 17:1 18:1 19:1 23:1 27:1 28:1 29:1 30:1 35:1 36:1 41:1 43:1 44:1 45:1 46:1 54:1 58:1 61:1 67:1 82:1 88:1 89:1 90:1 91:1 92:1 93:1 94:1 95:1 96:1 97:1 98:1 99:1 100:1 101:1 102:1 
0.009454968279831668 8:1 9:1 11:1 12:1 24:1 25:1 27:1 28:1 33:1 37:1 38:1 39:1 43:1 45:1 46:1 47:1 51:1 52:1 53:1 54:1 55:1 73:1 81:1 85:1 86:1 98:1 105:1 107:1 123:1 124:1 131:1 132:1 133:1 134:1 135:1 136:1 137:1 138:1 
0.08598595872880463 11:1 23:1 25:1 27:1 36:1 40:1 41:1 45:1 46:1 47:1 54:1 61:1 62:1 65:1 69:1 107:1 110:1 121:1 123:1 125:1 129:1 131:1 170:1 171:1 172:1 173:1 174:1 175:1 176:1 
0.1611315938642132 11:1 12:1 13:1 15:1 19:1 27:1 28:1 36:1 45:1 46:1 47:1 51:1 53:1 54:1 59:1 61:1 65:1 101:1 112:1 126:1 131:1 135:1 136:1 138:1 143:1 157:1 160:1 175:1 188:1 189:1 190:1 191:1 196:1 197:1 198:1 199:1 200:1 
0.001219852638541258 9:1 11:1 12:1 25:1 27:1 28:1 29:1 39:1 43:1 45:1 51:1 71:1 76:1 81:1 82:1 88:1 91:1 106:1 108:1 126:1 128:1 129:1 157:1 177:1 178:1 179:1 180:1 181:1 182:1 183:1 184:1 185:1 186:1 187:1 194:1 195:1 202:1 
0.06381347548462715 23:1 25:1 27:1 45:1 46:1 49:1 50:1 51:1 52:1 54:1 59:1 60:1 61:1 65:1 67:1 92:1 93:1 94:1 100:1 119:1 121:1 131:1 135:1 183:1 203:1 204:1 208:1 
0.003508740268411229 23:1 25:1 27:1 43:1 45:1 46:1 49:1 50:1 51:1 52:1 54:1 59:1 60:1 61:1 65:1 67:1 92:1 93:1 100:1 105:1 119:1 131:1 144:1 183:1 203:1 204:1 
0.08377324602890342 9:1 27:1 28:1 30:1 31:1 42:1 43:1 45:1 46:1 50:1 51:1 52:1 53:1 54:1 60:1 61:1 74:1 76:1 81:1 112:1 113:1 120:1 121:1 131:1 137:1 149:1 166:1 179:1 183:1 185:1 187:1 192:1 223:1 224:1 226:1 227:1 229:1 
0.1524609897388847 8:1 18:1 27:1 43:1 44:1 45:1 46:1 53:1 54:1 60:1 61:1 67:1 74:1 92:1 93:1 94:1 101:1 112:1 121:1 162:1 193:1 204:1 230:1 231:1 232:1 233:1 240:1 241:1 242:1 243:1 244:1 
1 10:1 23:1 27:1 28:1 29:1 35:1 36:1 45:1 46:1 54:1 61:1 65:1 81:1 82:1 85:1 86:1 100:1 101:1 120:1 121:1 125:1 126:1 134:1 137:1 155:1 195:1 196:1 197:1 221:1 226:1 235:1 248:1 249:1 250:1 251:1 252:1 
0.8906429728702296 8:1 23:1 27:1 28:1 29:1 43:1 45:1 46:1 54:1 61:1 67:1 74:1 75:1 81:1 82:1 92:1 93:1 94:1 95:1 100:1 101:1 110:1 177:1 178:1 179:1 180:1 185:1 193:1 204:1 213:1 232:1 253:1 254:1 255:1 257:1 
0.1229145078255204 18:1 23:1 24:1 26:1 27:1 36:1 43:1 44:1 45:1 46:1 61:1 66:1 69:1 70:1 90:1 93:1 94:1 117:1 119:1 121:1 135:1 175:1 259:1 264:1 278:1 279:1 286:1 289:1 290:1 291:1 
0.1275981785877451 9:1 11:1 12:1 18:1 25:1 27:1 28:1 39:1 40:1 41:1 43:1 44:1 45:1 46:1 53:1 54:1 61:1 66:1 69:1 70:1 76:1 81:1 86:1 100:1 107:1 123:1 138:1 187:1 211:1 229:1 238:1 239:1 280:1 283:1 284:1 304:1 305:1 306:1 323:1 
0.2006556725649011 12:1 18:1 25:1 27:1 28:1 36:1 45:1 46:1 53:1 54:1 61:1 63:1 65:1 66:1 69:1 70:1 81:1 86:1 93:1 94:1 100:1 105:1 107:1 123:1 138:1 155:1 162:1 164:1 211:1 238:1 239:1 274:1 280:1 283:1 284:1 308:1 309:1 310:1 325:1 
0.07055502671582327 11:1 12:1 18:1 25:1 27:1 45:1 53:1 54:1 63:1 65:1 68:1 69:1 74:1 76:1 100:1 104:1 125:1 174:1 175:1 178:1 180:1 186:1 299:1 300:1 313:1 335:1 336:1 337:1 343:1 344:1 347:1 
0.02777777064995653 11:1 18:1 25:1 27:1 36:1 45:1 46:1 53:1 54:1 61:1 62:1 63:1 65:1 68:1 69:1 73:1 74:1 76:1 78:1 88:1 91:1 100:1 104:1 125:1 155:1 162:1 185:1 279:1 327:1 343:1 344:1 
0.002075949238574162 25:1 27:1 28:1 45:1 46:1 49:1 52:1 58:1 60:1 61:1 62:1 65:1 71:1 72:1 81:1 93:1 94:1 95:1 104:1 105:1 124:1 128:1 129:1 132:1 136:1 138:1 155:1 183:1 190:1 191:1 274:1 301:1 307:1 356:1 357:1 358:1 359:1 
0.03492101108682336 23:1 25:1 27:1 36:1 43:1 45:1 46:1 49:1 50:1 51:1 52:1 54:1 59:1 61:1 62:1 63:1 65:1 92:1 93:1 100:1 105:1 118:1 119:1 131:1 135:1 144:1 353:1 
0.1119919437963078 23:1 25:1 27:1 28:1 29:1 36:1 43:1 45:1 46:1 52:1 54:1 61:1 62:1 63:1 65:1 67:1 68:1 69:1 81:1 85:1 86:1 92:1 93:1 94:1 95:1 100:1 105:1 118:1 119:1 125:1 127:1 144:1 206:1 306:1 348:1 349:1 374:1 
0.5386804130774904 9:1 25:1 27:1 28:1 31:1 43:1 45:1 46:1 48:1 49:1 54:1 61:1 76:1 77:1 78:1 81:1 90:1 105:1 119:1 125:1 126:1 128:1 129:1 132:1 135:1 138:1 171:1 238:1 239:1 264:1 280:1 283:1 284:1 305:1 375:1 376:1 378:1 379:1 
0.4000053989017975 8:1 23:1 25:1 27:1 40:1 45:1 46:1 54:1 59:1 60:1 61:1 92:1 93:1 120:1 121:1 124:1 125:1 126:1 129:1 131:1 152:1 167:1 204:1 232:1 274:1 309:1 310:1 353:1 381:1 
0.05481019067749786 11:1 18:1 21:1 22:1 23:1 25:1 27:1 28:1 30:1 42:1 43:1 45:1 46:1 47:1 59:1 60:1 61:1 62:1 63:1 65:1 71:1 72:1 73:1 74:1 81:1 105:1 109:1 129:1 155:1 157:1 166:1 223:1 224:1 226:1 348:1 
0.00160658515566747 10:1 25:1 27:1 28:1 29:1 36:1 42:1 45:1 46:1 52:1 61:1 65:1 69:1 71:1 72:1 81:1 82:1 85:1 86:1 120:1 121:1 137:1 155:1 164:1 195:1 211:1 213:1 221:1 222:1 351:1 391:1 392:1 393:1 
0.001235444284694971 25:1 27:1 45:1 46:1 52:1 60:1 61:1 65:1 71:1 72:1 104:1 105:1 122:1 123:1 124:1 128:1 129:1 132:1 164:1 222:1 246:1 
0.06044247451089587 11:1 12:1 23:1 25:1 27:1 28:1 36:1 42:1 43:1 44:1 45:1 46:1 47:1 51:1 52:1 61:1 62:1 65:1 71:1 74:1 81:1 100:1 137:1 138:1 149:1 155:1 162:1 166:1 167:1 183:1 239:1 253:1 254:1 279:1 284:1 319:1 407:1 408:1 409:1 
0.06743378562712705 27:1 43:1 45:1 46:1 50:1 51:1 52:1 53:1 59:1 60:1 61:1 65:1 90:1 92:1 93:1 105:1 112:1 113:1 120:1 121:1 165:1 204:1 281:1 300:1 309:1 348:1 420:1 421:1 422:1 425:1 
0.4180611126363979 9:1 11:1 25:1 27:1 39:1 45:1 46:1 47:1 54:1 61:1 68:1 73:1 78:1 105:1 125:1 126:1 128:1 129:1 132:1 133:1 134:1 140:1 187:1 229:1 313:1 378:1 429:1 431:1 
0.1650251517818417 18:1 23:1 25:1 27:1 43:1 44:1 45:1 46:1 49:1 50:1 54:1 58:1 59:1 60:1 61:1 65:1 77:1 78:1 90:1 92:1 93:1 129:1 140:1 204:1 255:1 300:1 309:1 437:1 440:1 
0.4756726890017152 8:1 9:1 11:1 12:1 41:1 45:1 46:1 51:1 52:1 61:1 73:1 76:1 105:1 111:1 112:1 123:1 124:1 133:1 135:1 166:1 179:1 216:1 301:1 304:1 310:1 340:1 370:1 401:1 445:1 
0.06898064526955142 45:1 46:1 51:1 52:1 59:1 60:1 61:1 62:1 63:1 65:1 92:1 93:1 105:1 111:1 112:1 118:1 120:1 121:1 123:1 124:1 143:1 166:1 216:1 262:1 310:1 340:1 348:1 370:1 371:1 
0.0314082750902647 23:1 24:1 25:1 27:1 43:1 45:1 46:1 54:1 60:1 61:1 62:1 65:1 68:1 69:1 73:1 92:1 93:1 105:1 120:1 121:1 125:1 126:1 131:1 132:1 134:1 135:1 156:1 301:1 446:1 
0.009936404680030932 23:1 25:1 27:1 36:1 45:1 46:1 49:1 61:1 63:1 65:1 71:1 93:1 94:1 100:1 104:1 105:1 110:1 119:1 121:1 155:1 183:1 218:1 253:1 254:1 306:1 348:1 349:1 351:1 457:1 465:1 
0.0003079160531434928 23:1 25:1 27:1 43:1 45:1 46:1 49:1 59:1 60:1 61:1 65:1 71:1 73:1 74:1 93:1 94:1 100:1 110:1 121:1 135:1 155:1 178:1 185:1 253:1 254:1 301:1 351:1 453:1 457:1 464:1 
0.2378661085142296 9:1 22:1 23:1 24:1 27:1 28:1 29:1 31:1 46:1 51:1 52:1 54:1 61:1 67:1 76:1 77:1 81:1 113:1 119:1 124:1 149:1 153:1 173:1 174:1 183:1 187:1 192:1 246:1 265:1 269:1 272:1 306:1 330:1 331:1 374:1 401:1 474:1 475:1 478:1 479:1 
0.6843970770094189 9:1 15:1 18:1 27:1 28:1 30:1 46:1 48:1 54:1 61:1 76:1 77:1 81:1 109:1 119:1 128:1 149:1 153:1 157:1 160:1 161:1 173:1 174:1 183:1 187:1 207:1 214:1 225:1 246:1 265:1 306:1 314:1 315:1 330:1 331:1 370:1 401:1 478:1 479:1 480:1 
0.08021740476462967 8:1 22:1 27:1 28:1 29:1 40:1 45:1 46:1 47:1 51:1 52:1 59:1 60:1 61:1 67:1 71:1 81:1 105:1 106:1 108:1 111:1 112:1 113:1 120:1 121:1 124:1 131:1 171:1 232:1 269:1 272:1 275:1 293:1 310:1 313:1 374:1 477:1 489:1 
1 8:1 40:1 45:1 46:1 47:1 54:1 59:1 60:1 61:1 105:1 120:1 121:1 122:1 128:1 131:1 161:1 168:1 171:1 232:1 243:1 271:1 275:1 293:1 310:1 313:1 421:1 482:1 483:1 490:1 
0.04227922831439899 9:1 11:1 12:1 25:1 27:1 28:1 43:1 45:1 46:1 51:1 52:1 53:1 61:1 71:1 74:1 76:1 81:1 86:1 105:1 129:1 135:1 138:1 149:1 159:1 162:1 166:1 167:1 183:1 187:1 190:1 202:1 207:1 211:1 305:1 311:1 401:1 478:1 509:1 
0.1269550263158471 9:1 11:1 12:1 23:1 25:1 27:1 28:1 43:1 45:1 46:1 52:1 61:1 71:1 74:1 76:1 81:1 100:1 105:1 124:1 135:1 138:1 149:1 159:1 160:1 162:1 166:1 183:1 187:1 190:1 211:1 222:1 225:1 226:1 305:1 401:1 462:1 463:1 478:1 510:1 
0.1435025653291239 9:1 11:1 12:1 14:1 25:1 27:1 28:1 43:1 45:1 46:1 51:1 52:1 53:1 61:1 71:1 76:1 81:1 85:1 86:1 105:1 119:1 129:1 135:1 136:1 137:1 138:1 149:1 160:1 167:1 187:1 202:1 211:1 305:1 308:1 311:1 348:1 401:1 478:1 521:1 
0.2151249064676631 9:1 11:1 12:1 21:1 23:1 25:1 27:1 28:1 30:1 43:1 45:1 46:1 50:1 51:1 52:1 54:1 61:1 76:1 81:1 100:1 105:1 119:1 135:1 149:1 167:1 187:1 207:1 211:1 214:1 305:1 308:1 314:1 315:1 348:1 353:1 401:1 478:1 522:1 
0.02674200820824058 18:1 27:1 45:1 46:1 49:1 51:1 60:1 61:1 65:1 71:1 93:1 105:1 111:1 112:1 113:1 120:1 121:1 124:1 135:1 143:1 149:1 155:1 164:1 166:1 210:1 308:1 310:1 519:1 520:1 527:1 
0.09535114816345899 41:1 43:1 45:1 46:1 47:1 52:1 53:1 54:1 59:1 60:1 61:1 62:1 65:1 73:1 94:1 101:1 105:1 112:1 125:1 131:1 175:1 216:1 235:1 274:1 289:1 290:1 301:1 530:1 
0.0235155949536128 9:1 22:1 23:1 25:1 28:1 29:1 30:1 39:1 45:1 46:1 52:1 60:1 61:1 69:1 71:1 73:1 74:1 76:1 77:1 81:1 121:1 129:1 140:1 191:1 222:1 259:1 264:1 360:1 361:1 531:1 533:1 534:1 535:1 
0.004809644662567185 10:1 11:1 22:1 23:1 25:1 28:1 29:1 30:1 36:1 43:1 45:1 46:1 52:1 61:1 69:1 71:1 81:1 95:1 105:1 129:1 140:1 155:1 164:1 191:1 199:1 221:1 222:1 264:1 332:1 348:1 349:1 360:1 361:1 437:1 533:1 534:1 536:1 
0.1199133079833598 8:1 23:1 25:1 27:1 28:1 29:1 45:1 46:1 49:1 51:1 52:1 59:1 60:1 61:1 71:1 74:1 75:1 81:1 82:1 84:1 85:1 86:1 92:1 93:1 94:1 95:1 161:1 162:1 193:1 204:1 206:1 232:1 311:1 353:1 537:1 
0.02993627783714839 10:1 23:1 25:1 27:1 28:1 29:1 35:1 36:1 42:1 43:1 45:1 46:1 49:1 51:1 52:1 61:1 65:1 71:1 72:1 81:1 82:1 84:1 85:1 86:1 120:1 121:1 149:1 152:1 155:1 161:1 164:1 206:1 261:1 308:1 311:1 353:1 538:1 
0.1410629801666915 6:1 21:1 23:1 25:1 27:1 28:1 30:1 43:1 44:1 45:1 46:1 52:1 59:1 60:1 61:1 65:1 71:1 81:1 107:1 120:1 121:1 123:1 124:1 127:1 129:1 131:1 175:1 196:1 197:1 198:1 222:1 223:1 224:1 225:1 248:1 296:1 549:1 550:1 
0.01015688185921818 7:1 8:1 10:1 13:1 19:1 27:1 28:1 29:1 38:1 42:1 54:1 86:1 101:1 110:1 120:1 121:1 122:1 123:1 128:1 161:1 168:1 171:1 255:1 275:1 292:1 361:1 393:1 566:1 567:1 568:1 569:1 570:1 571:1 
0.0009832233151518726 8:1 33:1 37:1 45:1 46:1 68:1 93:1 104:1 105:1 112:1 120:1 121:1 134:1 140:1 211:1 248:1 271:1 278:1 305:1 313:1 340:1 370:1 378:1 572:1 573:1 574:1 575:1 576:1 577:1 578:1 
0.05947063452261329 23:1 43:1 44:1 45:1 46:1 61:1 65:1 73:1 74:1 93:1 94:1 100:1 109:1 113:1 121:1 155:1 203:1 216:1 221:1 274:1 305:1 340:1 343:1 344:1 365:1 366:1 375:1 413:1 584:1 594:1 
0.03542200069219262 11:1 12:1 23:1 36:1 43:1 45:1 46:1 57:1 61:1 64:1 65:1 76:1 100:1 109:1 113:1 155:1 178:1 179:1 185:1 203:1 216:1 221:1 340:1 343:1 344:1 365:1 366:1 383:1 413:1 586:1 596:1 
0.1496539041574896 7:1 11:1 12:1 18:1 21:1 26:1 27:1 28:1 30:1 31:1 34:1 43:1 44:1 47:1 60:1 81:1 109:1 111:1 112:1 113:1 127:1 134:1 168:1 171:1 175:1 194:1 213:1 214:1 215:1 248:1 263:1 313:1 314:1 315:1 396:1 600:1 603:1 608:1 
0.00263374110228625 23:1 25:1 43:1 44:1 45:1 46:1 52:1 54:1 60:1 61:1 62:1 65:1 69:1 73:1 76:1 92:1 100:1 125:1 134:1 135:1 178:1 213:1 216:1 231:1 301:1 353:1 619:1 
0.05925543368859718 1:1 4:1 9:1 11:1 20:1 23:1 25:1 26:1 27:1 28:1 29:1 47:1 65:1 78:1 81:1 110:1 123:1 129:1 134:1 165:1 225:1 301:1 307:1 359:1 378:1 384:1 561:1 583:1 620:1 621:1 
0.009023745028032371 8:1 9:1 11:1 33:1 37:1 38:1 39:1 40:1 46:1 47:1 95:1 109:1 112:1 123:1 128:1 157:1 165:1 174:1 271:1 278:1 309:1 310:1 316:1 317:1 336:1 339:1 340:1 370:1 384:1 624:1 
0.1665466284604169 4:1 26:1 27:1 28:1 43:1 45:1 46:1 49:1 52:1 61:1 65:1 81:1 86:1 93:1 94:1 95:1 105:1 112:1 113:1 128:1 138:1 145:1 151:1 159:1 160:1 175:1 190:1 211:1 245:1 247:1 260:1 274:1 278:1 305:1 307:1 311:1 343:1 344:1 620:1 634:1 
0.01345420354129504 4:1 21:1 23:1 25:1 27:1 28:1 30:1 43:1 45:1 46:1 51:1 52:1 61:1 65:1 71:1 81:1 93:1 94:1 95:1 100:1 105:1 124:1 145:1 151:1 167:1 175:1 191:1 211:1 223:1 245:1 247:1 260:1 274:1 278:1 305:1 343:1 344:1 438:1 630:1 638:1 
0.04285237991772118 8:1 13:1 19:1 25:1 26:1 27:1 28:1 35:1 36:1 44:1 45:1 46:1 58:1 61:1 77:1 80:1 85:1 86:1 93:1 110:1 121:1 128:1 137:1 138:1 140:1 167:1 183:1 204:1 255:1 261:1 295:1 312:1 338:1 355:1 401:1 437:1 574:1 641:1 647:1 648:1 
0.1009763088677841 8:1 23:1 24:1 25:1 27:1 30:1 35:1 36:1 44:1 45:1 46:1 48:1 58:1 61:1 71:1 77:1 93:1 110:1 121:1 138:1 183:1 191:1 204:1 205:1 253:1 254:1 255:1 261:1 295:1 367:1 369:1 401:1 413:1 437:1 574:1 644:1 645:1 646:1 647:1 649:1 
0.0134469382272596 11:1 23:1 25:1 27:1 33:1 37:1 41:1 43:1 44:1 45:1 46:1 50:1 54:1 58:1 65:1 92:1 93:1 95:1 100:1 110:1 118:1 211:1 218:1 255:1 305:1 353:1 456:1 475:1 642:1 643:1 652:1 
0.005927994601651197 23:1 25:1 27:1 43:1 44:1 45:1 46:1 50:1 54:1 61:1 62:1 65:1 92:1 93:1 100:1 110:1 118:1 144:1 165:1 255:1 278:1 309:1 330:1 331:1 353:1 475:1 542:1 543:1 
0.08654263006731937 9:1 11:1 18:1 27:1 39:1 40:1 41:1 42:1 43:1 45:1 47:1 54:1 59:1 66:1 68:1 69:1 70:1 78:1 111:1 112:1 113:1 140:1 185:1 186:1 187:1 210:1 229:1 342:1 653:1 655:1 
0.05181790027711287 1:1 2:1 7:1 8:1 12:1 27:1 28:1 54:1 81:1 86:1 92:1 93:1 94:1 101:1 102:1 110:1 112:1 117:1 118:1 140:1 168:1 207:1 214:1 239:1 255:1 284:1 314:1 315:1 437:1 468:1 533:1 
0.9716266960381077 23:1 28:1 36:1 43:1 44:1 45:1 46:1 50:1 61:1 65:1 71:1 81:1 86:1 94:1 100:1 118:1 155:1 211:1 221:1 226:1 237:1 238:1 239:1 245:1 247:1 267:1 414:1 437:1 476:1 539:1 549:1 555:1 556:1 629:1 631:1 632:1 659:1 660:1 661:1 
0.8209878694737717 23:1 25:1 27:1 40:1 43:1 45:1 46:1 49:1 50:1 54:1 61:1 74:1 94:1 100:1 110:1 155:1 171:1 178:1 179:1 185:1 229:1 255:1 262:1 265:1 343:1 344:1 441:1 493:1 663:1 664:1 666:1 
0.1126778613732107 23:1 25:1 28:1 43:1 45:1 46:1 48:1 61:1 65:1 75:1 81:1 92:1 93:1 95:1 105:1 123:1 129:1 190:1 204:1 211:1 218:1 225:1 267:1 268:1 270:1 271:1 305:1 312:1 348:1 404:1 463:1 473:1 509:1 549:1 669:1 670:1 671:1 680:1 
0.01261735468108961 23:1 28:1 31:1 43:1 45:1 46:1 61:1 65:1 71:1 75:1 80:1 81:1 92:1 93:1 95:1 101:1 105:1 137:1 161:1 204:1 211:1 214:1 218:1 222:1 302:1 305:1 315:1 348:1 359:1 404:1 421:1 473:1 549:1 555:1 556:1 561:1 675:1 681:1 
0.06111928990768253 43:1 45:1 46:1 53:1 61:1 65:1 67:1 70:1 71:1 75:1 92:1 93:1 95:1 105:1 113:1 138:1 204:1 205:1 211:1 213:1 218:1 305:1 311:1 348:1 367:1 369:1 404:1 435:1 473:1 549:1 555:1 556:1 679:1 682:1 
0.01014910573742149 1:1 7:1 12:1 18:1 27:1 53:1 54:1 67:1 76:1 100:1 108:1 125:1 168:1 174:1 175:1 210:1 211:1 259:1 260:1 263:1 264:1 306:1 308:1 309:1 310:1 386:1 434:1 483:1 683:1 687:1 
0.02676422580128125 18:1 27:1 42:1 43:1 46:1 53:1 54:1 61:1 64:1 67:1 76:1 78:1 100:1 108:1 125:1 146:1 147:1 152:1 153:1 155:1 168:1 218:1 221:1 309:1 434:1 483:1 672:1 673:1 674:1 683:1 689:1 
0.08056147003142144 18:1 27:1 37:1 46:1 53:1 54:1 67:1 73:1 92:1 93:1 100:1 108:1 125:1 168:1 204:1 210:1 211:1 218:1 310:1 316:1 317:1 483:1 674:1 677:1 678:1 683:1 690:1 
0.0053403004231501 7:1 8:1 9:1 18:1 26:1 27:1 36:1 45:1 67:1 73:1 76:1 77:1 104:1 105:1 112:1 113:1 121:1 128:1 145:1 151:1 170:1 178:1 213:1 253:1 254:1 255:1 294:1 691:1 692:1 693:1 695:1 
0.1344034557010493 18:1 23:1 25:1 27:1 33:1 36:1 37:1 41:1 42:1 44:1 45:1 46:1 68:1 71:1 90:1 93:1 109:1 120:1 121:1 124:1 129:1 162:1 175:1 198:1 259:1 264:1 279:1 295:1 343:1 344:1 703:1 
0.001427705351199111 10:1 18:1 23:1 25:1 27:1 28:1 29:1 43:1 45:1 46:1 59:1 60:1 61:1 62:1 65:1 66:1 69:1 70:1 71:1 72:1 73:1 81:1 85:1 95:1 105:1 120:1 129:1 131:1 145:1 151:1 155:1 191:1 206:1 213:1 274:1 301:1 353:1 374:1 716:1 
0.1728788507975831 8:1 10:1 11:1 18:1 23:1 24:1 25:1 27:1 36:1 43:1 45:1 46:1 48:1 49:1 54:1 61:1 78:1 92:1 97:1 143:1 178:1 185:1 204:1 232:1 330:1 331:1 437:1 454:1 713:1 719:1 
0.02589207659549292 9:1 10:1 11:1 18:1 23:1 24:1 25:1 27:1 33:1 36:1 37:1 43:1 45:1 46:1 48:1 49:1 54:1 73:1 78:1 97:1 105:1 162:1 187:1 229:1 261:1 279:1 313:1 454:1 693:1 715:1 
0.1103133572002187 9:1 11:1 12:1 18:1 27:1 28:1 36:1 45:1 46:1 49:1 54:1 61:1 63:1 76:1 81:1 86:1 88:1 91:1 104:1 105:1 111:1 112:1 113:1 127:1 138:1 187:1 190:1 192:1 308:1 311:1 348:1 349:1 351:1 364:1 368:1 383:1 401:1 478:1 517:1 518:1 613:1 720:1 
0.2046732521924199 9:1 11:1 12:1 18:1 23:1 25:1 27:1 28:1 30:1 36:1 45:1 46:1 61:1 63:1 66:1 70:1 71:1 76:1 81:1 88:1 91:1 98:1 100:1 104:1 105:1 107:1 187:1 223:1 224:1 226:1 308:1 322:1 348:1 349:1 378:1 383:1 401:1 478:1 720:1 
0.05263452284230173 8:1 9:1 18:1 23:1 26:1 27:1 33:1 37:1 38:1 46:1 67:1 73:1 87:1 100:1 106:1 108:1 113:1 174:1 178:1 242:1 255:1 301:1 310:1 316:1 317:1 336:1 
0.02680159240228702 10:1 11:1 12:1 18:1 25:1 27:1 43:1 44:1 45:1 53:1 54:1 57:1 64:1 65:1 107:1 123:1 129:1 155:1 157:1 178:1 186:1 218:1 255:1 274:1 279:1 332:1 456:1 707:1 708:1 738:1 
0.008371115437474102 10:1 25:1 27:1 28:1 29:1 36:1 45:1 46:1 49:1 51:1 52:1 61:1 65:1 71:1 72:1 81:1 82:1 85:1 86:1 120:1 121:1 137:1 149:1 155:1 164:1 172:1 195:1 261:1 308:1 311:1 349:1 351:1 
0.01802717782277541 10:1 17:1 18:1 26:1 27:1 36:1 45:1 46:1 53:1 61:1 65:1 112:1 120:1 121:1 123:1 149:1 155:1 164:1 172:1 261:1 308:1 349:1 370:1 384:1 506:1 750:1 
0.01036196467180532 2:1 8:1 18:1 19:1 25:1 27:1 28:1 29:1 41:1 43:1 45:1 46:1 50:1 54:1 59:1 60:1 61:1 83:1 85:1 86:1 92:1 93:1 107:1 117:1 118:1 120:1 121:1 128:1 129:1 130:1 165:1 185:1 189:1 210:1 374:1 413:1 454:1 746:1 
0.008408663071748155 2:1 7:1 8:1 9:1 11:1 12:1 23:1 24:1 25:1 27:1 28:1 30:1 40:1 41:1 42:1 47:1 48:1 49:1 50:1 54:1 55:1 59:1 81:1 109:1 110:1 138:1 173:1 174:1 191:1 258:1 283:1 301:1 316:1 317:1 348:1 427:1 736:1 752:1 
0.0005088114801316183 7:1 12:1 18:1 25:1 26:1 27:1 28:1 41:1 53:1 65:1 81:1 86:1 90:1 93:1 94:1 96:1 109:1 112:1 157:1 173:1 174:1 175:1 178:1 206:1 214:1 260:1 274:1 302:1 314:1 315:1 316:1 317:1 336:1 570:1 633:1 644:1 753:1 754:1 755:1 756:1 
0.03640442504222835 27:1 41:1 43:1 54:1 65:1 73:1 77:1 78:1 93:1 97:1 101:1 107:1 109:1 110:1 112:1 128:1 148:1 175:1 178:1 179:1 185:1 260:1 317:1 531:1 597:1 598:1 701:1 753:1 755:1 757:1 758:1 
0.08157582584857426 9:1 11:1 18:1 27:1 28:1 35:1 36:1 43:1 44:1 45:1 46:1 49:1 61:1 63:1 70:1 71:1 76:1 81:1 84:1 86:1 95:1 112:1 113:1 128:1 138:1 215:1 237:1 239:1 280:1 283:1 308:1 311:1 353:1 531:1 679:1 724:1 773:1 774:1 775:1 776:1 777:1 
0.1324982197137595 4:1 8:1 9:1 11:1 16:1 23:1 27:1 36:1 39:1 41:1 43:1 44:1 45:1 46:1 52:1 54:1 61:1 76:1 101:1 112:1 121:1 125:1 162:1 211:1 306:1 353:1 401:1 791:1 792:1 
0.01680665575755868 22:1 25:1 27:1 28:1 33:1 36:1 37:1 45:1 46:1 49:1 65:1 71:1 72:1 77:1 81:1 86:1 93:1 104:1 105:1 107:1 110:1 121:1 128:1 129:1 138:1 155:1 237:1 239:1 253:1 254:1 279:1 280:1 283:1 308:1 348:1 456:1 531:1 583:1 604:1 774:1 776:1 
0.04431183274010995 12:1 23:1 24:1 25:1 41:1 43:1 45:1 46:1 52:1 61:1 65:1 69:1 71:1 93:1 94:1 103:1 105:1 107:1 165:1 175:1 216:1 222:1 245:1 247:1 260:1 305:1 349:1 387:1 413:1 802:1 
0.0619694657285692 13:1 18:1 19:1 20:1 21:1 22:1 23:1 26:1 27:1 28:1 29:1 30:1 40:1 45:1 46:1 60:1 61:1 65:1 100:1 121:1 166:1 175:1 198:1 226:1 245:1 247:1 286:1 467:1 473:1 493:1 532:1 554:1 803:1 805:1 
0.4586510938736911 18:1 26:1 27:1 40:1 45:1 46:1 60:1 61:1 65:1 112:1 113:1 121:1 128:1 157:1 175:1 198:1 245:1 247:1 255:1 343:1 344:1 467:1 473:1 493:1 701:1 803:1 806:1 
0.1213472346380451 13:1 17:1 18:1 19:1 27:1 28:1 29:1 30:1 31:1 42:1 43:1 45:1 46:1 47:1 59:1 60:1 61:1 65:1 77:1 82:1 96:1 101:1 105:1 112:1 121:1 127:1 175:1 245:1 247:1 260:1 292:1 302:1 348:1 393:1 397:1 406:1 810:1 811:1 814:1 
0.01014923192533375 2:1 8:1 9:1 11:1 18:1 24:1 25:1 27:1 33:1 35:1 36:1 37:1 45:1 46:1 47:1 53:1 54:1 55:1 73:1 104:1 107:1 109:1 123:1 134:1 157:1 313:1 693:1 812:1 813:1 
0.02717545709624914 23:1 25:1 26:1 36:1 43:1 44:1 45:1 46:1 61:1 65:1 77:1 93:1 100:1 155:1 164:1 166:1 221:1 226:1 261:1 262:1 265:1 304:1 410:1 534:1 620:1 779:1 820:1 821:1 823:1 824:1 825:1 
-0.1447165007767114 8:1 23:1 27:1 28:1 31:1 43:1 44:1 45:1 46:1 54:1 60:1 61:1 74:1 81:1 92:1 93:1 94:1 100:1 101:1 102:1 121:1 125:1 126:1 138:1 162:1 166:1 193:1 204:1 226:1 230:1 231:1 232:1 233:1 234:1 235:1 236:1 237:1 238:1 239:1 
-0.0374469702693554 11:1 18:1 27:1 41:1 45:1 46:1 47:1 53:1 54:1 61:1 65:1 67:1 101:1 104:1 105:1 112:1 132:1 133:1 175:1 198:1 199:1 200:1 240:1 241:1 242:1 243:1 245:1 246:1 247:1 
-0.9178877140083671 8:1 23:1 27:1 28:1 29:1 43:1 45:1 46:1 54:1 61:1 74:1 75:1 81:1 82:1 85:1 86:1 92:1 93:1 94:1 95:1 100:1 101:1 102:1 125:1 126:1 137:1 177:1 178:1 179:1 180:1 185:1 193:1 195:1 204:1 226:1 232:1 235:1 250:1 251:1 
-0.8805135507667456 10:1 23:1 27:1 28:1 29:1 35:1 36:1 45:1 46:1 54:1 61:1 65:1 67:1 81:1 82:1 100:1 101:1 110:1 120:1 121:1 134:1 155:1 196:1 197:1 213:1 221:1 248:1 249:1 253:1 254:1 255:1 256:1 
-0.138976741116831 23:1 26:1 27:1 28:1 36:1 43:1 44:1 45:1 46:1 51:1 52:1 61:1 81:1 90:1 93:1 94:1 100:1 117:1 119:1 121:1 135:1 138:1 157:1 175:1 239:1 259:1 264:1 278:1 279:1 280:1 281:1 282:1 283:1 284:1 285:1 286:1 287:1 288:1 
-0.04017729227920077 18:1 23:1 24:1 26:1 27:1 44:1 45:1 46:1 59:1 60:1 61:1 65:1 66:1 69:1 70:1 77:1 121:1 162:1 175:1 196:1 197:1 260:1 286:1 289:1 290:1 292:1 293:1 294:1 295:1 296:1 297:1 
-0.3609725987720163 9:1 22:1 27:1 28:1 29:1 43:1 45:1 46:1 51:1 52:1 61:1 68:1 76:1 77:1 78:1 81:1 85:1 86:1 90:1 105:1 111:1 112:1 113:1 119:1 124:1 132:1 135:1 171:1 206:1 264:1 270:1 281:1 305:1 374:1 375:1 376:1 377:1 
-0.6483198899554781 8:1 25:1 27:1 28:1 31:1 40:1 45:1 46:1 48:1 49:1 54:1 59:1 60:1 61:1 81:1 92:1 93:1 120:1 121:1 125:1 126:1 128:1 129:1 130:1 131:1 138:1 152:1 204:1 232:1 238:1 239:1 274:1 280:1 283:1 284:1 309:1 310:1 378:1 
-0.1905517874142751 11:1 23:1 25:1 27:1 41:1 42:1 43:1 45:1 46:1 47:1 54:1 61:1 65:1 78:1 105:1 124:1 125:1 126:1 129:1 132:1 133:1 167:1 175:1 196:1 197:1 199:1 260:1 353:1 375:1 382:1 
-0.0605240159751721 18:1 25:1 27:1 28:1 43:1 44:1 46:1 48:1 49:1 50:1 54:1 58:1 61:1 81:1 84:1 85:1 86:1 92:1 93:1 111:1 120:1 121:1 129:1 138:1 187:1 204:1 205:1 206:1 232:1 255:1 274:1 309:1 335:1 385:1 386:1 387:1 388:1 389:1 
-0.0863152840805476 8:1 9:1 10:1 11:1 14:1 18:1 27:1 39:1 43:1 45:1 46:1 60:1 61:1 68:1 69:1 73:1 95:1 101:1 105:1 128:1 129:1 132:1 178:1 293:1 294:1 340:1 401:1 402:1 403:1 
-0.03794800062848758 9:1 23:1 25:1 27:1 28:1 29:1 30:1 42:1 43:1 45:1 46:1 51:1 52:1 54:1 59:1 60:1 61:1 77:1 78:1 81:1 82:1 93:1 97:1 99:1 105:1 129:1 166:1 167:1 187:1 227:1 229:1 261:1 278:1 350:1 404:1 405:1 
-0.1818010017258267 8:1 18:1 21:1 22:1 25:1 27:1 28:1 29:1 30:1 45:1 46:1 54:1 59:1 60:1 61:1 68:1 81:1 82:1 90:1 92:1 93:1 94:1 95:1 119:1 128:1 129:1 135:1 140:1 168:1 191:1 204:1 232:1 255:1 426:1 
-0.2931046387667011 9:1 11:1 23:1 25:1 27:1 28:1 39:1 45:1 46:1 47:1 52:1 61:1 66:1 70:1 71:1 73:1 78:1 81:1 86:1 105:1 123:1 124:1 127:1 129:1 132:1 133:1 134:1 138:1 166:1 187:1 229:1 239:1 284:1 313:1 408:1 429:1 430:1 
-0.2741084143315092 11:1 25:1 27:1 36:1 42:1 43:1 45:1 46:1 47:1 54:1 61:1 62:1 63:1 65:1 68:1 78:1 105:1 125:1 126:1 128:1 129:1 131:1 140:1 175:1 211:1 261:1 378:1 404:1 432:1 
-0.06564255525264776 9:1 11:1 18:1 23:1 25:1 27:1 36:1 40:1 41:1 42:1 45:1 46:1 47:1 49:1 50:1 54:1 61:1 78:1 104:1 105:1 129:1 140:1 229:1 255:1 278:1 279:1 301:1 441:1 442:1 
-0.3192836141713184 8:1 9:1 11:1 12:1 27:1 28:1 41:1 45:1 46:1 50:1 51:1 52:1 53:1 54:1 61:1 73:1 76:1 81:1 85:1 86:1 98:1 105:1 112:1 113:1 133:1 135:1 136:1 137:1 138:1 179:1 194:1 301:1 304:1 310:1 401:1 443:1 444:1 
-0.922055078095905 8:1 15:1 18:1 27:1 28:1 30:1 40:1 45:1 46:1 47:1 48:1 54:1 59:1 60:1 61:1 81:1 105:1 109:1 120:1 121:1 128:1 131:1 157:1 160:1 161:1 171:1 207:1 214:1 225:1 232:1 275:1 293:1 310:1 313:1 314:1 315:1 370:1 488:1 
-0.1482400209360404 8:1 40:1 45:1 46:1 54:1 59:1 60:1 61:1 95:1 120:1 122:1 128:1 131:1 161:1 168:1 171:1 185:1 232:1 243:1 271:1 275:1 293:1 310:1 421:1 482:1 483:1 492:1 493:1 494:1 
-0.868227090858486 9:1 46:1 54:1 61:1 76:1 77:1 119:1 122:1 128:1 149:1 153:1 161:1 168:1 173:1 174:1 183:1 187:1 243:1 246:1 265:1 271:1 306:1 330:1 331:1 401:1 421:1 478:1 479:1 482:1 483:1 484:1 
-0.3192513903082476 9:1 11:1 12:1 23:1 25:1 43:1 45:1 46:1 52:1 61:1 66:1 67:1 70:1 71:1 74:1 76:1 100:1 105:1 124:1 135:1 149:1 162:1 167:1 183:1 187:1 211:1 216:1 305:1 401:1 478:1 512:1 
-0.4222949314380817 9:1 11:1 12:1 18:1 27:1 43:1 45:1 46:1 49:1 51:1 61:1 71:1 76:1 105:1 111:1 112:1 113:1 119:1 124:1 135:1 149:1 166:1 187:1 211:1 305:1 308:1 348:1 401:1 478:1 523:1 
-0.1202638578084978 9:1 17:1 18:1 20:1 27:1 28:1 29:1 30:1 31:1 39:1 45:1 46:1 60:1 61:1 73:1 74:1 76:1 77:1 81:1 112:1 113:1 121:1 137:1 166:1 226:1 259:1 264:1 270:1 355:1 377:1 531:1 532:1 
-0.01999748207142085 8:1 23:1 27:1 28:1 29:1 30:1 31:1 45:1 46:1 54:1 59:1 60:1 61:1 74:1 75:1 81:1 82:1 92:1 93:1 94:1 95:1 98:1 100:1 101:1 102:1 125:1 126:1 137:1 162:1 166:1 193:1 204:1 226:1 232:1 235:1 
-0.1230875224968368 6:1 18:1 25:1 27:1 43:1 44:1 45:1 46:1 49:1 53:1 59:1 60:1 61:1 65:1 71:1 120:1 121:1 129:1 131:1 175:1 196:1 197:1 198:1 248:1 253:1 254:1 255:1 296:1 353:1 549:1 551:1 
-0.02914853899380455 23:1 25:1 26:1 35:1 36:1 40:1 45:1 46:1 61:1 65:1 100:1 104:1 105:1 107:1 175:1 196:1 197:1 198:1 226:1 348:1 493:1 552:1 553:1 554:1 555:1 556:1 557:1 
-0.2088043324027091 23:1 46:1 63:1 65:1 100:1 109:1 113:1 155:1 174:1 178:1 179:1 216:1 310:1 317:1 340:1 343:1 344:1 365:1 366:1 413:1 452:1 597:1 598:1 599:1 600:1 601:1 
-0.159065660455578 7:1 11:1 12:1 22:1 23:1 34:1 43:1 44:1 47:1 60:1 112:1 123:1 134:1 136:1 138:1 166:1 168:1 171:1 175:1 190:1 215:1 216:1 225:1 227:1 248:1 263:1 313:1 340:1 366:1 370:1 396:1 600:1 603:1 604:1 605:1 606:1 607:1 
-0.05891996432248797 4:1 18:1 23:1 25:1 26:1 27:1 28:1 29:1 30:1 43:1 45:1 46:1 61:1 65:1 66:1 70:1 81:1 82:1 93:1 94:1 95:1 96:1 100:1 105:1 145:1 151:1 160:1 175:1 211:1 225:1 245:1 247:1 260:1 274:1 278:1 305:1 307:1 378:1 631:1 632:1 633:1 
-0.2311807549256723 8:1 23:1 25:1 27:1 35:1 36:1 44:1 45:1 46:1 50:1 54:1 58:1 61:1 77:1 93:1 100:1 110:1 121:1 183:1 204:1 255:1 261:1 295:1 353:1 401:1 437:1 475:1 574:1 647:1 650:1 
-0.9425528532326124 23:1 28:1 40:1 43:1 45:1 46:1 50:1 61:1 71:1 74:1 81:1 86:1 94:1 100:1 155:1 171:1 178:1 179:1 185:1 226:1 229:1 237:1 238:1 239:1 262:1 265:1 267:1 414:1 441:1 493:1 555:1 556:1 631:1 632:1 659:1 660:1 663:1 664:1 665:1 
-1 23:1 25:1 27:1 36:1 43:1 44:1 45:1 46:1 49:1 50:1 54:1 61:1 65:1 94:1 100:1 110:1 118:1 155:1 211:1 221:1 245:1 247:1 255:1 343:1 344:1 437:1 476:1 539:1 549:1 629:1 662:1 
-0.2283746960184922 18:1 27:1 43:1 45:1 46:1 53:1 54:1 61:1 65:1 67:1 75:1 92:1 93:1 95:1 100:1 105:1 108:1 125:1 168:1 204:1 211:1 218:1 305:1 348:1 404:1 473:1 483:1 549:1 683:1 684:1 
-0.4090159032974698 9:1 11:1 12:1 18:1 27:1 36:1 45:1 46:1 49:1 53:1 54:1 61:1 63:1 76:1 88:1 91:1 104:1 105:1 112:1 113:1 125:1 187:1 308:1 311:1 343:1 344:1 348:1 349:1 383:1 401:1 478:1 720:1 721:1 
-0.1723229656758574 9:1 11:1 18:1 25:1 27:1 43:1 45:1 46:1 47:1 53:1 54:1 61:1 63:1 73:1 105:1 107:1 123:1 129:1 134:1 157:1 162:1 187:1 229:1 255:1 305:1 313:1 336:1 428:1 
-0.124318555265269 10:1 11:1 23:1 25:1 45:1 59:1 78:1 104:1 124:1 129:1 140:1 143:1 171:1 174:1 178:1 186:1 215:1 241:1 271:1 274:1 275:1 340:1 342:1 472:1 576:1 620:1 713:1 740:1 741:1 
-0.09375917058738661 20:1 23:1 25:1 26:1 27:1 28:1 29:1 31:1 45:1 46:1 51:1 52:1 59:1 60:1 61:1 65:1 81:1 90:1 93:1 94:1 95:1 100:1 124:1 135:1 175:1 195:1 198:1 213:1 245:1 247:1 272:1 285:1 309:1 353:1 633:1 
-0.005371785491870919 11:1 18:1 27:1 41:1 43:1 44:1 45:1 46:1 49:1 53:1 60:1 61:1 65:1 93:1 101:1 107:1 112:1 162:1 175:1 198:1 231:1 245:1 247:1 274:1 340:1 387:1 762:1 763:1 764:1 
-0.1013544932714122 11:1 12:1 20:1 27:1 28:1 29:1 36:1 45:1 46:1 47:1 52:1 53:1 54:1 61:1 65:1 67:1 81:1 101:1 112:1 118:1 119:1 125:1 175:1 190:1 195:1 198:1 200:1 207:1 211:1 240:1 241:1 242:1 245:1 247:1 306:1 391:1 
-0.07145536145430621 5:1 23:1 24:1 25:1 26:1 36:1 45:1 46:1 61:1 65:1 77:1 90:1 93:1 97:1 121:1 175:1 185:1 196:1 197:1 198:1 210:1 274:1 310:1 331:1 351:1 413:1 534:1 778:1 779:1 781:1 782:1 
-0.01727651894758794 11:1 17:1 18:1 25:1 26:1 27:1 35:1 41:1 45:1 46:1 60:1 61:1 65:1 80:1 90:1 93:1 95:1 107:1 112:1 128:1 173:1 174:1 175:1 178:1 196:1 197:1 260:1 274:1 769:1 770:1 783:1 784:1 
-0.04491388513106649 9:1 10:1 18:1 26:1 27:1 36:1 43:1 45:1 46:1 61:1 65:1 105:1 111:1 112:1 120:1 121:1 134:1 140:1 162:1 196:1 197:1 211:1 255:1 313:1 370:1 392:1 448:1 475:1 743:1 785:1 
-0.1091487503288613 9:1 10:1 11:1 23:1 25:1 26:1 35:1 36:1 43:1 45:1 46:1 52:1 61:1 78:1 100:1 105:1 149:1 172:1 216:1 226:1 264:1 348:1 384:1 392:1 549:1 552:1 553:1 620:1 786:1 787:1 
-0.01348392642582811 10:1 23:1 27:1 43:1 44:1 46:1 50:1 54:1 61:1 65:1 96:1 101:1 110:1 120:1 121:1 134:1 161:1 171:1 196:1 197:1 275:1 281:1 385:1 392:1 454:1 467:1 539:1 543:1 611:1 789:1 
-0.1680565097099969 4:1 8:1 9:1 11:1 18:1 21:1 26:1 27:1 28:1 30:1 36:1 39:1 41:1 43:1 44:1 45:1 46:1 61:1 67:1 76:1 81:1 87:1 112:1 113:1 121:1 128:1 138:1 157:1 162:1 191:1 211:1 280:1 283:1 306:1 401:1 475:1 604:1 790:1 
-0.1504977613235005 9:1 10:1 16:1 23:1 27:1 36:1 39:1 42:1 44:1 45:1 46:1 52:1 54:1 61:1 65:1 101:1 112:1 120:1 121:1 125:1 150:1 162:1 196:1 197:1 310:1 332:1 336:1 353:1 791:1 793:1 
-0.1489168297847874 21:1 23:1 24:1 25:1 26:1 27:1 28:1 30:1 45:1 46:1 52:1 59:1 60:1 61:1 65:1 69:1 73:1 77:1 81:1 93:1 104:1 105:1 121:1 135:1 175:1 196:1 197:1 198:1 207:1 223:1 224:1 250:1 251:1 348:1 393:1 614:1 701:1 765:1 
-0.1443316171411261 12:1 18:1 23:1 25:1 26:1 27:1 28:1 41:1 43:1 45:1 46:1 61:1 65:1 69:1 81:1 93:1 94:1 100:1 103:1 105:1 156:1 159:1 165:1 175:1 214:1 245:1 247:1 260:1 305:1 349:1 387:1 533:1 604:1 633:1 
-0.2211253637271742 25:1 27:1 28:1 40:1 45:1 46:1 51:1 52:1 54:1 60:1 61:1 65:1 81:1 86:1 121:1 123:1 127:1 128:1 129:1 157:1 175:1 198:1 237:1 239:1 245:1 247:1 384:1 414:1 467:1 473:1 493:1 660:1 803:1 804:1 
-0.04822666271020445 18:1 24:1 25:1 27:1 42:1 43:1 45:1 46:1 47:1 53:1 54:1 59:1 60:1 61:1 65:1 77:1 105:1 107:1 109:1 121:1 123:1 157:1 175:1 245:1 247:1 260:1 292:1 348:1 393:1 815:1 
-0.007298901111461241 18:1 23:1 24:1 27:1 28:1 35:1 36:1 43:1 44:1 45:1 46:1 54:1 61:1 65:1 81:1 86:1 120:1 121:1 125:1 127:1 134:1 175:1 198:1 214:1 237:1 239:1 245:1 247:1 274:1 286:1 292:1 296:1 314:1 315:1 532:1 631:1 632:1 701:1 724:1 817:1 
-0.01696737938639924 23:1 24:1 25:1 27:1 36:1 41:1 43:1 44:1 45:1 46:1 54:1 61:1 65:1 93:1 107:1 110:1 120:1 121:1 123:1 157:1 175:1 211:1 245:1 247:1 248:1 255:1 260:1 274:1 278:1 818:1 
-0.04522706555338165 18:1 23:1 24:1 25:1 27:1 28:1 29:1 35:1 36:1 41:1 42:1 45:1 46:1 54:1 61:1 65:1 68:1 69:1 81:1 82:1 86:1 90:1 93:1 120:1 121:1 125:1 156:1 175:1 190:1 195:1 245:1 247:1 260:1 463:1 818:1 819:1 
-0.1489982578624069 11:1 12:1 27:1 28:1 29:1 30:1 31:1 41:1 45:1 46:1 47:1 51:1 53:1 54:1 60:1 61:1 65:1 69:1 81:1 82:1 101:1 110:1 112:1 118:1 123:1 135:1 137:1 160:1 175:1 188:1 198:1 200:1 245:1 247:1 
-0.1375909140236752 18:1 23:1 24:1 25:1 27:1 36:1 43:1 44:1 45:1 46:1 54:1 61:1 65:1 66:1 69:1 70:1 73:1 93:1 107:1 120:1 121:1 123:1 134:1 175:1 178:1 198:1 245:1 247:1 274:1 330:1 331:1 818:1 
-0.001074903210639755 9:1 18:1 23:1 24:1 25:1 27:1 43:1 45:1 46:1 54:1 61:1 63:1 68:1 77:1 93:1 105:1 121:1 132:1 133:1 140:1 168:1 178:1 187:1 229:1 249:1 255:1 261:1 404:1 827:1 
-0.08895615469578198 23:1 25:1 26:1 28:1 29:1 30:1 41:1 42:1 45:1 46:1 59:1 60:1 61:1 65:1 77:1 81:1 84:1 92:1 93:1 107:1 123:1 124:1 129:1 183:1 301:1 361:1 476:1 555:1 556:1 568:1 620:1 828:1 829:1 830:1 
-0.1448160848780032 23:1 24:1 25:1 36:1 43:1 44:1 45:1 46:1 52:1 61:1 65:1 66:1 70:1 71:1 73:1 77:1 92:1 93:1 121:1 124:1 134:1 135:1 162:1 166:1 216:1 279:1 301:1 701:1 828:1 829:1 831:1 
-0.01719322963045622 43:1 44:1 45:1 46:1 58:1 59:1 60:1 61:1 63:1 65:1 67:1 69:1 112:1 113:1 128:1 175:1 261:1 268:1 271:1 340:1 341:1 392:1 620:1 828:1 829:1 832:1 833:1 
