svm_type c_svc
kernel_type linear
nr_class 2
total_sv 312
rho -2.62629
label -1 1
nr_sv 215 97
SV
0.2898221756460042 6:1 20:1 21:1 30:1 31:1 41:1 64:1 65:1 66:1 67:1 68:1 69:1 70:1 71:1 72:1 73:1 74:1 75:1 76:1 
0.875743928382393 6:1 30:1 73:1 74:1 82:1 98:1 100:1 101:1 102:1 107:1 158:1 527:1 560:1 
0.1927801643369231 8:1 19:1 21:1 30:1 31:1 33:1 60:1 61:1 73:1 101:1 116:1 125:1 128:1 130:1 131:1 132:1 175:1 216:1 549:1 
0.216965891577227 2:1 6:1 7:1 17:1 21:1 30:1 76:1 95:1 105:1 106:1 108:1 134:1 139:1 156:1 166:1 172:1 182:1 225:1 226:1 
0.9490311460399892 12:1 18:1 30:1 44:1 73:1 107:1 110:1 130:1 156:1 157:1 171:1 521:1 
0.008683150213861599 6:1 8:1 10:1 30:1 32:1 44:1 61:1 69:1 106:1 118:1 125:1 129:1 133:1 135:1 136:1 158:1 166:1 180:1 504:1 564:1 
0.1481919396052585 6:1 8:1 9:1 30:1 69:1 73:1 75:1 76:1 101:1 104:1 105:1 114:1 133:1 136:1 148:1 151:1 152:1 166:1 180:1 512:1 
0.8145928829595731 9:1 17:1 18:1 19:1 53:1 76:1 81:1 103:1 106:1 129:1 147:1 202:1 523:1 535:1 
0.430695245947408 3:1 8:1 18:1 30:1 32:1 33:1 73:1 107:1 118:1 123:1 130:1 145:1 152:1 157:1 159:1 163:1 173:1 225:1 226:1 502:1 517:1 533:1 
0.1757205882553789 12:1 18:1 30:1 95:1 107:1 119:1 120:1 132:1 157:1 166:1 231:1 521:1 
0.1716995925535711 19:1 21:1 35:1 52:1 60:1 61:1 95:1 105:1 106:1 108:1 128:1 130:1 131:1 155:1 168:1 169:1 189:1 191:1 265:1 553:1 
0.2459409324087975 7:1 21:1 30:1 38:1 73:1 76:1 105:1 106:1 108:1 131:1 156:1 162:1 166:1 172:1 181:1 189:1 191:1 192:1 
0.04775972373516143 12:1 17:1 18:1 19:1 33:1 50:1 53:1 60:1 104:1 105:1 139:1 266:1 524:1 
0.2473715291352103 6:1 31:1 73:1 74:1 82:1 87:1 88:1 98:1 101:1 102:1 194:1 534:1 
0.5156604270310753 6:1 8:1 10:1 32:1 51:1 56:1 61:1 69:1 75:1 95:1 114:1 116:1 117:1 133:1 136:1 137:1 145:1 161:1 555:1 
0.1373466255815514 6:1 8:1 9:1 10:1 16:1 30:1 75:1 82:1 98:1 101:1 102:1 130:1 135:1 136:1 150:1 152:1 160:1 180:1 232:1 233:1 515:1 
0.6000628603000647 10:1 12:1 13:1 17:1 18:1 19:1 20:1 30:1 32:1 55:1 61:1 72:1 73:1 74:1 111:1 143:1 224:1 231:1 273:1 
0.2842471999495973 8:1 10:1 17:1 18:1 32:1 43:1 44:1 50:1 51:1 52:1 73:1 75:1 90:1 93:1 103:1 105:1 150:1 230:1 276:1 553:1 
0.1833635169240376 6:1 8:1 22:1 32:1 50:1 51:1 52:1 75:1 82:1 89:1 90:1 93:1 95:1 105:1 107:1 126:1 150:1 163:1 553:1 
1 6:1 21:1 30:1 49:1 50:1 53:1 64:1 71:1 75:1 76:1 82:1 89:1 90:1 95:1 107:1 130:1 150:1 152:1 163:1 553:1 
0.08742394748682798 6:1 8:1 32:1 52:1 57:1 70:1 75:1 76:1 95:1 125:1 133:1 136:1 140:1 147:1 155:1 166:1 180:1 241:1 543:1 558:1 
0.2544223443673071 6:1 8:1 32:1 33:1 50:1 75:1 93:1 94:1 98:1 102:1 134:1 150:1 153:1 544:1 556:1 
0.4907890009371095 4:1 6:1 20:1 21:1 30:1 75:1 76:1 82:1 98:1 101:1 102:1 106:1 107:1 110:1 132:1 150:1 277:1 548:1 560:1 
0.6935636919805485 11:1 12:1 13:1 14:1 17:1 18:1 19:1 21:1 53:1 54:1 62:1 76:1 174:1 
0.7480533880807444 6:1 8:1 10:1 23:1 24:1 25:1 26:1 30:1 31:1 64:1 71:1 75:1 97:1 164:1 176:1 
1 6:1 8:1 10:1 25:1 26:1 30:1 32:1 73:1 74:1 85:1 98:1 102:1 107:1 118:1 155:1 172:1 183:1 231:1 255:1 
0.01067999179869174 8:1 18:1 30:1 61:1 73:1 107:1 118:1 123:1 152:1 153:1 157:1 166:1 173:1 180:1 549:1 551:1 
0.04371543661265063 9:1 19:1 30:1 53:1 56:1 60:1 73:1 76:1 107:1 116:1 124:1 125:1 161:1 166:1 181:1 187:1 188:1 315:1 501:1 524:1 531:1 
1 11:1 12:1 17:1 18:1 19:1 21:1 22:1 60:1 104:1 105:1 106:1 108:1 
0.008364447782478305 6:1 10:1 20:1 30:1 69:1 73:1 74:1 75:1 97:1 101:1 106:1 110:1 129:1 132:1 133:1 136:1 147:1 202:1 523:1 
0.1125825513103806 6:1 8:1 14:1 36:1 37:1 52:1 54:1 62:1 73:1 118:1 123:1 130:1 136:1 138:1 158:1 164:1 178:1 503:1 531:1 
0.4509815056329434 10:1 11:1 12:1 17:1 18:1 19:1 51:1 53:1 61:1 97:1 106:1 117:1 145:1 161:1 167:1 182:1 183:1 261:1 
0.1972083383803757 19:1 21:1 30:1 53:1 73:1 74:1 76:1 101:1 107:1 116:1 124:1 128:1 129:1 131:1 145:1 146:1 155:1 157:1 542:1 
0.85741651048965 19:1 21:1 22:1 30:1 60:1 73:1 106:1 107:1 108:1 124:1 125:1 128:1 131:1 152:1 153:1 157:1 166:1 180:1 
0.6080758079754855 8:1 10:1 12:1 18:1 30:1 73:1 97:1 106:1 107:1 118:1 125:1 130:1 152:1 153:1 157:1 163:1 171:1 172:1 529:1 551:1 
0.1899851225528696 6:1 8:1 13:1 21:1 22:1 49:1 50:1 75:1 133:1 134:1 136:1 147:1 
0.1833769877842955 6:1 19:1 21:1 22:1 30:1 44:1 50:1 53:1 69:1 70:1 94:1 107:1 156:1 157:1 166:1 181:1 209:1 540:1 
0.7724302643218052 8:1 10:1 12:1 18:1 30:1 32:1 73:1 107:1 118:1 125:1 130:1 143:1 153:1 156:1 157:1 171:1 172:1 182:1 541:1 548:1 551:1 557:1 
0.2860751744763966 8:1 10:1 18:1 24:1 30:1 32:1 73:1 107:1 116:1 118:1 123:1 124:1 130:1 145:1 156:1 161:1 173:1 182:1 542:1 549:1 552:1 558:1 
0.5363439270884157 6:1 8:1 10:1 32:1 69:1 70:1 118:1 133:1 136:1 143:1 172:1 176:1 
0.417213378953197 6:1 8:1 30:1 31:1 32:1 33:1 42:1 43:1 67:1 68:1 70:1 73:1 118:1 125:1 130:1 140:1 143:1 172:1 525:1 
0.1061274355391124 12:1 13:1 14:1 18:1 19:1 30:1 73:1 87:1 107:1 153:1 156:1 157:1 166:1 521:1 
0.5518205811182872 1:1 2:1 4:1 6:1 7:1 8:1 51:1 98:1 102:1 104:1 107:1 111:1 117:1 137:1 161:1 167:1 212:1 237:1 266:1 
0.05145440981029829 6:1 23:1 24:1 26:1 30:1 31:1 130:1 135:1 158:1 168:1 169:1 186:1 214:1 234:1 239:1 
0.1388469537753295 2:1 7:1 8:1 10:1 11:1 17:1 97:1 106:1 124:1 125:1 187:1 188:1 
0.004947762550580555 6:1 8:1 9:1 23:1 24:1 30:1 31:1 37:1 73:1 75:1 77:1 83:1 124:1 130:1 152:1 160:1 163:1 239:1 352:1 353:1 507:1 
0.07648446655275976 6:1 8:1 10:1 52:1 82:1 87:1 95:1 97:1 98:1 100:1 101:1 102:1 105:1 106:1 118:1 123:1 124:1 136:1 310:1 
0.2854880096967609 8:1 10:1 11:1 17:1 35:1 47:1 51:1 52:1 61:1 97:1 115:1 118:1 156:1 187:1 188:1 200:1 216:1 252:1 
0.05908993619411626 10:1 17:1 19:1 32:1 42:1 53:1 61:1 67:1 73:1 90:1 128:1 131:1 145:1 148:1 151:1 165:1 195:1 197:1 261:1 512:1 
0.6737308392167304 6:1 21:1 22:1 30:1 69:1 73:1 74:1 75:1 101:1 106:1 107:1 108:1 110:1 111:1 124:1 129:1 145:1 157:1 546:1 561:1 
0.05881812255377837 3:1 19:1 21:1 22:1 30:1 53:1 73:1 107:1 110:1 128:1 130:1 131:1 153:1 156:1 157:1 164:1 261:1 361:1 540:1 548:1 551:1 
0.2126543893196606 6:1 8:1 10:1 30:1 32:1 56:1 75:1 77:1 83:1 107:1 124:1 125:1 134:1 135:1 139:1 143:1 161:1 166:1 297:1 528:1 559:1 
0.4510973071112691 6:1 8:1 9:1 30:1 73:1 75:1 98:1 102:1 107:1 129:1 130:1 134:1 147:1 153:1 156:1 158:1 159:1 268:1 318:1 527:1 562:1 
0.058144972596109 6:1 7:1 20:1 21:1 28:1 29:1 34:1 35:1 51:1 52:1 61:1 69:1 76:1 114:1 133:1 135:1 158:1 273:1 325:1 564:1 
0.3329829585949051 6:1 21:1 30:1 70:1 73:1 75:1 87:1 98:1 102:1 107:1 111:1 147:1 166:1 212:1 213:1 231:1 234:1 366:1 367:1 562:1 
0.1474692200858684 19:1 30:1 73:1 101:1 107:1 116:1 119:1 120:1 125:1 130:1 132:1 157:1 172:1 185:1 187:1 371:1 372:1 551:1 
0.1241479718305012 8:1 10:1 18:1 30:1 41:1 95:1 97:1 98:1 102:1 107:1 110:1 115:1 118:1 123:1 124:1 153:1 156:1 166:1 173:1 519:1 
0.09375826717765549 10:1 12:1 18:1 19:1 20:1 30:1 50:1 60:1 73:1 97:1 101:1 104:1 107:1 125:1 132:1 137:1 157:1 166:1 521:1 
0.798863946176251 8:1 9:1 17:1 18:1 24:1 51:1 75:1 77:1 83:1 93:1 100:1 101:1 105:1 117:1 158:1 159:1 167:1 173:1 538:1 
0.9376910151728911 6:1 8:1 9:1 10:1 30:1 50:1 73:1 75:1 98:1 102:1 107:1 134:1 150:1 153:1 160:1 166:1 180:1 182:1 317:1 534:1 
0.5173152890646739 11:1 12:1 17:1 18:1 19:1 21:1 22:1 49:1 51:1 70:1 108:1 116:1 117:1 119:1 120:1 135:1 156:1 161:1 172:1 522:1 
0.1998705316270702 10:1 11:1 17:1 18:1 30:1 53:1 54:1 62:1 73:1 75:1 97:1 101:1 106:1 147:1 152:1 166:1 180:1 236:1 336:1 505:1 
0.2056296994649956 6:1 21:1 22:1 25:1 30:1 44:1 73:1 75:1 107:1 108:1 116:1 125:1 130:1 172:1 182:1 289:1 397:1 398:1 531:1 540:1 
0.0837039542511734 6:1 8:1 10:1 30:1 32:1 70:1 75:1 95:1 101:1 107:1 124:1 125:1 143:1 146:1 157:1 166:1 181:1 234:1 546:1 553:1 559:1 
0.2452105624510559 6:1 8:1 10:1 30:1 32:1 73:1 75:1 82:1 107:1 116:1 122:1 124:1 125:1 130:1 144:1 150:1 163:1 182:1 544:1 553:1 558:1 563:1 
0.1991864482539056 6:1 8:1 10:1 30:1 32:1 73:1 75:1 101:1 107:1 124:1 129:1 130:1 132:1 134:1 145:1 149:1 157:1 252:1 546:1 561:1 565:1 
0.04201758443332626 6:1 8:1 10:1 30:1 32:1 73:1 75:1 82:1 107:1 124:1 125:1 130:1 142:1 143:1 150:1 156:1 161:1 182:1 544:1 549:1 552:1 555:1 559:1 
0.4214107485426395 6:1 8:1 10:1 30:1 32:1 50:1 73:1 75:1 101:1 107:1 129:1 130:1 134:1 146:1 147:1 157:1 158:1 255:1 546:1 554:1 562:1 564:1 
0.2019771602316072 17:1 18:1 21:1 22:1 27:1 43:1 51:1 75:1 98:1 102:1 108:1 116:1 125:1 150:1 152:1 165:1 173:1 177:1 402:1 515:1 
0.4423059563578418 6:1 21:1 22:1 53:1 58:1 61:1 69:1 70:1 75:1 95:1 127:1 136:1 145:1 148:1 151:1 165:1 179:1 195:1 197:1 526:1 533:1 
0.3051038484379157 6:1 21:1 22:1 30:1 53:1 64:1 71:1 73:1 75:1 107:1 116:1 125:1 130:1 134:1 139:1 150:1 153:1 156:1 182:1 540:1 
0.09275929369181872 19:1 21:1 22:1 30:1 46:1 53:1 73:1 107:1 110:1 116:1 124:1 129:1 131:1 132:1 145:1 157:1 166:1 231:1 404:1 517:1 
0.3608061169558853 17:1 19:1 21:1 22:1 53:1 66:1 73:1 96:1 116:1 124:1 129:1 130:1 139:1 145:1 153:1 154:1 158:1 165:1 406:1 503:1 553:1 
0.3172711632124692 6:1 30:1 53:1 73:1 75:1 77:1 83:1 107:1 124:1 130:1 134:1 139:1 156:1 158:1 161:1 533:1 554:1 555:1 
0.5777030124647301 11:1 17:1 18:1 19:1 21:1 41:1 60:1 61:1 76:1 103:1 108:1 115:1 
0.06729492843750048 19:1 21:1 22:1 30:1 46:1 53:1 73:1 107:1 116:1 125:1 129:1 131:1 132:1 147:1 157:1 166:1 181:1 231:1 404:1 517:1 
1 6:1 21:1 30:1 41:1 53:1 54:1 62:1 73:1 75:1 100:1 129:1 130:1 133:1 134:1 136:1 147:1 153:1 158:1 554:1 
0.9730378650496242 18:1 19:1 30:1 32:1 60:1 61:1 73:1 103:1 107:1 108:1 115:1 116:1 156:1 157:1 166:1 182:1 231:1 547:1 551:1 
0.02022120489829715 6:1 31:1 51:1 53:1 56:1 69:1 70:1 113:1 117:1 118:1 125:1 161:1 167:1 172:1 182:1 552:1 
1 6:1 8:1 10:1 50:1 75:1 97:1 105:1 129:1 134:1 147:1 543:1 
0.1061275400777063 6:1 20:1 21:1 51:1 69:1 70:1 72:1 75:1 76:1 117:1 147:1 156:1 161:1 164:1 189:1 191:1 501:1 536:1 
0.1093177846496855 6:1 16:1 30:1 32:1 33:1 73:1 75:1 82:1 111:1 124:1 136:1 137:1 138:1 142:1 145:1 150:1 166:1 264:1 544:1 561:1 
0.1047263681760478 8:1 9:1 17:1 18:1 19:1 52:1 58:1 59:1 76:1 99:1 101:1 104:1 125:1 130:1 132:1 200:1 240:1 241:1 261:1 
0.1941165931337203 17:1 19:1 21:1 22:1 36:1 51:1 53:1 60:1 61:1 95:1 111:1 116:1 138:1 145:1 155:1 165:1 188:1 358:1 539:1 542:1 557:1 
0.06649449631304494 6:1 8:1 30:1 32:1 33:1 44:1 69:1 70:1 73:1 75:1 116:1 125:1 147:1 152:1 166:1 180:1 191:1 359:1 543:1 558:1 
0.3445866511129329 6:1 8:1 10:1 30:1 32:1 37:1 73:1 74:1 85:1 118:1 123:1 126:1 132:1 133:1 136:1 176:1 214:1 231:1 
0.003422999133939184 6:1 8:1 9:1 30:1 37:1 55:1 73:1 75:1 76:1 98:1 102:1 132:1 136:1 150:1 166:1 212:1 231:1 232:1 233:1 408:1 515:1 
0.0165864838098439 8:1 17:1 18:1 51:1 85:1 93:1 94:1 98:1 102:1 117:1 118:1 123:1 167:1 173:1 177:1 195:1 409:1 518:1 535:1 
0.4403173426283205 8:1 10:1 12:1 18:1 30:1 44:1 47:1 93:1 97:1 98:1 102:1 107:1 111:1 118:1 125:1 135:1 166:1 181:1 190:1 565:1 
0.2142692022747384 2:1 7:1 8:1 10:1 11:1 12:1 17:1 18:1 32:1 93:1 94:1 110:1 132:1 153:1 439:1 
0.04827182115984485 10:1 12:1 18:1 19:1 21:1 23:1 24:1 30:1 31:1 53:1 60:1 104:1 116:1 137:1 156:1 388:1 
0.1682580134207092 6:1 8:1 17:1 32:1 51:1 70:1 75:1 95:1 116:1 117:1 125:1 137:1 139:1 147:1 153:1 206:1 400:1 543:1 553:1 557:1 
0.01329606233075397 11:1 12:1 17:1 18:1 19:1 21:1 33:1 53:1 60:1 116:1 124:1 125:1 192:1 194:1 
0.2477913781995256 17:1 18:1 21:1 28:1 41:1 51:1 76:1 95:1 103:1 108:1 117:1 156:1 161:1 171:1 182:1 186:1 214:1 223:1 224:1 501:1 
0.2857109260682208 31:1 51:1 117:1 137:1 167:1 168:1 169:1 184:1 189:1 234:1 340:1 553:1 
0.1014740414137778 6:1 7:1 8:1 16:1 23:1 30:1 31:1 64:1 69:1 71:1 94:1 95:1 114:1 166:1 179:1 180:1 280:1 383:1 510:1 
0.3969228307003109 6:1 7:1 8:1 30:1 31:1 47:1 48:1 95:1 98:1 100:1 102:1 105:1 127:1 166:1 234:1 409:1 
0.0349364781746083 6:1 10:1 14:1 20:1 52:1 54:1 62:1 75:1 95:1 114:1 133:1 136:1 177:1 195:1 197:1 216:1 234:1 319:1 329:1 
0.1050652130501334 6:1 8:1 30:1 32:1 33:1 75:1 101:1 102:1 107:1 110:1 116:1 125:1 134:1 147:1 156:1 236:1 444:1 543:1 558:1 
1 18:1 19:1 20:1 30:1 40:1 60:1 61:1 73:1 76:1 85:1 103:1 107:1 130:1 153:1 156:1 157:1 158:1 332:1 527:1 551:1 
0.1613324462084814 6:1 7:1 8:1 10:1 14:1 32:1 37:1 50:1 145:1 278:1 
0.009260888895819861 10:1 30:1 31:1 32:1 53:1 62:1 85:1 104:1 185:1 187:1 188:1 231:1 280:1 337:1 418:1 441:1 504:1 
0.2196791248511255 21:1 33:1 51:1 52:1 53:1 56:1 71:1 75:1 94:1 114:1 143:1 187:1 189:1 191:1 281:1 340:1 451:1 452:1 511:1 
0.1501616916106735 21:1 33:1 49:1 51:1 52:1 53:1 71:1 75:1 102:1 116:1 127:1 150:1 191:1 195:1 216:1 234:1 340:1 444:1 453:1 506:1 
0.5168272661530652 6:1 8:1 31:1 69:1 95:1 104:1 105:1 106:1 118:1 126:1 132:1 138:1 165:1 185:1 235:1 345:1 
0.2877702932080506 8:1 10:1 18:1 30:1 32:1 44:1 49:1 87:1 95:1 107:1 116:1 118:1 156:1 166:1 171:1 172:1 187:1 392:1 501:1 
0.05628053604987691 6:1 8:1 21:1 28:1 52:1 69:1 73:1 75:1 76:1 116:1 124:1 129:1 130:1 133:1 136:1 177:1 195:1 285:1 526:1 
0.04525951338484175 6:1 19:1 21:1 22:1 30:1 44:1 87:1 95:1 106:1 107:1 108:1 124:1 125:1 134:1 156:1 166:1 205:1 397:1 
0.5909548045812526 3:1 10:1 18:1 19:1 30:1 32:1 53:1 60:1 73:1 85:1 94:1 103:1 107:1 132:1 166:1 181:1 231:1 286:1 520:1 
0.2198500568267165 12:1 18:1 19:1 21:1 30:1 41:1 60:1 61:1 73:1 101:1 107:1 108:1 110:1 115:1 132:1 157:1 166:1 551:1 
0.0493338371056982 6:1 51:1 82:1 89:1 107:1 117:1 135:1 158:1 168:1 169:1 175:1 553:1 
0.2706457029286495 6:1 20:1 22:1 24:1 30:1 31:1 37:1 65:1 73:1 75:1 84:1 94:1 143:1 150:1 166:1 180:1 231:1 332:1 
0.8248790932391797 4:1 8:1 22:1 31:1 32:1 51:1 56:1 75:1 95:1 104:1 113:1 117:1 143:1 150:1 155:1 161:1 234:1 340:1 555:1 
1 6:1 9:1 10:1 26:1 53:1 54:1 62:1 63:1 74:1 75:1 107:1 121:1 127:1 135:1 147:1 157:1 158:1 234:1 344:1 554:1 
0.03270708998623758 6:1 9:1 10:1 37:1 41:1 53:1 64:1 71:1 72:1 74:1 75:1 107:1 122:1 126:1 132:1 135:1 150:1 161:1 344:1 
0.5544360574592873 12:1 18:1 19:1 21:1 22:1 30:1 53:1 65:1 73:1 74:1 101:1 107:1 116:1 125:1 129:1 147:1 157:1 168:1 169:1 519:1 521:1 
0.7404574360806345 6:1 24:1 30:1 31:1 101:1 129:1 132:1 134:1 135:1 137:1 327:1 
0.6464521918233435 2:1 4:1 6:1 7:1 8:1 10:1 32:1 52:1 57:1 73:1 104:1 130:1 133:1 134:1 148:1 151:1 152:1 163:1 273:1 325:1 502:1 
0.04742106884657323 12:1 14:1 17:1 18:1 19:1 21:1 53:1 54:1 62:1 66:1 74:1 76:1 85:1 114:1 135:1 138:1 139:1 158:1 274:1 326:1 503:1 
0.5718152144898851 6:1 8:1 10:1 30:1 31:1 51:1 64:1 69:1 71:1 75:1 94:1 97:1 111:1 113:1 114:1 143:1 167:1 181:1 226:1 274:1 541:1 
0.259518428341858 6:1 8:1 10:1 15:1 30:1 31:1 51:1 75:1 93:1 97:1 98:1 100:1 102:1 106:1 126:1 127:1 150:1 167:1 234:1 530:1 544:1 556:1 
0.07972588092354466 19:1 30:1 31:1 32:1 33:1 34:1 35:1 53:1 94:1 104:1 128:1 131:1 164:1 175:1 261:1 553:1 
0.01844016397868654 17:1 18:1 19:1 21:1 22:1 51:1 53:1 60:1 85:1 103:1 104:1 117:1 119:1 120:1 139:1 145:1 156:1 161:1 167:1 238:1 
0.07131210312659379 33:1 51:1 53:1 63:1 96:1 114:1 117:1 133:1 135:1 147:1 158:1 161:1 187:1 213:1 256:1 257:1 266:1 325:1 337:1 501:1 503:1 536:1 
0.001914302046379689 9:1 10:1 16:1 72:1 73:1 75:1 107:1 130:1 138:1 150:1 163:1 189:1 214:1 234:1 259:1 260:1 264:1 326:1 340:1 502:1 526:1 534:1 
0.5287823218485854 17:1 19:1 21:1 22:1 45:1 52:1 64:1 70:1 71:1 99:1 105:1 106:1 108:1 127:1 128:1 131:1 132:1 135:1 197:1 
1 6:1 8:1 10:1 30:1 32:1 65:1 74:1 82:1 98:1 101:1 102:1 104:1 105:1 118:1 123:1 136:1 148:1 151:1 180:1 200:1 
0.9036627174379152 6:1 8:1 10:1 30:1 64:1 70:1 71:1 73:1 75:1 97:1 101:1 105:1 106:1 133:1 136:1 152:1 166:1 168:1 169:1 234:1 530:1 
0.8221806844396005 6:1 8:1 10:1 24:1 30:1 31:1 32:1 64:1 71:1 94:1 114:1 118:1 153:1 164:1 234:1 
0.2148910832834773 6:1 8:1 10:1 30:1 31:1 32:1 37:1 109:1 112:1 114:1 116:1 118:1 122:1 125:1 132:1 137:1 172:1 461:1 
0.0637668110091693 6:1 8:1 10:1 30:1 32:1 73:1 75:1 82:1 93:1 100:1 105:1 107:1 139:1 143:1 150:1 153:1 158:1 166:1 554:1 
0.3173844396811999 6:1 8:1 10:1 14:1 30:1 32:1 50:1 73:1 75:1 81:1 82:1 107:1 111:1 130:1 145:1 150:1 161:1 182:1 555:1 
0.2794252261174915 6:1 8:1 10:1 30:1 32:1 41:1 51:1 61:1 69:1 101:1 114:1 115:1 118:1 133:1 136:1 167:1 182:1 210:1 
0.1054630024398991 6:1 7:1 8:1 10:1 17:1 41:1 51:1 92:1 97:1 101:1 117:1 134:1 139:1 146:1 158:1 167:1 202:1 214:1 509:1 
0.1497428675907743 21:1 91:1 95:1 96:1 105:1 107:1 108:1 114:1 127:1 130:1 155:1 157:1 163:1 172:1 337:1 344:1 443:1 532:1 553:1 
0.1686633620285817 10:1 12:1 14:1 18:1 19:1 20:1 30:1 78:1 79:1 97:1 106:1 114:1 153:1 166:1 167:1 189:1 191:1 202:1 
0.2472745370204986 10:1 19:1 30:1 31:1 32:1 53:1 60:1 74:1 104:1 105:1 128:1 131:1 132:1 143:1 155:1 175:1 200:1 231:1 511:1 
0.01456945311932794 6:1 21:1 51:1 52:1 53:1 56:1 61:1 69:1 75:1 76:1 95:1 114:1 133:1 136:1 137:1 145:1 151:1 177:1 467:1 512:1 
0.1569805032511392 6:1 8:1 9:1 10:1 14:1 41:1 51:1 69:1 102:1 107:1 111:1 114:1 115:1 117:1 118:1 137:1 161:1 167:1 237:1 456:1 
0.1108459725406498 9:1 10:1 12:1 16:1 17:1 18:1 30:1 43:1 53:1 64:1 71:1 73:1 74:1 114:1 152:1 160:1 231:1 250:1 251:1 337:1 
0.3221086256961039 12:1 18:1 19:1 43:1 47:1 48:1 50:1 73:1 74:1 94:1 98:1 102:1 107:1 127:1 259:1 260:1 344:1 
0.1101124378629381 9:1 19:1 30:1 31:1 35:1 53:1 60:1 73:1 104:1 105:1 128:1 130:1 131:1 148:1 151:1 156:1 158:1 175:1 330:1 509:1 553:1 
0.7028372110369165 1:1 6:1 20:1 21:1 22:1 49:1 50:1 84:1 107:1 157:1 185:1 186:1 192:1 194:1 
1 7:1 8:1 11:1 17:1 32:1 50:1 92:1 93:1 105:1 117:1 161:1 187:1 188:1 195:1 197:1 265:1 
0.3455418737892881 6:1 8:1 30:1 32:1 69:1 70:1 73:1 74:1 87:1 88:1 101:1 116:1 118:1 125:1 133:1 136:1 172:1 363:1 553:1 
0.01579969576069293 6:1 21:1 26:1 41:1 76:1 108:1 115:1 140:1 186:1 214:1 471:1 
0.7052997863527921 6:1 8:1 30:1 32:1 50:1 74:1 76:1 82:1 93:1 98:1 101:1 102:1 105:1 118:1 123:1 136:1 152:1 167:1 180:1 
0.8603083878264896 8:1 10:1 14:1 17:1 18:1 32:1 35:1 41:1 54:1 59:1 62:1 139:1 156:1 300:1 301:1 505:1 
0.04651262551932888 6:1 8:1 9:1 10:1 37:1 51:1 52:1 75:1 77:1 80:1 83:1 93:1 155:1 156:1 159:1 176:1 304:1 305:1 507:1 
0.1671228245432269 6:1 7:1 8:1 10:1 13:1 30:1 69:1 94:1 95:1 97:1 98:1 99:1 102:1 107:1 141:1 164:1 231:1 237:1 310:1 356:1 
0.1012078368589974 10:1 11:1 17:1 18:1 20:1 27:1 51:1 95:1 103:1 111:1 117:1 118:1 123:1 161:1 238:1 266:1 267:1 429:1 452:1 
0.2580874023731945 8:1 10:1 11:1 12:1 17:1 18:1 66:1 74:1 97:1 125:1 164:1 167:1 171:1 172:1 181:1 194:1 323:1 432:1 506:1 
0.1347816206284698 6:1 8:1 10:1 37:1 41:1 47:1 51:1 52:1 97:1 115:1 118:1 124:1 138:1 139:1 155:1 178:1 200:1 238:1 325:1 
0.01640750780946527 6:1 8:1 30:1 73:1 75:1 77:1 81:1 82:1 83:1 87:1 105:1 124:1 136:1 138:1 156:1 166:1 
1 6:1 30:1 70:1 73:1 98:1 100:1 101:1 102:1 107:1 134:1 166:1 181:1 
0.06725964430977659 6:1 21:1 22:1 27:1 51:1 52:1 73:1 75:1 82:1 87:1 88:1 105:1 108:1 136:1 138:1 142:1 143:1 150:1 402:1 478:1 515:1 
1 6:1 8:1 22:1 31:1 32:1 61:1 75:1 82:1 89:1 90:1 95:1 105:1 117:1 121:1 143:1 150:1 158:1 345:1 553:1 554:1 
0.2888627115711332 4:1 8:1 17:1 22:1 32:1 51:1 61:1 75:1 77:1 83:1 90:1 95:1 96:1 101:1 117:1 143:1 152:1 154:1 163:1 553:1 
0.8968074834958479 14:1 19:1 30:1 32:1 33:1 53:1 70:1 73:1 86:1 91:1 96:1 101:1 107:1 111:1 130:1 145:1 148:1 151:1 157:1 158:1 554:1 
0.08647125173482434 6:1 7:1 8:1 28:1 29:1 30:1 69:1 73:1 74:1 101:1 110:1 129:1 132:1 133:1 136:1 196:1 
0.5977029031089109 6:1 8:1 30:1 49:1 50:1 70:1 73:1 118:1 133:1 136:1 140:1 152:1 166:1 172:1 180:1 231:1 
0.8583128616931084 1:1 2:1 6:1 7:1 8:1 10:1 50:1 51:1 56:1 93:1 95:1 97:1 98:1 102:1 105:1 107:1 117:1 152:1 161:1 237:1 
1 11:1 12:1 17:1 18:1 19:1 21:1 22:1 60:1 61:1 65:1 73:1 105:1 108:1 109:1 112:1 117:1 130:1 163:1 164:1 238:1 
0.09318386316058673 6:1 14:1 21:1 26:1 30:1 69:1 73:1 74:1 75:1 76:1 106:1 108:1 111:1 133:1 136:1 145:1 152:1 231:1 514:1 
0.6823561356244117 8:1 9:1 10:1 12:1 18:1 30:1 39:1 40:1 101:1 102:1 106:1 107:1 118:1 146:1 166:1 167:1 171:1 181:1 421:1 456:1 
0.4379970337873735 19:1 20:1 21:1 31:1 51:1 61:1 67:1 68:1 76:1 117:1 128:1 131:1 155:1 160:1 164:1 167:1 178:1 261:1 380:1 
0.5074375612020321 8:1 9:1 18:1 19:1 22:1 23:1 30:1 51:1 60:1 61:1 63:1 103:1 111:1 125:1 152:1 167:1 189:1 191:1 524:1 
0.2271175711905475 9:1 10:1 15:1 17:1 18:1 30:1 41:1 46:1 74:1 75:1 110:1 111:1 113:1 150:1 153:1 200:1 214:1 264:1 516:1 
0.4972632314809838 6:1 8:1 10:1 31:1 49:1 50:1 69:1 70:1 78:1 95:1 97:1 118:1 130:1 163:1 172:1 192:1 194:1 235:1 503:1 
0.4540448872539223 6:1 8:1 10:1 69:1 70:1 73:1 74:1 97:1 105:1 106:1 118:1 133:1 136:1 152:1 153:1 172:1 178:1 194:1 554:1 
0.1105470924759434 6:1 8:1 16:1 30:1 31:1 34:1 61:1 67:1 68:1 69:1 74:1 105:1 114:1 118:1 135:1 155:1 
0.56915920213441 6:1 8:1 32:1 33:1 70:1 75:1 116:1 125:1 140:1 147:1 543:1 558:1 
0.04096744887566871 6:1 10:1 16:1 20:1 30:1 70:1 71:1 75:1 95:1 97:1 111:1 133:1 136:1 140:1 166:1 181:1 202:1 231:1 453:1 
0.04882958924698161 5:1 6:1 14:1 20:1 21:1 30:1 44:1 69:1 79:1 95:1 98:1 102:1 107:1 114:1 115:1 118:1 166:1 179:1 
0.4455221068142156 2:1 6:1 7:1 8:1 10:1 30:1 50:1 73:1 94:1 97:1 104:1 107:1 134:1 152:1 153:1 157:1 166:1 180:1 
0.3680514027979205 11:1 12:1 17:1 18:1 19:1 30:1 32:1 53:1 60:1 61:1 65:1 73:1 105:1 130:1 143:1 163:1 226:1 274:1 318:1 555:1 
0.8556886280083934 6:1 10:1 23:1 24:1 30:1 31:1 51:1 53:1 61:1 69:1 70:1 75:1 135:1 145:1 148:1 151:1 158:1 228:1 275:1 319:1 553:1 
0.3232819958243232 19:1 20:1 21:1 33:1 50:1 51:1 95:1 98:1 102:1 105:1 107:1 111:1 117:1 128:1 141:1 152:1 161:1 269:1 272:1 324:1 
0.4102144007086401 14:1 19:1 30:1 31:1 70:1 73:1 74:1 101:1 111:1 113:1 131:1 155:1 162:1 
0.8373260143101796 18:1 30:1 55:1 56:1 73:1 74:1 75:1 107:1 113:1 129:1 161:1 173:1 519:1 522:1 
0.3263455016831387 8:1 10:1 17:1 18:1 32:1 49:1 51:1 85:1 103:1 111:1 117:1 118:1 137:1 139:1 153:1 167:1 171:1 172:1 
0.1847448114655128 8:1 9:1 10:1 12:1 17:1 18:1 19:1 51:1 60:1 61:1 73:1 105:1 110:1 117:1 156:1 161:1 217:1 218:1 223:1 224:1 501:1 
0.1518240015041352 2:1 5:1 6:1 7:1 8:1 10:1 51:1 97:1 110:1 111:1 117:1 134:1 161:1 167:1 191:1 202:1 214:1 359:1 501:1 
0.01072074793766268 12:1 15:1 17:1 18:1 19:1 21:1 22:1 41:1 73:1 108:1 130:1 139:1 152:1 163:1 170:1 185:1 194:1 432:1 502:1 
0.03409016820988578 10:1 14:1 18:1 19:1 21:1 30:1 46:1 53:1 60:1 73:1 74:1 101:1 105:1 107:1 110:1 132:1 143:1 157:1 517:1 525:1 532:1 
1 19:1 21:1 22:1 30:1 31:1 51:1 53:1 54:1 56:1 61:1 62:1 70:1 101:1 128:1 131:1 137:1 164:1 280:1 
0.08790111828028487 14:1 17:1 19:1 20:1 21:1 28:1 29:1 45:1 51:1 52:1 76:1 127:1 128:1 131:1 135:1 155:1 195:1 261:1 510:1 
0.528174193981394 6:1 8:1 10:1 30:1 31:1 32:1 49:1 50:1 56:1 67:1 68:1 69:1 70:1 73:1 118:1 149:1 166:1 172:1 524:1 
0.1465178167791944 18:1 21:1 22:1 30:1 31:1 53:1 85:1 101:1 104:1 111:1 113:1 145:1 152:1 162:1 236:1 337:1 
0.8783123844183811 18:1 21:1 22:1 30:1 31:1 53:1 58:1 59:1 94:1 111:1 114:1 147:1 148:1 151:1 152:1 184:1 337:1 
0.1023003821829038 6:1 8:1 9:1 74:1 75:1 77:1 83:1 87:1 88:1 95:1 104:1 107:1 127:1 145:1 157:1 217:1 218:1 234:1 265:1 344:1 514:1 
0.04893634224772077 6:1 7:1 8:1 30:1 31:1 32:1 73:1 76:1 82:1 106:1 113:1 124:1 130:1 145:1 163:1 171:1 182:1 225:1 226:1 502:1 533:1 
0.2429035885651882 2:1 6:1 7:1 8:1 22:1 30:1 32:1 73:1 87:1 105:1 107:1 146:1 157:1 164:1 166:1 231:1 248:1 249:1 258:1 517:1 535:1 
0.1531577231150678 6:1 8:1 9:1 26:1 31:1 73:1 74:1 104:1 105:1 138:1 140:1 165:1 178:1 186:1 216:1 235:1 353:1 428:1 519:1 
0.3066990796471322 17:1 18:1 21:1 22:1 51:1 95:1 103:1 105:1 108:1 110:1 111:1 117:1 143:1 161:1 172:1 185:1 186:1 250:1 251:1 501:1 532:1 
0.3359166359030593 8:1 22:1 30:1 31:1 32:1 61:1 73:1 113:1 118:1 123:1 130:1 145:1 148:1 151:1 152:1 163:1 187:1 188:1 253:1 254:1 502:1 533:1 
1 18:1 19:1 51:1 70:1 98:1 102:1 103:1 107:1 111:1 117:1 161:1 167:1 181:1 522:1 
0.1139226132767544 11:1 13:1 17:1 18:1 19:1 21:1 22:1 53:1 103:1 105:1 143:1 362:1 541:1 557:1 
0.05576464268377186 6:1 8:1 9:1 10:1 30:1 31:1 50:1 54:1 61:1 62:1 69:1 75:1 113:1 114:1 153:1 156:1 524:1 
0.06822056852614623 6:1 8:1 9:1 10:1 30:1 31:1 50:1 72:1 75:1 82:1 98:1 101:1 102:1 110:1 132:1 150:1 244:1 245:1 515:1 
0.01600133883134706 18:1 19:1 59:1 60:1 73:1 74:1 104:1 105:1 107:1 132:1 155:1 161:1 338:1 344:1 522:1 
0.08978324021160017 6:1 31:1 61:1 68:1 69:1 95:1 114:1 117:1 137:1 163:1 339:1 345:1 537:1 
0.09884272214572577 6:1 7:1 8:1 22:1 30:1 32:1 54:1 62:1 73:1 92:1 101:1 116:1 124:1 130:1 132:1 133:1 134:1 136:1 492:1 493:1 526:1 531:1 
0.1278919149249856 30:1 73:1 74:1 96:1 98:1 102:1 107:1 121:1 134:1 153:1 182:1 534:1 
0.009187567025809498 19:1 21:1 22:1 30:1 31:1 60:1 73:1 101:1 104:1 105:1 106:1 108:1 113:1 128:1 130:1 131:1 158:1 490:1 491:1 503:1 535:1 
0.6331182178495001 6:1 8:1 10:1 14:1 30:1 31:1 32:1 75:1 101:1 110:1 116:1 132:1 171:1 280:1 284:1 348:1 
0.1511275722208073 6:1 8:1 10:1 30:1 31:1 32:1 37:1 75:1 124:1 125:1 151:1 152:1 175:1 282:1 350:1 387:1 450:1 
0.3265056082341503 6:1 8:1 30:1 32:1 33:1 71:1 73:1 74:1 75:1 107:1 116:1 125:1 129:1 134:1 178:1 231:1 351:1 392:1 451:1 
0.03660009677878952 6:1 8:1 30:1 32:1 33:1 56:1 73:1 74:1 75:1 83:1 107:1 124:1 125:1 134:1 139:1 179:1 292:1 391:1 442:1 
0.2066391019750995 6:1 10:1 20:1 30:1 73:1 75:1 97:1 102:1 106:1 107:1 129:1 130:1 134:1 153:1 156:1 160:1 285:1 396:1 444:1 
0.005266416765399314 14:1 19:1 20:1 21:1 24:1 28:1 29:1 31:1 51:1 60:1 76:1 117:1 128:1 131:1 135:1 156:1 182:1 287:1 
0.4198973074981253 6:1 21:1 22:1 53:1 62:1 75:1 116:1 129:1 134:1 147:1 441:1 
1 6:1 20:1 21:1 41:1 51:1 72:1 75:1 76:1 102:1 107:1 117:1 129:1 134:1 147:1 156:1 161:1 182:1 444:1 
0.2708661771567897 18:1 19:1 21:1 30:1 60:1 61:1 76:1 103:1 105:1 107:1 108:1 120:1 130:1 135:1 151:1 153:1 156:1 157:1 447:1 450:1 
0.004642519037655518 6:1 8:1 30:1 31:1 56:1 68:1 70:1 73:1 116:1 118:1 125:1 130:1 172:1 234:1 339:1 492:1 493:1 
-1 11:1 12:1 13:1 14:1 15:1 16:1 17:1 18:1 19:1 20:1 21:1 22:1 
-0.6721560585503303 18:1 19:1 21:1 30:1 60:1 73:1 74:1 98:1 99:1 100:1 101:1 102:1 103:1 104:1 105:1 106:1 107:1 108:1 
-1 9:1 11:1 12:1 17:1 18:1 19:1 53:1 60:1 61:1 76:1 145:1 159:1 
-1 8:1 12:1 18:1 30:1 32:1 33:1 47:1 73:1 74:1 93:1 100:1 101:1 105:1 107:1 118:1 148:1 151:1 155:1 157:1 
-1 12:1 14:1 18:1 19:1 30:1 70:1 87:1 95:1 98:1 100:1 101:1 102:1 107:1 166:1 
-1 8:1 10:1 11:1 12:1 17:1 18:1 97:1 106:1 118:1 125:1 171:1 172:1 
-0.9569962721377271 18:1 19:1 21:1 22:1 30:1 44:1 60:1 61:1 73:1 98:1 102:1 103:1 107:1 108:1 115:1 116:1 166:1 180:1 182:1 
-1 6:1 8:1 35:1 52:1 54:1 62:1 69:1 73:1 75:1 116:1 129:1 133:1 136:1 182:1 195:1 196:1 197:1 
-1 19:1 21:1 22:1 30:1 31:1 53:1 60:1 73:1 113:1 124:1 130:1 131:1 148:1 151:1 152:1 162:1 163:1 176:1 225:1 226:1 502:1 
-0.5337001772038783 3:1 6:1 20:1 30:1 44:1 69:1 75:1 95:1 98:1 102:1 107:1 110:1 129:1 145:1 156:1 159:1 166:1 533:1 
-1 6:1 30:1 53:1 73:1 75:1 77:1 83:1 101:1 124:1 130:1 132:1 133:1 134:1 136:1 158:1 527:1 561:1 
-0.8254875160574835 30:1 73:1 96:1 98:1 102:1 107:1 134:1 152:1 153:1 166:1 180:1 549:1 553:1 560:1 
-1 2:1 7:1 9:1 17:1 44:1 53:1 64:1 71:1 139:1 160:1 165:1 180:1 187:1 188:1 212:1 265:1 
-1 6:1 14:1 21:1 22:1 23:1 24:1 25:1 30:1 31:1 75:1 106:1 108:1 114:1 145:1 
-1 19:1 21:1 22:1 30:1 53:1 55:1 60:1 73:1 74:1 104:1 105:1 107:1 128:1 131:1 132:1 143:1 157:1 231:1 
-1 6:1 7:1 21:1 22:1 24:1 25:1 30:1 31:1 41:1 51:1 53:1 56:1 70:1 84:1 95:1 145:1 152:1 226:1 274:1 
-0.2782542969572728 6:1 21:1 30:1 53:1 61:1 69:1 70:1 75:1 76:1 95:1 101:1 107:1 110:1 111:1 130:1 145:1 148:1 151:1 157:1 
-1 6:1 8:1 10:1 30:1 73:1 74:1 75:1 87:1 88:1 97:1 106:1 129:1 133:1 134:1 136:1 147:1 176:1 231:1 543:1 
-0.5100399760539466 6:1 51:1 117:1 129:1 133:1 134:1 135:1 158:1 192:1 195:1 374:1 375:1 564:1 
-1 6:1 8:1 10:1 32:1 51:1 52:1 75:1 82:1 104:1 105:1 116:1 136:1 138:1 142:1 150:1 155:1 178:1 544:1 557:1 
-0.145702616386864 6:1 8:1 10:1 30:1 32:1 61:1 73:1 75:1 107:1 114:1 116:1 130:1 140:1 145:1 152:1 153:1 156:1 157:1 542:1 549:1 551:1 556:1 
-1 6:1 8:1 10:1 30:1 32:1 70:1 73:1 75:1 107:1 116:1 125:1 130:1 140:1 147:1 153:1 156:1 157:1 182:1 543:1 548:1 551:1 558:1 
-0.1368668539396063 6:1 25:1 26:1 30:1 73:1 98:1 101:1 102:1 107:1 130:1 146:1 158:1 547:1 554:1 564:1 
-0.8513201035448082 6:1 8:1 10:1 30:1 31:1 32:1 75:1 110:1 116:1 125:1 129:1 132:1 134:1 147:1 231:1 280:1 
-0.0556719382672474 6:1 8:1 10:1 30:1 32:1 73:1 75:1 107:1 116:1 124:1 130:1 134:1 145:1 150:1 153:1 156:1 157:1 158:1 554:1 
-0.03706107518617904 6:1 30:1 53:1 64:1 71:1 73:1 75:1 107:1 125:1 129:1 130:1 134:1 153:1 157:1 163:1 182:1 532:1 553:1 
-1 30:1 73:1 96:1 98:1 102:1 107:1 130:1 134:1 153:1 156:1 158:1 534:1 554:1 
-1 6:1 8:1 10:1 32:1 51:1 56:1 75:1 117:1 124:1 125:1 134:1 136:1 137:1 143:1 150:1 161:1 167:1 235:1 405:1 501:1 
-0.8153268082711087 6:1 8:1 10:1 30:1 49:1 66:1 75:1 97:1 107:1 116:1 129:1 134:1 135:1 147:1 153:1 157:1 158:1 166:1 406:1 503:1 553:1 
-0.6007980370454185 6:1 8:1 22:1 30:1 32:1 69:1 73:1 107:1 116:1 118:1 125:1 129:1 130:1 153:1 156:1 157:1 158:1 172:1 519:1 554:1 
-0.4484155267035201 6:1 51:1 61:1 69:1 98:1 102:1 107:1 116:1 117:1 125:1 129:1 156:1 161:1 167:1 182:1 535:1 
-1 6:1 19:1 21:1 22:1 30:1 53:1 74:1 95:1 100:1 105:1 107:1 127:1 129:1 134:1 143:1 155:1 209:1 397:1 541:1 
-1 17:1 18:1 19:1 21:1 22:1 60:1 81:1 103:1 106:1 108:1 202:1 214:1 421:1 
-0.3011934582813354 18:1 30:1 73:1 98:1 102:1 103:1 104:1 107:1 127:1 166:1 179:1 180:1 185:1 337:1 383:1 
-1 10:1 17:1 18:1 20:1 89:1 90:1 97:1 103:1 106:1 185:1 186:1 202:1 214:1 
-0.196945251016279 8:1 10:1 18:1 30:1 41:1 95:1 97:1 98:1 102:1 107:1 115:1 132:1 137:1 166:1 170:1 231:1 236:1 323:1 336:1 
-1 6:1 8:1 10:1 30:1 31:1 32:1 37:1 50:1 61:1 75:1 145:1 150:1 231:1 280:1 
-0.1436415169055867 6:1 8:1 10:1 30:1 32:1 50:1 61:1 65:1 73:1 74:1 75:1 82:1 107:1 145:1 150:1 157:1 231:1 282:1 553:1 
-0.1755707854269895 4:1 6:1 21:1 22:1 30:1 53:1 64:1 71:1 73:1 75:1 82:1 101:1 107:1 130:1 150:1 152:1 157:1 163:1 283:1 514:1 530:1 553:1 
-1 6:1 13:1 21:1 31:1 50:1 51:1 53:1 56:1 69:1 75:1 76:1 94:1 104:1 113:1 117:1 137:1 167:1 287:1 521:1 
-0.008180732587195087 6:1 8:1 10:1 21:1 39:1 51:1 69:1 70:1 95:1 98:1 102:1 107:1 111:1 116:1 117:1 118:1 125:1 152:1 161:1 
-1 6:1 8:1 10:1 32:1 70:1 73:1 74:1 94:1 118:1 121:1 127:1 133:1 136:1 140:1 152:1 164:1 172:1 344:1 
-1 6:1 8:1 10:1 14:1 30:1 32:1 50:1 73:1 75:1 82:1 107:1 132:1 145:1 150:1 157:1 166:1 181:1 231:1 
-0.1893563332566188 6:1 21:1 30:1 49:1 53:1 64:1 71:1 73:1 75:1 82:1 107:1 130:1 150:1 152:1 157:1 163:1 215:1 231:1 553:1 
-0.5820293095662716 6:1 51:1 61:1 69:1 98:1 102:1 107:1 111:1 117:1 135:1 158:1 161:1 171:1 554:1 
-1 6:1 11:1 14:1 19:1 21:1 37:1 76:1 108:1 114:1 115:1 164:1 
-0.2258686184268986 18:1 21:1 22:1 30:1 43:1 53:1 65:1 73:1 74:1 94:1 103:1 107:1 114:1 147:1 157:1 164:1 231:1 337:1 
-0.1358929261710421 18:1 19:1 21:1 33:1 51:1 56:1 60:1 94:1 98:1 102:1 103:1 104:1 107:1 108:1 117:1 135:1 137:1 161:1 164:1 
-1 6:1 8:1 10:1 24:1 31:1 32:1 51:1 75:1 95:1 111:1 117:1 119:1 120:1 124:1 125:1 134:1 143:1 150:1 161:1 522:1 
-0.7869946005118831 6:1 8:1 10:1 30:1 32:1 43:1 74:1 75:1 107:1 125:1 129:1 134:1 135:1 143:1 147:1 153:1 157:1 158:1 538:1 553:1 
-0.4285368113067635 6:1 8:1 10:1 30:1 32:1 73:1 75:1 107:1 124:1 125:1 130:1 134:1 148:1 150:1 151:1 153:1 156:1 157:1 158:1 554:1 
-0.4315519921086053 6:1 8:1 30:1 32:1 64:1 71:1 73:1 75:1 107:1 116:1 125:1 129:1 130:1 134:1 153:1 157:1 163:1 182:1 318:1 553:1 
-0.1044933890933064 6:1 21:1 30:1 33:1 73:1 75:1 98:1 102:1 107:1 124:1 125:1 129:1 130:1 134:1 143:1 153:1 156:1 158:1 321:1 511:1 554:1 
-1 6:1 8:1 10:1 24:1 26:1 30:1 31:1 64:1 71:1 75:1 78:1 94:1 95:1 97:1 153:1 164:1 180:1 234:1 275:1 327:1 526:1 
-1 19:1 21:1 30:1 31:1 60:1 73:1 76:1 104:1 105:1 106:1 108:1 128:1 130:1 131:1 156:1 158:1 175:1 184:1 
-1 19:1 30:1 50:1 54:1 60:1 61:1 62:1 73:1 98:1 102:1 107:1 128:1 131:1 152:1 153:1 166:1 180:1 
-1 8:1 11:1 12:1 17:1 18:1 22:1 32:1 85:1 118:1 171:1 172:1 255:1 
-0.40647313242301 6:1 8:1 10:1 30:1 32:1 49:1 56:1 73:1 74:1 75:1 116:1 127:1 129:1 133:1 134:1 136:1 137:1 147:1 464:1 
-0.2186384191314568 6:1 8:1 10:1 30:1 32:1 69:1 73:1 75:1 105:1 107:1 124:1 129:1 143:1 153:1 156:1 157:1 166:1 181:1 554:1 
-0.4506917554881914 4:1 6:1 8:1 10:1 30:1 32:1 69:1 70:1 73:1 75:1 101:1 107:1 130:1 143:1 147:1 156:1 157:1 182:1 
-0.9237941316281602 6:1 8:1 30:1 61:1 65:1 73:1 75:1 77:1 82:1 83:1 101:1 107:1 130:1 157:1 163:1 553:1 
-0.5965187621891475 2:1 7:1 11:1 17:1 22:1 51:1 53:1 94:1 132:1 135:1 138:1 143:1 147:1 158:1 165:1 187:1 188:1 332:1 503:1 
-0.5234602815747956 35:1 42:1 52:1 53:1 71:1 73:1 75:1 76:1 94:1 106:1 107:1 150:1 157:1 195:1 197:1 234:1 332:1 340:1 451:1 519:1 535:1 554:1 
-1 8:1 61:1 102:1 107:1 117:1 118:1 123:1 132:1 135:1 158:1 161:1 234:1 340:1 345:1 444:1 533:1 554:1 
-1 9:1 10:1 17:1 18:1 19:1 29:1 30:1 53:1 54:1 58:1 59:1 61:1 62:1 95:1 101:1 152:1 166:1 210:1 261:1 
-0.7442706350011344 18:1 19:1 30:1 59:1 73:1 74:1 94:1 98:1 99:1 101:1 102:1 107:1 114:1 143:1 146:1 147:1 
-1 8:1 12:1 17:1 18:1 32:1 33:1 49:1 51:1 85:1 117:1 118:1 139:1 156:1 161:1 167:1 171:1 172:1 182:1 238:1 
-1 18:1 19:1 23:1 30:1 33:1 53:1 60:1 61:1 103:1 105:1 130:1 148:1 151:1 163:1 189:1 191:1 200:1 216:1 266:1 
-1 7:1 8:1 10:1 30:1 74:1 92:1 93:1 97:1 98:1 101:1 102:1 105:1 106:1 107:1 110:1 111:1 187:1 188:1 200:1 
-1 4:1 6:1 8:1 10:1 31:1 32:1 69:1 70:1 73:1 113:1 118:1 130:1 148:1 151:1 152:1 168:1 169:1 172:1 192:1 194:1 553:1 
-1 6:1 8:1 10:1 30:1 31:1 67:1 68:1 82:1 93:1 97:1 105:1 106:1 118:1 123:1 155:1 178:1 
-0.2578864649482951 6:1 8:1 9:1 49:1 51:1 69:1 70:1 76:1 85:1 117:1 118:1 133:1 158:1 167:1 172:1 192:1 195:1 374:1 375:1 
-1 18:1 20:1 21:1 27:1 30:1 49:1 73:1 76:1 85:1 101:1 107:1 118:1 123:1 130:1 152:1 157:1 168:1 169:1 173:1 547:1 551:1 
-0.8700302642809953 19:1 20:1 21:1 30:1 41:1 61:1 73:1 76:1 98:1 101:1 102:1 107:1 110:1 111:1 128:1 131:1 160:1 166:1 261:1 
-1 6:1 8:1 10:1 30:1 31:1 32:1 50:1 70:1 73:1 75:1 101:1 105:1 111:1 147:1 166:1 181:1 234:1 280:1 
-1 6:1 30:1 65:1 70:1 73:1 98:1 101:1 102:1 107:1 130:1 163:1 234:1 553:1 
-0.5377766053279066 6:1 8:1 10:1 14:1 32:1 50:1 51:1 54:1 62:1 75:1 82:1 111:1 117:1 136:1 149:1 150:1 161:1 167:1 235:1 405:1 501:1 
-0.8488760724822536 9:1 10:1 11:1 17:1 18:1 41:1 51:1 53:1 56:1 72:1 103:1 114:1 117:1 137:1 147:1 161:1 167:1 337:1 
-0.1448891741806322 18:1 19:1 21:1 22:1 42:1 53:1 60:1 61:1 73:1 74:1 103:1 105:1 107:1 121:1 127:1 143:1 157:1 344:1 554:1 
-1 6:1 8:1 22:1 31:1 32:1 50:1 61:1 69:1 70:1 75:1 95:1 113:1 117:1 126:1 132:1 145:1 161:1 345:1 555:1 
-1 6:1 21:1 22:1 30:1 50:1 53:1 54:1 62:1 70:1 74:1 75:1 82:1 101:1 107:1 110:1 111:1 135:1 147:1 157:1 
-1 6:1 8:1 10:1 24:1 30:1 31:1 32:1 69:1 70:1 116:1 118:1 125:1 127:1 172:1 
-0.5440359738790775 6:1 8:1 10:1 26:1 30:1 50:1 73:1 97:1 98:1 102:1 105:1 107:1 118:1 140:1 153:1 156:1 166:1 172:1 181:1 
-1 6:1 20:1 21:1 22:1 26:1 30:1 31:1 40:1 50:1 64:1 67:1 68:1 71:1 73:1 74:1 75:1 111:1 152:1 234:1 
-1 17:1 18:1 21:1 49:1 50:1 76:1 89:1 90:1 108:1 129:1 172:1 173:1 186:1 
-0.5683315581351994 12:1 18:1 19:1 20:1 21:1 30:1 39:1 40:1 41:1 76:1 95:1 98:1 102:1 107:1 155:1 166:1 180:1 231:1 269:1 
-1 8:1 10:1 12:1 18:1 30:1 73:1 97:1 105:1 107:1 118:1 130:1 153:1 156:1 157:1 158:1 164:1 171:1 172:1 527:1 551:1 
-0.9064697027839188 3:1 8:1 10:1 18:1 30:1 32:1 41:1 47:1 54:1 62:1 73:1 101:1 102:1 107:1 118:1 146:1 166:1 173:1 181:1 456:1 
-1 12:1 17:1 18:1 19:1 21:1 22:1 51:1 104:1 105:1 106:1 108:1 114:1 117:1 139:1 156:1 161:1 167:1 181:1 
-1 1:1 2:1 6:1 7:1 8:1 17:1 22:1 32:1 50:1 51:1 56:1 93:1 105:1 117:1 152:1 161:1 167:1 224:1 273:1 
-1 1:1 2:1 6:1 7:1 8:1 9:1 61:1 63:1 73:1 76:1 105:1 109:1 112:1 117:1 130:1 133:1 152:1 163:1 273:1 325:1 
-1 4:1 6:1 8:1 10:1 32:1 51:1 52:1 64:1 65:1 70:1 71:1 73:1 75:1 82:1 111:1 133:1 136:1 164:1 281:1 524:1 
-0.2451653818481459 6:1 8:1 9:1 10:1 26:1 30:1 37:1 63:1 75:1 95:1 98:1 101:1 102:1 107:1 111:1 147:1 166:1 181:1 262:1 263:1 523:1 554:1 
-1 9:1 10:1 18:1 19:1 41:1 51:1 53:1 64:1 70:1 71:1 72:1 103:1 117:1 156:1 161:1 167:1 182:1 189:1 191:1 522:1 
-0.2903742679596322 18:1 19:1 30:1 60:1 74:1 98:1 101:1 102:1 103:1 104:1 105:1 107:1 121:1 200:1 216:1 539:1 554:1 
-1 8:1 11:1 12:1 17:1 18:1 32:1 33:1 51:1 93:1 95:1 105:1 111:1 137:1 148:1 151:1 194:1 300:1 301:1 432:1 
-0.4402050849823195 12:1 18:1 19:1 21:1 30:1 41:1 61:1 95:1 98:1 100:1 101:1 102:1 107:1 108:1 115:1 261:1 310:1 357:1 530:1 
