svm_type c_svc
kernel_type linear
nr_class 2
total_sv 77
rho -4.00364
label -1 1
nr_sv 55 22
SV
0.2132557343236396 17:1 19:1 50:1 74:1 86:1 91:1 94:1 96:1 100:1 124:1 129:1 153:1 165:1 181:1 199:1 200:1 
0.2564260310721747 10:1 17:1 19:1 53:1 74:1 96:1 97:1 115:1 116:1 129:1 139:1 147:1 153:1 154:1 156:1 165:1 167:1 182:1 
0.000427147489215 6:1 19:1 20:1 21:1 41:1 51:1 52:1 58:1 76:1 121:1 129:1 134:1 135:1 136:1 160:1 177:1 182:1 244:1 245:1 
0.03127358620684104 17:1 20:1 21:1 22:1 49:1 51:1 52:1 90:1 96:1 101:1 110:1 116:1 132:1 154:1 170:1 185:1 186:1 
0.1026024777968785 16:1 17:1 19:1 20:1 33:1 52:1 96:1 100:1 135:1 139:1 141:1 153:1 154:1 179:1 197:1 213:1 219:1 220:1 266:1 
0.2456311391894446 17:1 19:1 21:1 51:1 60:1 61:1 90:1 95:1 96:1 108:1 115:1 116:1 153:1 154:1 156:1 165:1 181:1 
0.004423285484612783 3:1 4:1 8:1 10:1 18:1 30:1 73:1 97:1 100:1 106:1 107:1 118:1 123:1 153:1 157:1 166:1 173:1 181:1 
0.006420010266303715 17:1 19:1 51:1 96:1 129:1 138:1 139:1 152:1 154:1 165:1 167:1 288:1 
0.1161565955893337 18:1 19:1 20:1 21:1 28:1 29:1 30:1 33:1 46:1 60:1 61:1 73:1 107:1 152:1 153:1 157:1 166:1 180:1 
0.051079558469719 2:1 3:1 4:1 7:1 8:1 17:1 51:1 79:1 96:1 139:1 153:1 154:1 165:1 167:1 182:1 
0.03753034343390377 19:1 20:1 21:1 76:1 116:1 128:1 129:1 131:1 133:1 160:1 317:1 325:1 
0.06670135681536647 10:1 17:1 19:1 20:1 41:1 51:1 96:1 115:1 117:1 135:1 139:1 141:1 153:1 154:1 168:1 169:1 182:1 269:1 319:1 320:1 
0.001717224722354861 19:1 30:1 73:1 107:1 124:1 128:1 129:1 130:1 152:1 163:1 189:1 192:1 372:1 373:1 
0.4575623758103519 19:1 20:1 30:1 31:1 35:1 60:1 61:1 73:1 86:1 91:1 96:1 110:1 111:1 130:1 160:1 175:1 
0.5165949330875046 17:1 19:1 20:1 21:1 51:1 76:1 96:1 105:1 106:1 109:1 112:1 117:1 139:1 141:1 154:1 156:1 167:1 181:1 269:1 
0.4674680590856858 10:1 17:1 19:1 20:1 51:1 60:1 61:1 90:1 95:1 96:1 97:1 127:1 154:1 156:1 159:1 165:1 182:1 268:1 
0.1214022904214979 13:1 17:1 19:1 21:1 33:1 43:1 49:1 51:1 52:1 85:1 96:1 108:1 139:1 153:1 154:1 167:1 172:1 182:1 
0.1034027074528647 9:1 19:1 30:1 53:1 86:1 91:1 96:1 101:1 107:1 110:1 111:1 124:1 125:1 129:1 143:1 157:1 166:1 167:1 265:1 
0.2910957150521687 19:1 21:1 30:1 50:1 53:1 73:1 76:1 86:1 91:1 96:1 107:1 124:1 129:1 130:1 145:1 153:1 156:1 157:1 182:1 
0.03672763639025144 19:1 30:1 60:1 73:1 86:1 91:1 96:1 105:1 107:1 116:1 124:1 153:1 156:1 157:1 166:1 181:1 
0.1276688217442841 17:1 19:1 20:1 21:1 22:1 41:1 60:1 61:1 73:1 74:1 128:1 139:1 153:1 155:1 160:1 165:1 180:1 272:1 324:1 
0.1479033388326783 17:1 19:1 20:1 22:1 50:1 51:1 60:1 96:1 97:1 104:1 105:1 139:1 153:1 154:1 156:1 165:1 167:1 182:1 
0.005114101300028817 10:1 16:1 18:1 19:1 20:1 21:1 73:1 104:1 105:1 107:1 130:1 152:1 153:1 157:1 162:1 163:1 194:1 236:1 
0.3241412464319202 6:1 10:1 20:1 30:1 73:1 75:1 97:1 100:1 101:1 106:1 107:1 129:1 134:1 147:1 157:1 160:1 197:1 434:1 
0.03553966814539717 8:1 17:1 32:1 33:1 51:1 61:1 89:1 96:1 118:1 123:1 135:1 148:1 151:1 152:1 154:1 165:1 176:1 180:1 199:1 
0.1222333769393861 17:1 19:1 21:1 39:1 51:1 76:1 100:1 108:1 116:1 125:1 128:1 129:1 131:1 139:1 153:1 165:1 167:1 181:1 
0.1759986194091718 8:1 10:1 17:1 19:1 36:1 74:1 79:1 96:1 97:1 116:1 125:1 129:1 135:1 153:1 165:1 182:1 209:1 395:1 
0.120214109369549 10:1 19:1 21:1 28:1 30:1 60:1 61:1 74:1 86:1 91:1 96:1 101:1 107:1 108:1 111:1 116:1 135:1 137:1 157:1 
0.06085832550329671 7:1 8:1 10:1 30:1 85:1 86:1 91:1 92:1 93:1 94:1 96:1 97:1 107:1 130:1 132:1 157:1 158:1 231:1 448:1 
0.3853711613367296 4:1 17:1 19:1 20:1 21:1 22:1 45:1 51:1 96:1 127:1 132:1 137:1 141:1 148:1 151:1 154:1 165:1 246:1 247:1 
0.2962669613706081 10:1 17:1 19:1 20:1 36:1 84:1 96:1 97:1 106:1 129:1 138:1 154:1 165:1 202:1 
0.1075203260891206 10:1 17:1 20:1 21:1 45:1 73:1 74:1 75:1 77:1 83:1 96:1 116:1 125:1 127:1 132:1 141:1 149:1 154:1 165:1 
0.09977048459803851 2:1 7:1 8:1 21:1 30:1 86:1 91:1 95:1 96:1 107:1 124:1 125:1 132:1 137:1 157:1 166:1 203:1 231:1 
0.0008520887244087196 6:1 19:1 20:1 21:1 30:1 72:1 73:1 76:1 82:1 107:1 124:1 129:1 142:1 161:1 166:1 182:1 212:1 238:1 437:1 
0.04882268574522827 18:1 20:1 21:1 27:1 30:1 49:1 73:1 76:1 85:1 101:1 107:1 118:1 123:1 130:1 152:1 157:1 168:1 169:1 173:1 
0.7085872894532237 19:1 20:1 21:1 22:1 41:1 84:1 128:1 202:1 269:1 324:1 
0.07929713009884 17:1 19:1 51:1 61:1 86:1 89:1 90:1 91:1 96:1 129:1 165:1 167:1 180:1 182:1 
0.3405940538232392 17:1 19:1 20:1 21:1 49:1 51:1 76:1 85:1 90:1 96:1 110:1 111:1 138:1 141:1 154:1 165:1 167:1 269:1 
0.1770285801810999 14:1 17:1 19:1 21:1 50:1 51:1 76:1 86:1 91:1 95:1 96:1 108:1 115:1 139:1 152:1 153:1 165:1 180:1 261:1 
0.02075754545287352 19:1 20:1 21:1 31:1 51:1 61:1 67:1 68:1 76:1 117:1 128:1 131:1 155:1 160:1 164:1 167:1 178:1 261:1 380:1 
0.07419815301051252 20:1 21:1 27:1 30:1 31:1 49:1 50:1 51:1 76:1 95:1 96:1 152:1 154:1 156:1 184:1 185:1 186:1 235:1 
1 17:1 19:1 20:1 21:1 51:1 76:1 85:1 94:1 96:1 111:1 129:1 138:1 139:1 141:1 154:1 165:1 167:1 181:1 
0.01397827364883906 8:1 9:1 10:1 30:1 50:1 73:1 74:1 86:1 91:1 96:1 101:1 107:1 110:1 111:1 123:1 157:1 160:1 271:1 317:1 323:1 
0.05188832967364346 15:1 16:1 19:1 20:1 21:1 52:1 61:1 73:1 76:1 121:1 128:1 130:1 131:1 158:1 177:1 189:1 191:1 261:1 
0.01422678497896619 10:1 18:1 19:1 20:1 30:1 41:1 47:1 48:1 73:1 97:1 103:1 107:1 152:1 153:1 157:1 166:1 180:1 202:1 
0.04402701651787995 19:1 21:1 30:1 33:1 53:1 63:1 70:1 73:1 74:1 91:1 96:1 100:1 101:1 107:1 126:1 147:1 157:1 262:1 263:1 443:1 
0.08076317514796845 5:1 17:1 19:1 20:1 21:1 33:1 49:1 73:1 84:1 90:1 96:1 112:1 117:1 130:1 152:1 154:1 163:1 219:1 220:1 445:1 
0.1665112755227816 8:1 9:1 17:1 19:1 51:1 76:1 87:1 90:1 95:1 96:1 100:1 106:1 127:1 154:1 160:1 165:1 219:1 220:1 317:1 
0.0518763926666541 6:1 10:1 19:1 20:1 30:1 41:1 73:1 97:1 101:1 107:1 110:1 115:1 132:1 141:1 157:1 166:1 221:1 222:1 269:1 
0.2788933329851968 19:1 20:1 21:1 30:1 73:1 76:1 100:1 101:1 107:1 129:1 141:1 157:1 166:1 181:1 188:1 213:1 215:1 358:1 
0.03976820474079503 17:1 20:1 21:1 22:1 51:1 84:1 96:1 100:1 105:1 139:1 148:1 151:1 153:1 154:1 165:1 167:1 181:1 185:1 186:1 
0.1983452655281005 12:1 18:1 19:1 21:1 30:1 49:1 95:1 107:1 108:1 129:1 152:1 156:1 157:1 166:1 172:1 174:1 231:1 
0.09994173924861097 10:1 17:1 19:1 20:1 51:1 52:1 60:1 90:1 97:1 99:1 100:1 106:1 124:1 127:1 128:1 131:1 167:1 202:1 
0.09074580159002725 9:1 10:1 19:1 30:1 53:1 63:1 91:1 96:1 107:1 124:1 129:1 145:1 153:1 156:1 157:1 443:1 
0.003901097715168081 14:1 17:1 19:1 20:1 21:1 29:1 51:1 76:1 96:1 111:1 138:1 139:1 152:1 154:1 165:1 167:1 331:1 486:1 487:1 
-1 17:1 19:1 20:1 21:1 41:1 51:1 61:1 76:1 96:1 129:1 138:1 139:1 152:1 154:1 156:1 160:1 165:1 167:1 
-0.305234851062614 10:1 16:1 17:1 19:1 20:1 51:1 84:1 86:1 90:1 91:1 96:1 97:1 110:1 127:1 129:1 132:1 165:1 167:1 202:1 
-0.355795734306912 19:1 20:1 21:1 30:1 73:1 86:1 91:1 94:1 96:1 101:1 107:1 110:1 132:1 141:1 157:1 164:1 166:1 265:1 269:1 
-0.6927717318220595 4:1 17:1 19:1 20:1 21:1 22:1 51:1 90:1 95:1 96:1 100:1 127:1 141:1 148:1 151:1 154:1 165:1 181:1 269:1 
-0.05518340048085916 16:1 17:1 19:1 20:1 33:1 34:1 35:1 45:1 51:1 52:1 86:1 91:1 96:1 129:1 135:1 141:1 158:1 354:1 355:1 
-0.03880361346044402 19:1 20:1 30:1 60:1 61:1 73:1 76:1 86:1 91:1 96:1 101:1 107:1 146:1 157:1 160:1 166:1 181:1 352:1 355:1 
-0.1234715952253763 3:1 8:1 21:1 33:1 42:1 49:1 50:1 51:1 52:1 73:1 80:1 86:1 91:1 96:1 107:1 118:1 123:1 157:1 341:1 
-0.1669621514342486 19:1 20:1 30:1 60:1 73:1 74:1 76:1 86:1 91:1 96:1 97:1 100:1 101:1 107:1 124:1 125:1 155:1 157:1 159:1 
-0.1837545574364918 7:1 21:1 33:1 51:1 52:1 79:1 80:1 107:1 108:1 115:1 123:1 128:1 152:1 157:1 167:1 170:1 267:1 324:1 377:1 
-0.225518895909546 19:1 20:1 60:1 63:1 76:1 91:1 95:1 96:1 105:1 107:1 124:1 127:1 137:1 157:1 169:1 197:1 332:1 344:1 446:1 455:1 
-0.7670330124476656 19:1 20:1 21:1 30:1 60:1 73:1 85:1 94:1 107:1 128:1 130:1 153:1 156:1 157:1 182:1 311:1 324:1 
-0.6706778527526841 17:1 19:1 20:1 21:1 22:1 49:1 73:1 74:1 84:1 85:1 96:1 109:1 112:1 129:1 139:1 154:1 156:1 165:1 181:1 
-0.701061455281758 8:1 9:1 10:1 17:1 19:1 51:1 61:1 96:1 100:1 116:1 125:1 153:1 154:1 165:1 167:1 181:1 199:1 261:1 
-0.3522701368278665 19:1 20:1 21:1 76:1 96:1 116:1 124:1 129:1 154:1 160:1 189:1 191:1 
-0.2758202563631769 4:1 19:1 21:1 30:1 33:1 60:1 91:1 95:1 96:1 101:1 104:1 106:1 107:1 108:1 110:1 132:1 157:1 166:1 455:1 
-1 10:1 17:1 19:1 20:1 51:1 96:1 97:1 106:1 111:1 129:1 139:1 141:1 153:1 154:1 165:1 167:1 182:1 202:1 
-0.2199953893798828 3:1 17:1 19:1 20:1 21:1 45:1 60:1 73:1 74:1 76:1 85:1 86:1 88:1 91:1 96:1 160:1 182:1 306:1 307:1 
-0.2384760200789725 5:1 17:1 19:1 20:1 33:1 51:1 52:1 84:1 90:1 96:1 97:1 100:1 115:1 154:1 179:1 269:1 328:1 416:1 
-0.4830961834752621 14:1 19:1 21:1 28:1 30:1 31:1 34:1 35:1 76:1 95:1 108:1 116:1 128:1 129:1 175:1 197:1 324:1 434:1 
-0.4063792059126158 19:1 20:1 21:1 30:1 49:1 50:1 74:1 76:1 86:1 91:1 96:1 99:1 107:1 111:1 135:1 141:1 157:1 231:1 269:1 
-0.340637132134406 17:1 19:1 20:1 76:1 90:1 96:1 97:1 106:1 115:1 129:1 141:1 146:1 154:1 165:1 181:1 231:1 
-0.1185597898915378 10:1 19:1 20:1 31:1 35:1 41:1 51:1 91:1 96:1 115:1 117:1 141:1 152:1 163:1 167:1 175:1 269:1 319:1 320:1 455:1 
