svm_type c_svc
kernel_type linear
nr_class 2
total_sv 199
rho -1.85624
label -1 1
nr_sv 129 70
SV
0.4225034650375805 6:1 24:1 26:1 31:1 51:1 82:1 109:1 110:1 111:1 112:1 117:1 167:1 555:1 571:1 576:1 
0.009105894000074385 6:1 30:1 73:1 100:1 130:1 134:1 136:1 139:1 153:1 181:1 547:1 560:1 
0.2455308059768543 6:1 8:1 9:1 17:1 51:1 73:1 75:1 76:1 82:1 85:1 93:1 150:1 152:1 153:1 165:1 180:1 207:1 213:1 544:1 
0.004931775845483831 6:1 7:1 21:1 22:1 30:1 39:1 49:1 92:1 101:1 107:1 108:1 116:1 156:1 157:1 182:1 221:1 222:1 517:1 573:1 
0.1235703667519167 6:1 21:1 22:1 30:1 75:1 95:1 107:1 108:1 116:1 125:1 134:1 150:1 153:1 156:1 157:1 166:1 172:1 182:1 544:1 546:1 558:1 560:1 
1 6:1 30:1 73:1 74:1 82:1 122:1 136:1 144:1 152:1 180:1 
0.5028856938157289 6:1 20:1 37:1 52:1 73:1 75:1 109:1 112:1 122:1 130:1 132:1 136:1 141:1 150:1 158:1 534:1 
0.0959685653040785 12:1 18:1 21:1 35:1 49:1 50:1 52:1 73:1 76:1 98:1 102:1 107:1 108:1 172:1 182:1 185:1 186:1 195:1 197:1 554:1 567:1 575:1 
0.05977942647397509 6:1 31:1 61:1 67:1 68:1 73:1 74:1 77:1 82:1 83:1 155:1 194:1 195:1 518:1 533:1 
0.2628113250844339 6:1 8:1 9:1 10:1 30:1 61:1 75:1 77:1 82:1 83:1 100:1 101:1 119:1 120:1 130:1 133:1 135:1 136:1 145:1 217:1 218:1 514:1 554:1 
0.5165413401227339 8:1 10:1 17:1 51:1 75:1 77:1 83:1 90:1 93:1 96:1 97:1 100:1 101:1 105:1 106:1 117:1 135:1 154:1 158:1 554:1 573:1 574:1 
1 6:1 8:1 51:1 61:1 81:1 82:1 107:1 109:1 112:1 117:1 118:1 123:1 135:1 152:1 163:1 555:1 571:1 
0.5137143258061657 6:1 14:1 30:1 37:1 77:1 83:1 95:1 133:1 136:1 166:1 181:1 183:1 231:1 518:1 533:1 
0.3527096562150089 6:1 30:1 37:1 65:1 95:1 98:1 102:1 136:1 166:1 180:1 231:1 534:1 
0.05382846272261225 10:1 17:1 18:1 21:1 41:1 51:1 89:1 90:1 104:1 108:1 115:1 135:1 152:1 165:1 180:1 236:1 336:1 337:1 539:1 
0.08658870574317253 10:1 17:1 18:1 21:1 49:1 51:1 59:1 100:1 101:1 108:1 114:1 116:1 135:1 165:1 172:1 181:1 337:1 338:1 
0.5358194596173799 6:1 17:1 82:1 95:1 100:1 153:1 165:1 181:1 207:1 345:1 
0.03655933170678612 6:1 21:1 22:1 30:1 31:1 34:1 35:1 73:1 75:1 82:1 108:1 116:1 125:1 130:1 142:1 150:1 158:1 172:1 540:1 
0.07599465501791561 6:1 21:1 30:1 49:1 73:1 74:1 75:1 76:1 99:1 100:1 101:1 108:1 116:1 133:1 134:1 136:1 150:1 172:1 
0.2684677306712215 6:1 8:1 30:1 32:1 50:1 75:1 76:1 93:1 105:1 134:1 135:1 136:1 138:1 139:1 150:1 156:1 166:1 182:1 544:1 558:1 
0.4273071710286938 6:1 25:1 30:1 95:1 136:1 138:1 139:1 156:1 166:1 181:1 
0.8604024076365252 6:1 8:1 10:1 30:1 61:1 73:1 75:1 82:1 89:1 90:1 97:1 115:1 136:1 150:1 152:1 164:1 166:1 180:1 544:1 558:1 
0.6503512799509545 6:1 51:1 82:1 89:1 90:1 117:1 135:1 136:1 158:1 180:1 549:1 564:1 
1 6:1 17:1 51:1 53:1 75:1 82:1 124:1 150:1 152:1 153:1 165:1 167:1 180:1 207:1 544:1 561:1 
0.0388302193439168 6:1 21:1 30:1 33:1 49:1 50:1 53:1 64:1 71:1 75:1 82:1 87:1 111:1 136:1 138:1 142:1 150:1 166:1 200:1 506:1 
0.01643407368727481 6:1 8:1 30:1 31:1 32:1 43:1 75:1 76:1 82:1 89:1 90:1 93:1 116:1 125:1 150:1 182:1 197:1 544:1 558:1 
0.01803945699631468 6:1 8:1 9:1 30:1 73:1 75:1 106:1 107:1 109:1 112:1 130:1 134:1 139:1 150:1 156:1 160:1 182:1 270:1 317:1 318:1 548:1 560:1 
0.1698082152757857 30:1 74:1 95:1 96:1 100:1 133:1 134:1 136:1 153:1 182:1 
0.3818423711404421 3:1 6:1 8:1 10:1 30:1 41:1 56:1 73:1 74:1 75:1 97:1 99:1 115:1 134:1 136:1 138:1 139:1 150:1 544:1 555:1 
0.3111708103626046 13:1 17:1 19:1 21:1 49:1 51:1 65:1 76:1 85:1 95:1 96:1 108:1 139:1 153:1 154:1 165:1 172:1 180:1 545:1 553:1 
0.1484245093422774 6:1 8:1 30:1 32:1 37:1 56:1 67:1 73:1 75:1 77:1 83:1 90:1 104:1 105:1 136:1 137:1 143:1 166:1 363:1 559:1 
0.1918595077934147 6:1 10:1 20:1 52:1 73:1 75:1 77:1 83:1 89:1 97:1 115:1 116:1 130:1 134:1 136:1 139:1 170:1 179:1 180:1 526:1 
0.156674453413921 6:1 10:1 51:1 52:1 53:1 75:1 77:1 83:1 85:1 95:1 97:1 111:1 115:1 133:1 134:1 136:1 177:1 182:1 214:1 
0.1915320223489105 6:1 21:1 51:1 52:1 75:1 76:1 82:1 85:1 90:1 94:1 100:1 127:1 136:1 150:1 167:1 172:1 181:1 321:1 515:1 560:1 
0.09625302924475383 3:1 6:1 8:1 25:1 30:1 32:1 74:1 75:1 76:1 106:1 107:1 135:1 152:1 153:1 156:1 392:1 393:1 394:1 530:1 
0.1700002530040575 6:1 8:1 10:1 51:1 55:1 75:1 93:1 97:1 105:1 106:1 117:1 134:1 135:1 136:1 138:1 139:1 150:1 288:1 534:1 544:1 
0.07644714646992351 6:1 8:1 10:1 32:1 51:1 52:1 75:1 82:1 104:1 105:1 116:1 136:1 138:1 142:1 150:1 155:1 178:1 544:1 557:1 567:1 
0.2706891089657513 6:1 8:1 10:1 30:1 32:1 50:1 75:1 94:1 95:1 101:1 107:1 132:1 134:1 139:1 150:1 158:1 166:1 258:1 527:1 540:1 560:1 569:1 573:1 
0.2214387599946835 6:1 8:1 10:1 30:1 32:1 73:1 75:1 105:1 107:1 130:1 134:1 139:1 143:1 150:1 152:1 153:1 163:1 258:1 529:1 541:1 556:1 560:1 571:1 573:1 
0.3260976240825384 6:1 8:1 10:1 30:1 32:1 73:1 75:1 105:1 107:1 111:1 130:1 134:1 139:1 148:1 149:1 150:1 151:1 161:1 258:1 528:1 560:1 565:1 573:1 576:1 577:1 578:1 
0.01136888136654563 17:1 18:1 21:1 22:1 27:1 43:1 51:1 75:1 98:1 102:1 108:1 116:1 125:1 150:1 152:1 165:1 173:1 177:1 402:1 515:1 572:1 
0.5710056718713074 6:1 21:1 22:1 53:1 64:1 71:1 75:1 79:1 82:1 89:1 90:1 95:1 116:1 125:1 136:1 137:1 150:1 165:1 197:1 519:1 534:1 572:1 
0.164559352266498 5:1 18:1 28:1 30:1 33:1 97:1 104:1 107:1 130:1 135:1 153:1 156:1 157:1 173:1 182:1 185:1 186:1 334:1 517:1 531:1 575:1 577:1 
0.271832041806554 6:1 21:1 22:1 30:1 53:1 73:1 75:1 107:1 116:1 124:1 125:1 129:1 130:1 134:1 153:1 156:1 157:1 158:1 554:1 567:1 571:1 575:1 
0.7601538404775049 17:1 51:1 96:1 100:1 134:1 135:1 139:1 153:1 165:1 181:1 549:1 560:1 
0.7662201484601233 6:1 30:1 53:1 64:1 71:1 73:1 75:1 107:1 125:1 129:1 130:1 134:1 153:1 157:1 163:1 182:1 532:1 553:1 567:1 572:1 575:1 577:1 
1 6:1 8:1 22:1 30:1 32:1 73:1 81:1 107:1 118:1 123:1 124:1 125:1 130:1 134:1 143:1 156:1 161:1 182:1 555:1 568:1 571:1 576:1 577:1 
0.2665089369519762 6:1 21:1 30:1 41:1 53:1 54:1 62:1 73:1 75:1 100:1 129:1 130:1 133:1 134:1 136:1 147:1 153:1 158:1 554:1 570:1 571:1 
0.01023346434144696 30:1 74:1 96:1 100:1 101:1 126:1 133:1 134:1 135:1 136:1 565:1 
0.1467119950981783 17:1 18:1 51:1 53:1 90:1 101:1 111:1 115:1 116:1 117:1 118:1 137:1 162:1 167:1 170:1 236:1 549:1 558:1 
0.08040525454600077 51:1 52:1 57:1 73:1 96:1 121:1 133:1 134:1 136:1 259:1 260:1 
0.06033592305549938 6:1 17:1 74:1 82:1 127:1 135:1 139:1 152:1 165:1 210:1 
0.1345484275022319 6:1 8:1 9:1 30:1 37:1 55:1 73:1 75:1 76:1 98:1 102:1 132:1 136:1 150:1 166:1 212:1 231:1 232:1 233:1 408:1 515:1 
0.05111604852363976 6:1 10:1 20:1 25:1 28:1 41:1 51:1 75:1 77:1 83:1 90:1 97:1 117:1 136:1 138:1 141:1 163:1 167:1 438:1 563:1 
0.08989335789901198 6:1 30:1 82:1 89:1 90:1 95:1 136:1 166:1 180:1 438:1 
0.04017888323396499 6:1 8:1 9:1 30:1 31:1 72:1 75:1 110:1 134:1 139:1 150:1 153:1 156:1 197:1 215:1 232:1 233:1 265:1 515:1 
0.1627427291391726 6:1 30:1 82:1 107:1 109:1 110:1 111:1 112:1 122:1 135:1 166:1 534:1 
0.3473394828164184 31:1 51:1 109:1 112:1 113:1 114:1 117:1 132:1 167:1 181:1 187:1 340:1 384:1 555:1 576:1 
0.6135151308591402 6:1 30:1 31:1 67:1 68:1 73:1 74:1 82:1 119:1 120:1 132:1 
0.01319350227379256 6:1 8:1 30:1 32:1 33:1 75:1 101:1 102:1 107:1 110:1 116:1 125:1 134:1 147:1 156:1 236:1 444:1 543:1 558:1 
0.1334479969431804 6:1 7:1 8:1 10:1 14:1 32:1 37:1 50:1 145:1 278:1 568:1 570:1 573:1 
0.09434563133666689 8:1 14:1 17:1 32:1 50:1 51:1 75:1 77:1 83:1 90:1 96:1 111:1 117:1 135:1 154:1 158:1 161:1 284:1 523:1 535:1 554:1 555:1 569:1 573:1 574:1 576:1 
0.4102152256413304 6:1 51:1 75:1 82:1 107:1 117:1 135:1 158:1 168:1 169:1 231:1 392:1 398:1 501:1 536:1 553:1 569:1 575:1 
0.2493815623751881 17:1 56:1 73:1 90:1 96:1 117:1 119:1 120:1 130:1 290:1 292:1 502:1 534:1 554:1 571:1 576:1 
0.3483397881982975 21:1 33:1 49:1 51:1 52:1 53:1 71:1 75:1 102:1 116:1 127:1 150:1 191:1 195:1 216:1 234:1 340:1 444:1 453:1 506:1 
0.3158195582414901 6:1 10:1 20:1 25:1 51:1 52:1 65:1 67:1 75:1 88:1 97:1 106:1 136:1 139:1 202:1 214:1 387:1 516:1 
0.05321784432715661 6:1 8:1 21:1 25:1 52:1 67:1 73:1 75:1 76:1 116:1 124:1 130:1 136:1 139:1 156:1 182:1 204:1 393:1 
0.1325310370111224 8:1 10:1 16:1 17:1 52:1 73:1 75:1 77:1 83:1 90:1 93:1 96:1 97:1 101:1 105:1 130:1 132:1 137:1 154:1 571:1 573:1 574:1 
0.2950321572426953 8:1 17:1 50:1 51:1 56:1 75:1 77:1 83:1 90:1 93:1 96:1 117:1 135:1 154:1 158:1 161:1 202:1 554:1 555:1 569:1 573:1 574:1 576:1 
0.5886796024628986 6:1 51:1 61:1 69:1 98:1 102:1 107:1 111:1 117:1 135:1 158:1 161:1 171:1 554:1 567:1 569:1 576:1 
0.191974264309088 6:1 8:1 9:1 10:1 14:1 30:1 37:1 51:1 65:1 118:1 123:1 132:1 133:1 136:1 160:1 164:1 231:1 568:1 577:1 
0.4501026001653826 6:1 30:1 31:1 35:1 111:1 134:1 135:1 137:1 139:1 327:1 
0.07088984166334431 6:1 10:1 20:1 27:1 31:1 35:1 51:1 75:1 81:1 82:1 95:1 115:1 116:1 150:1 182:1 194:1 195:1 319:1 320:1 515:1 568:1 
0.05409703140216805 6:1 19:1 20:1 21:1 22:1 30:1 49:1 73:1 82:1 84:1 85:1 119:1 120:1 130:1 132:1 133:1 136:1 220:1 231:1 271:1 554:1 571:1 575:1 
0.04047723197068282 17:1 19:1 21:1 22:1 60:1 61:1 73:1 74:1 90:1 100:1 108:1 115:1 116:1 127:1 128:1 131:1 165:1 181:1 568:1 577:1 
0.1746551865643353 6:1 19:1 31:1 35:1 61:1 73:1 117:1 130:1 134:1 139:1 158:1 168:1 169:1 205:1 553:1 
0.1273657000128175 6:1 8:1 9:1 10:1 41:1 51:1 52:1 72:1 75:1 98:1 102:1 124:1 134:1 136:1 150:1 153:1 167:1 179:1 180:1 507:1 
0.141667636319309 6:1 82:1 127:1 130:1 133:1 135:1 136:1 158:1 169:1 344:1 446:1 534:1 553:1 569:1 575:1 
0.005902634610515663 6:1 31:1 51:1 68:1 85:1 95:1 104:1 109:1 111:1 112:1 117:1 145:1 149:1 150:1 234:1 555:1 569:1 576:1 
0.5606758678577333 6:1 31:1 79:1 80:1 82:1 95:1 117:1 122:1 155:1 345:1 
0.09001032887160189 6:1 8:1 10:1 14:1 31:1 32:1 41:1 54:1 62:1 73:1 81:1 82:1 118:1 119:1 120:1 123:1 130:1 184:1 194:1 195:1 554:1 555:1 570:1 
0.1229906819951705 17:1 19:1 21:1 26:1 49:1 52:1 53:1 64:1 71:1 89:1 90:1 116:1 121:1 128:1 131:1 135:1 197:1 216:1 553:1 572:1 577:1 
0.139717715424563 5:1 6:1 20:1 30:1 33:1 73:1 75:1 82:1 97:1 98:1 101:1 102:1 107:1 110:1 115:1 132:1 150:1 166:1 170:1 548:1 560:1 573:1 
0.08638272732175226 2:1 6:1 7:1 8:1 10:1 50:1 51:1 82:1 93:1 94:1 97:1 117:1 136:1 138:1 142:1 152:1 167:1 168:1 169:1 553:1 
0.2201058478514438 12:1 16:1 17:1 18:1 19:1 21:1 60:1 73:1 90:1 104:1 105:1 108:1 119:1 120:1 130:1 144:1 165:1 180:1 554:1 
0.01261423760554368 6:1 8:1 9:1 10:1 37:1 51:1 52:1 75:1 77:1 80:1 83:1 93:1 155:1 156:1 159:1 176:1 304:1 305:1 507:1 
0.2006313847893634 6:1 7:1 8:1 10:1 30:1 32:1 56:1 73:1 74:1 82:1 90:1 104:1 105:1 136:1 137:1 138:1 143:1 278:1 573:1 578:1 
0.9810372081838534 6:1 30:1 65:1 70:1 73:1 98:1 101:1 102:1 107:1 130:1 163:1 234:1 553:1 567:1 569:1 575:1 
0.6478244748783816 6:1 30:1 73:1 82:1 107:1 109:1 110:1 111:1 112:1 139:1 166:1 
0.009089197711247391 19:1 30:1 65:1 70:1 73:1 101:1 107:1 128:1 130:1 131:1 157:1 168:1 169:1 536:1 553:1 571:1 575:1 577:1 
0.04142598958258614 6:1 51:1 82:1 111:1 117:1 119:1 120:1 133:1 135:1 136:1 161:1 534:1 554:1 569:1 576:1 
0.02134171560082964 4:1 8:1 17:1 22:1 32:1 51:1 61:1 75:1 77:1 83:1 90:1 95:1 96:1 101:1 117:1 143:1 152:1 154:1 163:1 553:1 568:1 571:1 573:1 574:1 
0.4922928116105482 17:1 20:1 21:1 45:1 50:1 73:1 75:1 77:1 83:1 84:1 94:1 96:1 101:1 117:1 130:1 154:1 158:1 168:1 169:1 553:1 571:1 573:1 574:1 
1 18:1 19:1 51:1 56:1 61:1 98:1 102:1 103:1 107:1 114:1 117:1 135:1 152:1 161:1 567:1 576:1 577:1 
0.04795455434488354 6:1 21:1 25:1 30:1 49:1 50:1 75:1 76:1 100:1 101:1 108:1 133:1 136:1 150:1 166:1 172:1 181:1 515:1 530:1 
0.2135953112862843 6:1 10:1 16:1 20:1 73:1 74:1 75:1 82:1 83:1 97:1 136:1 138:1 141:1 142:1 155:1 165:1 180:1 202:1 454:1 510:1 
0.6835289008241436 6:1 30:1 56:1 73:1 74:1 82:1 136:1 138:1 142:1 155:1 
0.3009335453788549 6:1 10:1 20:1 30:1 75:1 97:1 106:1 107:1 111:1 134:1 139:1 141:1 149:1 150:1 161:1 202:1 528:1 560:1 573:1 
0.1709547286241505 4:1 8:1 10:1 18:1 24:1 30:1 61:1 73:1 97:1 106:1 107:1 118:1 123:1 130:1 156:1 161:1 173:1 182:1 548:1 552:1 555:1 
0.1888318970333052 6:1 20:1 21:1 27:1 30:1 37:1 49:1 50:1 55:1 89:1 95:1 107:1 118:1 122:1 123:1 166:1 168:1 169:1 571:1 
0.4013943550641805 6:1 8:1 9:1 10:1 30:1 75:1 85:1 101:1 124:1 133:1 134:1 136:1 150:1 160:1 166:1 180:1 181:1 276:1 328:1 572:1 
0.07467835298094118 4:1 8:1 17:1 18:1 42:1 43:1 47:1 51:1 52:1 61:1 90:1 101:1 103:1 118:1 328:1 577:1 
0.7036437839708064 6:1 26:1 51:1 52:1 58:1 82:1 95:1 111:1 136:1 152:1 184:1 571:1 
0.9778610397162029 6:1 30:1 73:1 74:1 89:1 134:1 136:1 139:1 152:1 180:1 
0.1781846394578451 6:1 17:1 51:1 52:1 61:1 90:1 101:1 126:1 135:1 146:1 206:1 413:1 518:1 533:1 
0.2383678476588749 6:1 20:1 21:1 30:1 31:1 33:1 42:1 43:1 49:1 57:1 73:1 74:1 75:1 82:1 84:1 122:1 150:1 174:1 534:1 
0.360005524167038 6:1 8:1 9:1 10:1 51:1 52:1 72:1 75:1 82:1 100:1 122:1 127:1 135:1 136:1 150:1 181:1 232:1 233:1 267:1 515:1 535:1 
0.1962279546888524 6:1 7:1 30:1 31:1 37:1 47:1 48:1 57:1 73:1 74:1 78:1 111:1 142:1 213:1 264:1 532:1 
0.03157208289366667 6:1 8:1 9:1 10:1 17:1 41:1 51:1 75:1 81:1 101:1 111:1 134:1 150:1 152:1 160:1 165:1 200:1 232:1 233:1 515:1 
0.3958652436716248 6:1 31:1 51:1 66:1 82:1 122:1 144:1 165:1 167:1 181:1 534:1 
0.05481427077781385 6:1 8:1 9:1 22:1 30:1 37:1 73:1 74:1 75:1 78:1 100:1 101:1 116:1 133:1 136:1 150:1 160:1 232:1 233:1 515:1 531:1 
0.1410033289009295 8:1 30:1 31:1 33:1 42:1 43:1 75:1 150:1 159:1 175:1 192:1 213:1 232:1 233:1 234:1 266:1 340:1 515:1 
0.003159484802126551 8:1 10:1 17:1 18:1 30:1 32:1 61:1 90:1 105:1 118:1 123:1 132:1 148:1 151:1 231:1 279:1 573:1 578:1 
0.05339253754807601 6:1 8:1 9:1 10:1 26:1 30:1 37:1 63:1 75:1 95:1 98:1 101:1 102:1 107:1 111:1 147:1 166:1 181:1 262:1 263:1 523:1 554:1 567:1 575:1 
0.05571227374250359 8:1 10:1 31:1 32:1 51:1 52:1 54:1 62:1 67:1 68:1 75:1 85:1 104:1 121:1 150:1 152:1 234:1 340:1 524:1 
0.09296319506483261 6:1 8:1 9:1 10:1 37:1 41:1 51:1 52:1 73:1 75:1 90:1 99:1 136:1 138:1 150:1 160:1 178:1 232:1 233:1 515:1 
0.04732962997350842 6:1 21:1 30:1 31:1 49:1 73:1 74:1 75:1 101:1 108:1 116:1 121:1 134:1 150:1 172:1 175:1 229:1 230:1 526:1 534:1 
0.5682579269082776 6:1 8:1 9:1 10:1 30:1 37:1 67:1 73:1 75:1 111:1 136:1 142:1 149:1 150:1 160:1 166:1 244:1 245:1 252:1 515:1 
0.09806767039248082 6:1 8:1 31:1 35:1 50:1 51:1 82:1 93:1 105:1 117:1 118:1 123:1 142:1 152:1 168:1 169:1 312:1 531:1 553:1 
0.3423094635341458 6:1 20:1 21:1 37:1 51:1 52:1 75:1 76:1 101:1 106:1 125:1 126:1 135:1 136:1 139:1 141:1 150:1 180:1 518:1 534:1 
0.8814536232490321 6:1 30:1 44:1 74:1 82:1 100:1 135:1 136:1 139:1 181:1 
0.07548370200357755 20:1 21:1 24:1 30:1 31:1 40:1 41:1 73:1 75:1 150:1 152:1 153:1 166:1 180:1 234:1 333:1 340:1 534:1 
0.5347889837657529 30:1 73:1 74:1 96:1 98:1 102:1 107:1 121:1 134:1 153:1 182:1 534:1 
1 6:1 30:1 74:1 82:1 111:1 122:1 135:1 136:1 137:1 138:1 
0.09943540620921279 6:1 10:1 20:1 30:1 73:1 75:1 97:1 102:1 106:1 107:1 129:1 130:1 134:1 153:1 156:1 160:1 285:1 396:1 444:1 
0.7907827753135761 6:1 51:1 52:1 82:1 89:1 122:1 136:1 167:1 179:1 180:1 
0.1736901293507375 6:1 21:1 22:1 53:1 71:1 75:1 116:1 125:1 134:1 139:1 150:1 451:1 
0.02101709277911379 6:1 20:1 21:1 49:1 50:1 51:1 75:1 76:1 84:1 107:1 112:1 117:1 134:1 139:1 150:1 163:1 182:1 445:1 
0.09636654776393287 6:1 30:1 73:1 74:1 111:1 134:1 136:1 137:1 138:1 139:1 
-0.4248890268671016 6:1 20:1 21:1 30:1 31:1 49:1 73:1 74:1 75:1 76:1 77:1 78:1 79:1 80:1 81:1 82:1 83:1 84:1 85:1 573:1 
-1 6:1 30:1 74:1 111:1 134:1 135:1 136:1 137:1 138:1 139:1 571:1 
-0.124711075960575 6:1 10:1 20:1 28:1 30:1 31:1 34:1 35:1 41:1 75:1 81:1 82:1 97:1 141:1 150:1 553:1 573:1 
-0.1104328629191155 6:1 20:1 21:1 43:1 52:1 67:1 73:1 75:1 77:1 81:1 82:1 83:1 105:1 130:1 136:1 141:1 158:1 164:1 554:1 573:1 
-1 6:1 8:1 10:1 30:1 74:1 75:1 93:1 97:1 105:1 106:1 134:1 135:1 136:1 139:1 150:1 152:1 153:1 180:1 544:1 571:1 
-0.3969588943289658 6:1 8:1 52:1 73:1 75:1 77:1 83:1 85:1 89:1 124:1 125:1 136:1 139:1 155:1 180:1 197:1 198:1 553:1 573:1 
-0.3759840662982747 6:1 8:1 25:1 32:1 33:1 51:1 52:1 75:1 77:1 79:1 83:1 89:1 93:1 125:1 126:1 135:1 136:1 139:1 174:1 518:1 531:1 554:1 573:1 
-1 6:1 20:1 25:1 30:1 55:1 75:1 89:1 95:1 107:1 139:1 141:1 150:1 166:1 168:1 169:1 202:1 534:1 553:1 
-0.5589795981787671 6:1 30:1 53:1 73:1 75:1 77:1 83:1 101:1 124:1 130:1 132:1 133:1 134:1 136:1 158:1 527:1 561:1 567:1 573:1 
-1 30:1 73:1 96:1 98:1 102:1 107:1 134:1 152:1 153:1 166:1 180:1 549:1 553:1 560:1 567:1 575:1 
-1 6:1 30:1 73:1 134:1 136:1 138:1 139:1 156:1 166:1 181:1 
-0.2602290790582066 6:1 8:1 22:1 30:1 32:1 75:1 82:1 104:1 105:1 107:1 111:1 135:1 137:1 139:1 143:1 150:1 161:1 166:1 555:1 568:1 571:1 573:1 576:1 
-0.6015121467788058 6:1 21:1 30:1 49:1 50:1 53:1 64:1 71:1 73:1 75:1 76:1 82:1 107:1 111:1 122:1 130:1 150:1 161:1 182:1 555:1 572:1 576:1 577:1 
-0.8790357481776574 6:1 8:1 9:1 10:1 16:1 30:1 75:1 82:1 98:1 101:1 102:1 130:1 135:1 136:1 150:1 152:1 160:1 180:1 232:1 233:1 515:1 569:1 
-0.1755918708956062 8:1 10:1 17:1 18:1 32:1 43:1 44:1 50:1 51:1 52:1 73:1 75:1 90:1 93:1 103:1 105:1 150:1 230:1 276:1 553:1 568:1 573:1 
-1 6:1 30:1 82:1 100:1 101:1 119:1 120:1 130:1 133:1 135:1 136:1 554:1 
-0.4567717681357887 6:1 21:1 30:1 56:1 73:1 75:1 82:1 106:1 107:1 109:1 112:1 122:1 150:1 152:1 166:1 213:1 214:1 367:1 368:1 560:1 578:1 
-0.2993973116756663 6:1 51:1 117:1 134:1 135:1 138:1 139:1 195:1 216:1 375:1 376:1 555:1 565:1 
-1 17:1 19:1 21:1 22:1 53:1 61:1 73:1 74:1 90:1 96:1 114:1 116:1 125:1 144:1 154:1 165:1 179:1 180:1 545:1 555:1 558:1 568:1 
-0.5685893991564818 6:1 8:1 10:1 30:1 32:1 73:1 75:1 82:1 107:1 116:1 122:1 124:1 125:1 130:1 144:1 150:1 163:1 182:1 544:1 553:1 558:1 563:1 568:1 
-0.371958111942033 6:1 8:1 10:1 30:1 32:1 73:1 75:1 82:1 107:1 124:1 125:1 130:1 142:1 143:1 150:1 156:1 161:1 182:1 544:1 549:1 552:1 555:1 559:1 578:1 
-0.3276888018557628 6:1 20:1 66:1 73:1 74:1 75:1 76:1 85:1 117:1 134:1 136:1 139:1 150:1 153:1 158:1 170:1 213:1 266:1 406:1 503:1 515:1 553:1 
-1 6:1 8:1 10:1 41:1 51:1 61:1 75:1 97:1 107:1 109:1 112:1 115:1 117:1 134:1 135:1 139:1 150:1 163:1 182:1 544:1 555:1 
-0.3265753116200157 30:1 73:1 96:1 98:1 102:1 107:1 130:1 134:1 153:1 156:1 158:1 534:1 554:1 567:1 569:1 575:1 
-1 6:1 51:1 82:1 107:1 111:1 117:1 139:1 153:1 167:1 182:1 534:1 569:1 
-0.3747629306089675 6:1 8:1 17:1 32:1 51:1 75:1 82:1 95:1 116:1 117:1 124:1 125:1 150:1 153:1 156:1 207:1 401:1 544:1 554:1 558:1 
-0.01239149532597919 6:1 20:1 30:1 73:1 74:1 75:1 77:1 83:1 84:1 85:1 110:1 133:1 136:1 177:1 195:1 213:1 234:1 332:1 381:1 569:1 573:1 
-0.1069820888419054 31:1 51:1 117:1 137:1 167:1 168:1 169:1 184:1 189:1 234:1 340:1 553:1 
-0.1060118823993049 6:1 10:1 20:1 37:1 40:1 52:1 75:1 77:1 83:1 95:1 122:1 127:1 136:1 179:1 180:1 197:1 215:1 319:1 333:1 573:1 
-0.8626927696902271 17:1 18:1 51:1 100:1 165:1 173:1 181:1 231:1 280:1 328:1 
-0.4370815916248027 6:1 37:1 51:1 61:1 75:1 98:1 102:1 107:1 111:1 117:1 135:1 158:1 161:1 387:1 394:1 516:1 532:1 554:1 567:1 569:1 576:1 
-1 6:1 51:1 52:1 56:1 58:1 73:1 80:1 110:1 134:1 136:1 
-0.01944411086883362 6:1 8:1 10:1 30:1 32:1 37:1 61:1 75:1 111:1 122:1 136:1 138:1 145:1 149:1 150:1 164:1 166:1 448:1 568:1 570:1 573:1 577:1 
-0.1014448948726871 6:1 8:1 22:1 30:1 32:1 37:1 61:1 65:1 73:1 75:1 101:1 107:1 130:1 145:1 148:1 150:1 151:1 157:1 163:1 553:1 567:1 573:1 575:1 578:1 
-0.09188150712621274 6:1 51:1 82:1 89:1 107:1 117:1 135:1 158:1 168:1 169:1 175:1 553:1 569:1 
-0.3441092807336823 6:1 20:1 22:1 24:1 30:1 31:1 37:1 65:1 73:1 75:1 84:1 94:1 143:1 150:1 166:1 180:1 231:1 332:1 573:1 
-0.1180722177036233 6:1 9:1 10:1 37:1 41:1 53:1 64:1 71:1 72:1 74:1 75:1 107:1 122:1 126:1 132:1 135:1 150:1 161:1 344:1 572:1 577:1 
-1 17:1 18:1 51:1 65:1 89:1 90:1 95:1 103:1 165:1 180:1 
-0.1350768728377599 6:1 8:1 10:1 24:1 31:1 32:1 51:1 75:1 95:1 111:1 117:1 119:1 120:1 124:1 125:1 134:1 143:1 150:1 161:1 522:1 567:1 573:1 578:1 
-0.1409501128525221 4:1 6:1 8:1 10:1 30:1 31:1 35:1 37:1 75:1 77:1 83:1 95:1 97:1 104:1 106:1 122:1 156:1 181:1 276:1 327:1 518:1 555:1 573:1 
-0.521611358110586 6:1 8:1 21:1 30:1 33:1 37:1 56:1 61:1 63:1 73:1 74:1 107:1 109:1 112:1 118:1 122:1 123:1 137:1 263:1 320:1 555:1 576:1 577:1 
-0.7770858781250209 6:1 21:1 30:1 49:1 50:1 73:1 75:1 77:1 83:1 100:1 101:1 108:1 133:1 134:1 136:1 166:1 172:1 181:1 573:1 
-0.9325379563332569 6:1 51:1 82:1 98:1 100:1 101:1 102:1 117:1 136:1 167:1 181:1 577:1 
-0.7170228774850494 6:1 9:1 10:1 37:1 51:1 52:1 53:1 64:1 71:1 75:1 116:1 122:1 127:1 136:1 146:1 150:1 160:1 181:1 571:1 572:1 
-1 6:1 17:1 52:1 82:1 130:1 135:1 153:1 155:1 156:1 207:1 577:1 
-0.2026690637586586 6:1 8:1 10:1 30:1 32:1 50:1 54:1 61:1 62:1 73:1 75:1 82:1 107:1 130:1 150:1 152:1 157:1 163:1 231:1 553:1 567:1 569:1 570:1 573:1 575:1 
-0.06115713631435547 12:1 18:1 22:1 23:1 30:1 32:1 73:1 75:1 104:1 137:1 145:1 150:1 151:1 166:1 180:1 189:1 191:1 334:1 450:1 526:1 555:1 573:1 578:1 
-0.4040700268877093 35:1 42:1 52:1 53:1 71:1 73:1 75:1 76:1 94:1 106:1 107:1 150:1 157:1 195:1 197:1 234:1 332:1 340:1 451:1 519:1 535:1 554:1 567:1 572:1 575:1 
-1 8:1 61:1 102:1 107:1 117:1 118:1 123:1 132:1 135:1 158:1 161:1 234:1 340:1 345:1 444:1 533:1 554:1 567:1 571:1 576:1 
-1 6:1 31:1 51:1 82:1 95:1 109:1 112:1 117:1 122:1 132:1 158:1 
-1 17:1 51:1 96:1 100:1 134:1 153:1 165:1 167:1 181:1 199:1 
-0.6050100187864892 6:1 30:1 37:1 51:1 90:1 136:1 152:1 167:1 180:1 201:1 
-1 6:1 30:1 67:1 73:1 74:1 82:1 111:1 136:1 137:1 142:1 
-0.1319834510999336 6:1 8:1 10:1 14:1 32:1 50:1 51:1 54:1 62:1 75:1 82:1 111:1 117:1 136:1 149:1 150:1 161:1 167:1 235:1 405:1 501:1 567:1 570:1 573:1 
-0.2450213774654805 6:1 21:1 30:1 73:1 75:1 82:1 98:1 102:1 105:1 107:1 108:1 130:1 150:1 152:1 163:1 172:1 231:1 518:1 532:1 553:1 567:1 575:1 577:1 
-0.219410082996216 6:1 21:1 22:1 30:1 53:1 64:1 71:1 74:1 75:1 82:1 90:1 105:1 107:1 111:1 135:1 150:1 152:1 161:1 164:1 555:1 569:1 571:1 572:1 576:1 
-0.4711753628779583 6:1 31:1 73:1 82:1 117:1 122:1 130:1 158:1 168:1 169:1 184:1 553:1 571:1 
-0.188065783453513 4:1 6:1 8:1 10:1 30:1 73:1 74:1 75:1 77:1 83:1 97:1 106:1 110:1 111:1 134:1 136:1 138:1 139:1 258:1 573:1 577:1 
-1 6:1 8:1 10:1 14:1 30:1 56:1 73:1 82:1 90:1 97:1 115:1 118:1 123:1 130:1 136:1 138:1 149:1 252:1 577:1 
-0.03835948857227196 6:1 20:1 21:1 22:1 30:1 31:1 37:1 48:1 73:1 74:1 75:1 77:1 79:1 80:1 83:1 105:1 122:1 152:1 164:1 504:1 555:1 573:1 
-0.03577149761569962 6:1 16:1 20:1 21:1 33:1 35:1 37:1 51:1 52:1 65:1 73:1 75:1 77:1 83:1 133:1 136:1 141:1 256:1 257:1 268:1 573:1 
-1 6:1 30:1 67:1 73:1 74:1 82:1 111:1 136:1 142:1 152:1 
-0.1959632477344277 6:1 10:1 20:1 28:1 30:1 56:1 75:1 82:1 83:1 95:1 97:1 136:1 138:1 142:1 152:1 166:1 170:1 174:1 454:1 573:1 
-1 6:1 31:1 51:1 57:1 65:1 81:1 82:1 135:1 165:1 180:1 
-0.6631523279717376 6:1 37:1 51:1 52:1 67:1 90:1 95:1 121:1 136:1 152:1 
-0.280678646129239 6:1 8:1 9:1 10:1 30:1 37:1 45:1 72:1 75:1 85:1 95:1 107:1 109:1 111:1 112:1 150:1 152:1 166:1 232:1 233:1 515:1 530:1 555:1 576:1 577:1 
-0.07049606613412207 6:1 20:1 21:1 31:1 49:1 73:1 75:1 77:1 82:1 83:1 84:1 85:1 113:1 130:1 163:1 182:1 192:1 194:1 537:1 555:1 573:1 
-0.3356061091355013 6:1 31:1 51:1 82:1 89:1 95:1 117:1 119:1 120:1 121:1 122:1 554:1 571:1 
-0.0436324160858873 6:1 20:1 21:1 42:1 43:1 50:1 51:1 52:1 75:1 76:1 77:1 81:1 82:1 83:1 141:1 200:1 255:1 305:1 306:1 554:1 573:1 
-1 6:1 30:1 74:1 82:1 89:1 90:1 135:1 136:1 152:1 180:1 534:1 571:1 
