svm_type c_svc
kernel_type linear
nr_class 2
total_sv 203
rho -2.166
label -1 1
nr_sv 136 67
SV
0.1681122642430881 6:1 30:1 74:1 111:1 134:1 135:1 136:1 137:1 138:1 139:1 
0.4115769336386959 6:1 30:1 37:1 90:1 95:1 107:1 127:1 156:1 166:1 182:1 
0.514424511729103 6:1 30:1 37:1 73:1 101:1 133:1 136:1 152:1 166:1 180:1 
0.9404646612444248 30:1 73:1 96:1 98:1 102:1 107:1 134:1 152:1 153:1 166:1 180:1 
0.4128810994825743 6:1 8:1 9:1 10:1 30:1 73:1 75:1 105:1 111:1 124:1 133:1 134:1 136:1 150:1 153:1 159:1 166:1 182:1 507:1 
1 6:1 30:1 73:1 74:1 82:1 122:1 136:1 144:1 152:1 180:1 
0.1897342477386178 19:1 30:1 31:1 55:1 70:1 73:1 113:1 130:1 131:1 162:1 163:1 253:1 254:1 502:1 519:1 
0.1080742031871031 7:1 8:1 24:1 30:1 31:1 47:1 48:1 73:1 105:1 130:1 148:1 151:1 163:1 182:1 187:1 188:1 225:1 226:1 502:1 
0.06440176078815195 18:1 19:1 35:1 50:1 51:1 52:1 54:1 61:1 62:1 135:1 158:1 162:1 189:1 191:1 227:1 228:1 236:1 503:1 
0.3270790698630953 6:1 31:1 61:1 67:1 68:1 73:1 74:1 77:1 82:1 83:1 155:1 194:1 195:1 518:1 
0.2297944697819156 6:1 21:1 30:1 49:1 50:1 53:1 64:1 71:1 73:1 75:1 76:1 82:1 107:1 111:1 122:1 130:1 150:1 161:1 182:1 
0.2497835483205575 6:1 8:1 9:1 10:1 16:1 30:1 75:1 82:1 98:1 101:1 102:1 130:1 135:1 136:1 150:1 152:1 160:1 180:1 232:1 233:1 515:1 
0.06256896485117552 6:1 7:1 21:1 22:1 30:1 31:1 35:1 36:1 49:1 50:1 51:1 53:1 65:1 82:1 92:1 95:1 147:1 228:1 275:1 
0.8774479233359924 6:1 30:1 82:1 100:1 101:1 119:1 120:1 130:1 133:1 135:1 136:1 
0.14513054310408 4:1 6:1 20:1 21:1 30:1 75:1 76:1 82:1 98:1 101:1 102:1 106:1 107:1 110:1 132:1 150:1 277:1 
0.8409785258668814 6:1 30:1 74:1 79:1 82:1 89:1 122:1 135:1 136:1 152:1 
0.003904235264614182 6:1 8:1 10:1 30:1 41:1 61:1 73:1 75:1 97:1 115:1 130:1 136:1 139:1 150:1 152:1 153:1 289:1 290:1 
0.3153184159608603 6:1 30:1 73:1 75:1 109:1 110:1 112:1 129:1 132:1 134:1 136:1 166:1 175:1 
0.3211881953930885 6:1 52:1 73:1 82:1 130:1 133:1 136:1 163:1 177:1 182:1 
0.02317705453268511 6:1 21:1 22:1 30:1 37:1 41:1 75:1 132:1 133:1 136:1 137:1 150:1 166:1 213:1 231:1 264:1 311:1 312:1 515:1 
0.1496632334172601 6:1 14:1 30:1 37:1 77:1 83:1 95:1 133:1 136:1 166:1 181:1 183:1 231:1 518:1 
0.2852556306040664 6:1 8:1 9:1 25:1 75:1 133:1 136:1 150:1 160:1 215:1 317:1 318:1 
0.02416804236363623 8:1 21:1 30:1 31:1 68:1 73:1 93:1 110:1 111:1 118:1 123:1 125:1 166:1 203:1 234:1 339:1 340:1 
0.1290822696677783 6:1 17:1 82:1 95:1 100:1 153:1 165:1 181:1 207:1 345:1 
1 6:1 52:1 66:1 73:1 82:1 122:1 130:1 136:1 138:1 158:1 
1 6:1 51:1 82:1 89:1 117:1 122:1 135:1 136:1 158:1 180:1 
0.3373203420840934 6:1 13:1 30:1 95:1 133:1 134:1 136:1 153:1 166:1 179:1 180:1 
0.9953750948298148 6:1 25:1 30:1 95:1 136:1 138:1 139:1 156:1 166:1 181:1 
0.4724728973813457 6:1 8:1 17:1 32:1 33:1 51:1 75:1 82:1 110:1 111:1 116:1 117:1 122:1 124:1 125:1 150:1 167:1 208:1 
0.3974629241768961 6:1 17:1 51:1 53:1 75:1 82:1 124:1 150:1 152:1 153:1 165:1 167:1 180:1 207:1 
0.02938215951397194 6:1 8:1 30:1 75:1 111:1 124:1 133:1 134:1 136:1 150:1 166:1 200:1 285:1 287:1 
1 6:1 8:1 9:1 10:1 16:1 25:1 30:1 75:1 100:1 101:1 133:1 136:1 150:1 160:1 166:1 181:1 317:1 
0.1556596407127729 6:1 20:1 21:1 30:1 58:1 73:1 75:1 110:1 129:1 134:1 136:1 147:1 153:1 156:1 160:1 166:1 174:1 
0.229803393502978 6:1 21:1 30:1 33:1 53:1 64:1 71:1 73:1 74:1 75:1 82:1 89:1 122:1 136:1 150:1 159:1 180:1 182:1 268:1 506:1 
0.7371481847878367 17:1 42:1 43:1 45:1 51:1 52:1 127:1 135:1 187:1 188:1 513:1 
0.03589029944882699 6:1 30:1 73:1 82:1 101:1 133:1 136:1 156:1 166:1 181:1 
0.08028003936108383 8:1 24:1 30:1 31:1 93:1 100:1 101:1 118:1 119:1 120:1 123:1 130:1 135:1 164:1 176:1 302:1 303:1 509:1 
1 30:1 74:1 95:1 96:1 100:1 133:1 134:1 136:1 153:1 182:1 
0.02439491183299849 6:1 8:1 10:1 16:1 30:1 31:1 36:1 37:1 44:1 73:1 75:1 93:1 97:1 105:1 132:1 150:1 166:1 351:1 
0.03661832862573028 6:1 10:1 75:1 82:1 97:1 115:1 133:1 136:1 150:1 174:1 214:1 264:1 
0.1461728138876566 3:1 6:1 8:1 10:1 31:1 32:1 51:1 75:1 101:1 111:1 117:1 134:1 137:1 139:1 167:1 174:1 387:1 388:1 518:1 
0.01732468767576479 13:1 17:1 19:1 21:1 22:1 52:1 53:1 73:1 96:1 111:1 130:1 139:1 152:1 153:1 176:1 389:1 390:1 391:1 519:1 
0.8175487156174656 17:1 51:1 96:1 134:1 139:1 153:1 165:1 167:1 180:1 182:1 
1 6:1 25:1 30:1 73:1 74:1 100:1 101:1 133:1 136:1 155:1 
0.5719745491081218 6:1 20:1 66:1 73:1 74:1 75:1 76:1 85:1 117:1 134:1 136:1 139:1 150:1 153:1 158:1 170:1 213:1 266:1 406:1 503:1 515:1 
0.4961866962280632 20:1 27:1 47:1 52:1 73:1 118:1 130:1 163:1 177:1 182:1 189:1 191:1 234:1 340:1 502:1 
0.6661529340864555 6:1 8:1 10:1 30:1 75:1 78:1 93:1 97:1 106:1 107:1 125:1 134:1 135:1 139:1 150:1 156:1 161:1 166:1 407:1 526:1 
1 6:1 20:1 21:1 30:1 37:1 49:1 50:1 73:1 75:1 76:1 84:1 130:1 136:1 139:1 150:1 152:1 153:1 180:1 
0.1231818672255413 6:1 30:1 73:1 74:1 89:1 134:1 136:1 139:1 180:1 182:1 427:1 
1 6:1 30:1 31:1 73:1 82:1 87:1 88:1 89:1 122:1 166:1 
0.0357340916408356 6:1 16:1 30:1 32:1 33:1 73:1 75:1 82:1 111:1 124:1 136:1 137:1 138:1 142:1 145:1 150:1 166:1 264:1 
0.2280637656183064 20:1 21:1 30:1 33:1 39:1 40:1 73:1 75:1 85:1 101:1 107:1 134:1 146:1 150:1 157:1 166:1 181:1 188:1 
0.4095621095767083 51:1 52:1 57:1 73:1 96:1 121:1 133:1 134:1 136:1 259:1 260:1 
0.398470079666556 6:1 10:1 20:1 30:1 41:1 73:1 75:1 97:1 107:1 110:1 111:1 115:1 134:1 139:1 141:1 150:1 161:1 197:1 
0.01847448058426791 6:1 17:1 74:1 82:1 127:1 135:1 139:1 152:1 165:1 210:1 
1 6:1 10:1 20:1 30:1 41:1 75:1 82:1 95:1 97:1 100:1 115:1 122:1 136:1 141:1 150:1 166:1 181:1 192:1 515:1 
0.6205723056930502 6:1 26:1 30:1 95:1 100:1 101:1 133:1 136:1 166:1 181:1 293:1 518:1 
0.6580637975432952 6:1 8:1 9:1 30:1 37:1 55:1 73:1 75:1 76:1 98:1 102:1 132:1 136:1 150:1 166:1 212:1 231:1 232:1 233:1 408:1 515:1 
0.1314852675956868 6:1 30:1 82:1 89:1 90:1 95:1 136:1 166:1 180:1 438:1 
0.05741225019666162 17:1 18:1 21:1 39:1 49:1 51:1 76:1 85:1 95:1 108:1 113:1 117:1 163:1 173:1 182:1 185:1 186:1 225:1 226:1 502:1 
0.2972210890937271 6:1 30:1 31:1 67:1 68:1 73:1 74:1 82:1 119:1 120:1 132:1 
0.2395170921211533 21:1 33:1 49:1 51:1 52:1 53:1 71:1 75:1 102:1 116:1 127:1 150:1 191:1 195:1 216:1 234:1 340:1 444:1 453:1 506:1 
0.1032808740869675 8:1 10:1 18:1 30:1 32:1 93:1 95:1 107:1 116:1 118:1 123:1 125:1 166:1 173:1 182:1 183:1 189:1 292:1 502:1 
0.2481432263739511 6:1 20:1 21:1 22:1 30:1 37:1 49:1 51:1 75:1 84:1 122:1 135:1 136:1 138:1 156:1 174:1 182:1 398:1 
0.1265237114650666 6:1 21:1 31:1 49:1 50:1 51:1 53:1 55:1 64:1 71:1 75:1 76:1 82:1 90:1 117:1 127:1 132:1 150:1 167:1 
1 6:1 51:1 52:1 56:1 58:1 73:1 80:1 110:1 134:1 136:1 
1 6:1 20:1 21:1 30:1 49:1 50:1 73:1 75:1 76:1 82:1 89:1 122:1 130:1 136:1 141:1 150:1 152:1 180:1 
0.6801218238677775 6:1 30:1 74:1 81:1 82:1 110:1 111:1 135:1 136:1 138:1 
0.02787824242626597 6:1 8:1 22:1 30:1 31:1 50:1 73:1 75:1 93:1 94:1 97:1 101:1 110:1 113:1 132:1 134:1 150:1 166:1 
0.8301275824491203 6:1 20:1 22:1 24:1 30:1 31:1 37:1 65:1 73:1 75:1 84:1 94:1 143:1 150:1 166:1 180:1 231:1 332:1 
0.1447585140724807 6:1 30:1 31:1 35:1 111:1 134:1 135:1 137:1 139:1 327:1 
0.5235880468273163 6:1 8:1 10:1 15:1 30:1 31:1 51:1 75:1 93:1 97:1 98:1 100:1 102:1 106:1 126:1 127:1 150:1 167:1 234:1 
1 6:1 51:1 82:1 98:1 100:1 101:1 102:1 117:1 136:1 167:1 181:1 
0.6625243277966743 6:1 9:1 10:1 37:1 51:1 52:1 53:1 64:1 71:1 75:1 116:1 122:1 127:1 136:1 146:1 150:1 160:1 181:1 
0.3954279504448188 6:1 17:1 52:1 82:1 130:1 135:1 153:1 155:1 156:1 207:1 
0.1892994899216708 12:1 18:1 22:1 23:1 30:1 32:1 73:1 75:1 104:1 137:1 145:1 150:1 151:1 166:1 180:1 189:1 191:1 334:1 450:1 526:1 
0.007970926745068692 35:1 42:1 52:1 53:1 71:1 73:1 75:1 76:1 94:1 106:1 107:1 150:1 157:1 195:1 197:1 234:1 332:1 340:1 451:1 519:1 
0.2868995482537849 6:1 31:1 51:1 68:1 85:1 95:1 104:1 109:1 111:1 112:1 117:1 145:1 149:1 150:1 234:1 
0.4334521534867787 6:1 31:1 51:1 82:1 95:1 109:1 112:1 117:1 122:1 132:1 158:1 
0.0446688327279543 6:1 7:1 21:1 22:1 31:1 35:1 37:1 49:1 51:1 85:1 108:1 122:1 167:1 171:1 172:1 182:1 194:1 195:1 
0.027311363411034 2:1 7:1 8:1 35:1 39:1 40:1 51:1 52:1 65:1 73:1 85:1 86:1 91:1 96:1 122:1 256:1 257:1 342:1 
0.351954699711842 6:1 9:1 10:1 31:1 41:1 51:1 72:1 75:1 77:1 82:1 83:1 89:1 90:1 121:1 135:1 194:1 214:1 216:1 264:1 
0.2556312045456167 6:1 21:1 30:1 73:1 75:1 76:1 106:1 110:1 111:1 134:1 136:1 138:1 139:1 150:1 166:1 213:1 214:1 367:1 368:1 
0.5380223994998001 5:1 6:1 20:1 30:1 33:1 73:1 75:1 82:1 97:1 98:1 101:1 102:1 107:1 110:1 115:1 132:1 150:1 166:1 170:1 
0.5228250042339813 6:1 30:1 67:1 73:1 74:1 82:1 111:1 136:1 137:1 142:1 
0.6324893995889994 6:1 30:1 73:1 82:1 107:1 109:1 110:1 111:1 112:1 139:1 166:1 
1 6:1 21:1 30:1 73:1 75:1 82:1 98:1 102:1 105:1 107:1 108:1 130:1 150:1 152:1 163:1 172:1 231:1 518:1 
0.4265544030037544 6:1 8:1 9:1 37:1 72:1 75:1 85:1 122:1 136:1 138:1 150:1 317:1 330:1 
0.2229389619533169 20:1 21:1 22:1 23:1 30:1 31:1 49:1 50:1 65:1 73:1 75:1 84:1 113:1 130:1 150:1 163:1 234:1 340:1 
1 6:1 31:1 73:1 82:1 117:1 122:1 130:1 158:1 168:1 169:1 184:1 
0.4018717609528479 6:1 30:1 31:1 73:1 82:1 90:1 99:1 100:1 127:1 166:1 
0.8148463088696796 6:1 30:1 73:1 81:1 82:1 111:1 136:1 138:1 149:1 166:1 
0.3772135205636272 6:1 30:1 61:1 69:1 101:1 111:1 114:1 133:1 135:1 136:1 166:1 181:1 526:1 
0.1193853524333329 7:1 8:1 11:1 17:1 21:1 30:1 33:1 73:1 92:1 93:1 101:1 105:1 111:1 116:1 166:1 182:1 187:1 188:1 
0.07000687393497147 9:1 10:1 15:1 17:1 18:1 30:1 41:1 46:1 74:1 75:1 110:1 111:1 113:1 150:1 153:1 200:1 214:1 264:1 516:1 
0.4874701337429552 6:1 31:1 51:1 57:1 65:1 81:1 82:1 135:1 165:1 180:1 
0.1447456260250779 6:1 37:1 51:1 52:1 67:1 90:1 95:1 121:1 136:1 152:1 
0.05953035887624603 6:1 19:1 30:1 31:1 73:1 82:1 90:1 105:1 121:1 130:1 144:1 205:1 259:1 260:1 412:1 526:1 
0.1291961882865582 6:1 17:1 51:1 52:1 61:1 90:1 101:1 126:1 135:1 146:1 206:1 413:1 518:1 
0.1265190296564705 6:1 8:1 9:1 72:1 75:1 76:1 82:1 106:1 122:1 144:1 150:1 244:1 245:1 515:1 
0.03641928167680979 18:1 30:1 75:1 95:1 103:1 107:1 124:1 126:1 153:1 157:1 166:1 171:1 180:1 518:1 521:1 
0.3142297310193998 6:1 8:1 9:1 10:1 72:1 75:1 82:1 144:1 150:1 174:1 244:1 245:1 415:1 515:1 
0.1362496285472506 7:1 17:1 44:1 45:1 51:1 52:1 53:1 92:1 96:1 121:1 125:1 135:1 154:1 170:1 259:1 260:1 520:1 526:1 
0.1146649117496077 18:1 30:1 55:1 56:1 73:1 74:1 75:1 107:1 113:1 129:1 161:1 173:1 519:1 522:1 
0.1089983906166429 30:1 95:1 96:1 101:1 110:1 133:1 134:1 136:1 156:1 166:1 
0.2021575140867831 6:1 8:1 9:1 10:1 51:1 52:1 72:1 75:1 82:1 100:1 122:1 127:1 135:1 136:1 150:1 181:1 232:1 233:1 267:1 515:1 
0.3297830797504741 1:1 6:1 30:1 31:1 73:1 113:1 130:1 152:1 163:1 225:1 226:1 300:1 502:1 
0.1704667151145958 4:1 6:1 7:1 8:1 9:1 16:1 30:1 31:1 38:1 73:1 82:1 89:1 121:1 130:1 229:1 230:1 235:1 258:1 265:1 526:1 
0.06055331656485269 6:1 7:1 26:1 30:1 31:1 39:1 40:1 66:1 73:1 74:1 101:1 110:1 140:1 212:1 235:1 264:1 519:1 
0.1829544597946658 17:1 18:1 45:1 51:1 52:1 66:1 95:1 144:1 152:1 162:1 186:1 214:1 236:1 
0.001992342454996734 6:1 19:1 20:1 21:1 30:1 31:1 43:1 49:1 50:1 73:1 82:1 89:1 90:1 130:1 141:1 219:1 220:1 229:1 230:1 320:1 526:1 
0.1178212631968469 12:1 17:1 18:1 19:1 30:1 60:1 61:1 73:1 74:1 101:1 110:1 111:1 223:1 224:1 271:1 519:1 
0.1145047446035182 17:1 18:1 19:1 21:1 22:1 43:1 46:1 60:1 61:1 73:1 108:1 115:1 130:1 164:1 175:1 182:1 192:1 194:1 518:1 524:1 
0.00741540474531 6:1 8:1 9:1 22:1 30:1 37:1 73:1 74:1 75:1 78:1 100:1 101:1 116:1 133:1 136:1 150:1 160:1 232:1 233:1 515:1 
0.3606294215567836 14:1 19:1 24:1 31:1 51:1 128:1 131:1 135:1 158:1 192:1 194:1 227:1 228:1 261:1 503:1 
0.2513111050308434 6:1 26:1 35:1 52:1 73:1 133:1 136:1 140:1 195:1 197:1 229:1 230:1 526:1 
0.01805494784880692 6:1 20:1 21:1 22:1 27:1 30:1 31:1 49:1 75:1 82:1 89:1 110:1 121:1 122:1 150:1 164:1 515:1 
0.3886546504028224 6:1 8:1 9:1 10:1 30:1 37:1 45:1 72:1 75:1 85:1 95:1 107:1 109:1 111:1 112:1 150:1 152:1 166:1 232:1 233:1 515:1 
0.2732952524417274 6:1 30:1 31:1 61:1 65:1 70:1 73:1 113:1 130:1 163:1 225:1 226:1 234:1 502:1 
0.2457126095446948 6:1 8:1 9:1 72:1 74:1 75:1 95:1 98:1 102:1 107:1 127:1 137:1 150:1 163:1 232:1 233:1 234:1 265:1 344:1 428:1 515:1 
0.08379853949802239 1:1 6:1 7:1 8:1 10:1 50:1 51:1 52:1 92:1 97:1 135:1 158:1 184:1 191:1 202:1 214:1 227:1 228:1 359:1 503:1 
0.2878829174448833 6:1 30:1 31:1 35:1 73:1 81:1 82:1 104:1 130:1 158:1 185:1 227:1 228:1 337:1 503:1 
0.6991182360735636 17:1 43:1 51:1 52:1 89:1 90:1 114:1 135:1 187:1 229:1 230:1 340:1 526:1 
0.08177458564478829 6:1 20:1 21:1 41:1 51:1 52:1 57:1 69:1 70:1 75:1 76:1 133:1 135:1 136:1 147:1 155:1 160:1 178:1 518:1 
0.07300139845893869 6:1 8:1 9:1 10:1 30:1 37:1 67:1 73:1 75:1 111:1 136:1 142:1 149:1 150:1 160:1 166:1 244:1 245:1 252:1 515:1 
0.02194098069250639 17:1 51:1 52:1 75:1 90:1 96:1 111:1 129:1 135:1 149:1 154:1 231:1 519:1 520:1 
0.3051629661509657 6:1 7:1 21:1 70:1 73:1 74:1 76:1 84:1 106:1 108:1 121:1 127:1 140:1 191:1 202:1 259:1 260:1 344:1 359:1 526:1 
1 6:1 31:1 51:1 82:1 89:1 95:1 117:1 119:1 120:1 121:1 122:1 
0.1914331699059412 6:1 8:1 9:1 31:1 73:1 74:1 78:1 82:1 122:1 146:1 160:1 165:1 186:1 231:1 317:1 352:1 353:1 431:1 
0.09026928112879959 6:1 8:1 30:1 31:1 35:1 49:1 70:1 73:1 82:1 85:1 118:1 130:1 158:1 172:1 175:1 256:1 257:1 503:1 
0.7595757529545403 6:1 30:1 37:1 95:1 101:1 133:1 136:1 166:1 179:1 180:1 
0.02096461413777761 6:1 8:1 24:1 31:1 51:1 56:1 93:1 116:1 117:1 118:1 123:1 134:1 161:1 167:1 176:1 182:1 522:1 
0.0951687486856832 6:1 31:1 82:1 88:1 89:1 95:1 117:1 122:1 343:1 345:1 
1 6:1 30:1 74:1 82:1 111:1 122:1 135:1 136:1 137:1 138:1 
0.3117178691221026 2:1 12:1 17:1 18:1 51:1 90:1 95:1 117:1 163:1 182:1 496:1 497:1 502:1 
0.3709418143503028 4:1 6:1 8:1 9:1 10:1 30:1 73:1 75:1 101:1 110:1 111:1 133:1 134:1 136:1 150:1 166:1 329:1 484:1 485:1 
-0.5578826167091512 6:1 20:1 25:1 30:1 55:1 75:1 89:1 95:1 107:1 139:1 141:1 150:1 166:1 168:1 169:1 202:1 
-0.6423620101885217 6:1 8:1 9:1 16:1 25:1 52:1 72:1 73:1 75:1 76:1 130:1 133:1 136:1 150:1 163:1 177:1 182:1 244:1 245:1 502:1 515:1 
-0.5350301373977354 6:1 51:1 52:1 58:1 82:1 135:1 136:1 158:1 184:1 256:1 257:1 503:1 
-1 6:1 20:1 37:1 52:1 73:1 75:1 109:1 112:1 122:1 130:1 132:1 136:1 141:1 150:1 158:1 
-0.2051127612375792 6:1 8:1 9:1 31:1 73:1 75:1 89:1 130:1 134:1 139:1 150:1 160:1 178:1 194:1 212:1 216:1 232:1 233:1 265:1 515:1 526:1 
-1 6:1 31:1 73:1 74:1 82:1 87:1 88:1 98:1 101:1 102:1 194:1 
-1 6:1 30:1 73:1 82:1 89:1 122:1 136:1 152:1 166:1 180:1 
-1 6:1 10:1 20:1 51:1 75:1 85:1 97:1 100:1 115:1 117:1 134:1 139:1 150:1 153:1 167:1 170:1 191:1 216:1 515:1 518:1 
-1 6:1 8:1 9:1 16:1 25:1 30:1 75:1 76:1 95:1 111:1 133:1 136:1 137:1 150:1 160:1 166:1 231:1 232:1 233:1 515:1 
-1 6:1 25:1 30:1 73:1 110:1 133:1 136:1 153:1 156:1 166:1 
-1 6:1 30:1 37:1 65:1 95:1 98:1 102:1 136:1 166:1 180:1 231:1 
-1 6:1 8:1 10:1 30:1 41:1 61:1 75:1 82:1 97:1 111:1 115:1 122:1 136:1 137:1 138:1 150:1 166:1 167:1 
-1 6:1 17:1 52:1 78:1 82:1 95:1 100:1 101:1 166:1 207:1 
-0.2600459778473265 6:1 20:1 21:1 30:1 67:1 73:1 75:1 134:1 136:1 139:1 141:1 150:1 156:1 164:1 166:1 176:1 182:1 
-0.3816068539502104 6:1 8:1 9:1 22:1 30:1 75:1 78:1 82:1 93:1 100:1 101:1 105:1 133:1 135:1 136:1 150:1 159:1 166:1 526:1 
-1 6:1 8:1 9:1 10:1 30:1 50:1 73:1 75:1 98:1 102:1 107:1 134:1 150:1 153:1 160:1 166:1 180:1 182:1 317:1 
-1 6:1 25:1 30:1 95:1 100:1 133:1 136:1 166:1 181:1 231:1 
-1 6:1 30:1 73:1 82:1 111:1 122:1 136:1 138:1 166:1 181:1 
-1 6:1 8:1 10:1 51:1 55:1 75:1 93:1 97:1 105:1 106:1 117:1 134:1 135:1 136:1 138:1 139:1 150:1 288:1 
-0.5828171013936329 6:1 21:1 22:1 53:1 64:1 71:1 75:1 79:1 82:1 89:1 90:1 95:1 116:1 125:1 136:1 137:1 150:1 165:1 197:1 519:1 
-0.4754093278817018 18:1 46:1 58:1 95:1 127:1 136:1 179:1 195:1 197:1 344:1 526:1 
-1 30:1 73:1 96:1 98:1 102:1 107:1 130:1 134:1 153:1 156:1 158:1 
-1 6:1 51:1 82:1 107:1 111:1 117:1 139:1 153:1 167:1 182:1 
-0.8245244259986109 4:1 6:1 20:1 21:1 51:1 75:1 76:1 81:1 82:1 84:1 106:1 117:1 150:1 163:1 182:1 191:1 192:1 502:1 
-1 6:1 51:1 52:1 82:1 100:1 122:1 127:1 135:1 136:1 181:1 
-1 6:1 30:1 82:1 107:1 109:1 110:1 111:1 112:1 122:1 135:1 166:1 
-1 30:1 31:1 73:1 113:1 130:1 152:1 163:1 225:1 226:1 234:1 340:1 502:1 
-0.3863713723616847 17:1 56:1 73:1 90:1 96:1 117:1 119:1 120:1 130:1 290:1 292:1 502:1 
-0.5927028753049902 7:1 8:1 17:1 22:1 32:1 45:1 51:1 73:1 85:1 92:1 93:1 96:1 127:1 165:1 176:1 180:1 182:1 290:1 
-0.1686567930603251 6:1 20:1 21:1 22:1 30:1 31:1 43:1 73:1 75:1 82:1 98:1 102:1 125:1 130:1 141:1 143:1 150:1 231:1 259:1 260:1 526:1 
-1 6:1 30:1 37:1 66:1 73:1 110:1 122:1 130:1 136:1 138:1 
-1 6:1 30:1 37:1 73:1 111:1 119:1 120:1 122:1 130:1 136:1 138:1 
-0.6963050303980044 6:1 82:1 127:1 130:1 133:1 135:1 136:1 158:1 169:1 344:1 446:1 
-1 6:1 51:1 82:1 111:1 117:1 119:1 120:1 133:1 135:1 136:1 161:1 
-0.9368286884195438 6:1 8:1 9:1 10:1 30:1 41:1 75:1 82:1 100:1 101:1 133:1 135:1 136:1 150:1 160:1 166:1 181:1 317:1 526:1 
-0.7038505267429795 6:1 30:1 82:1 89:1 122:1 135:1 136:1 152:1 166:1 180:1 519:1 
-0.3995650631190483 17:1 18:1 24:1 30:1 73:1 153:1 166:1 173:1 181:1 257:1 
-0.1407097316895303 6:1 20:1 30:1 31:1 73:1 75:1 76:1 84:1 110:1 130:1 132:1 134:1 139:1 150:1 153:1 202:1 212:1 266:1 519:1 
-1 6:1 17:1 51:1 52:1 82:1 111:1 135:1 152:1 208:1 415:1 
-1 6:1 20:1 21:1 30:1 31:1 33:1 42:1 43:1 49:1 57:1 73:1 74:1 75:1 82:1 84:1 122:1 150:1 174:1 
-0.430823178812662 6:1 11:1 30:1 31:1 73:1 130:1 158:1 184:1 227:1 228:1 302:1 503:1 
-1 30:1 31:1 56:1 67:1 68:1 73:1 74:1 149:1 187:1 188:1 
-1 6:1 30:1 31:1 35:1 51:1 81:1 82:1 95:1 152:1 227:1 228:1 273:1 
-1 6:1 31:1 51:1 66:1 82:1 122:1 144:1 165:1 167:1 181:1 
-0.1429347852880018 24:1 30:1 31:1 65:1 73:1 96:1 130:1 134:1 163:1 225:1 226:1 502:1 
-0.1727634603279956 6:1 37:1 43:1 52:1 73:1 136:1 138:1 142:1 197:1 216:1 518:1 
-0.5241008143071531 6:1 8:1 21:1 31:1 33:1 45:1 49:1 51:1 66:1 75:1 82:1 89:1 95:1 117:1 150:1 158:1 190:1 232:1 233:1 503:1 515:1 
-0.4945968115479538 6:1 51:1 52:1 73:1 80:1 110:1 133:1 134:1 136:1 437:1 518:1 
-0.5199689300296561 6:1 30:1 31:1 73:1 82:1 90:1 121:1 127:1 130:1 229:1 230:1 526:1 
-1 6:1 30:1 37:1 73:1 110:1 122:1 136:1 144:1 166:1 180:1 
-1 17:1 51:1 52:1 100:1 101:1 135:1 155:1 189:1 234:1 340:1 518:1 
-0.7591245070047957 6:1 21:1 30:1 31:1 49:1 73:1 74:1 75:1 101:1 108:1 116:1 121:1 134:1 150:1 172:1 175:1 229:1 230:1 526:1 
-0.06104156412958974 6:1 20:1 21:1 49:1 50:1 51:1 52:1 66:1 75:1 76:1 81:1 82:1 135:1 136:1 138:1 141:1 150:1 179:1 519:1 
-0.7980059295199967 6:1 30:1 31:1 45:1 53:1 73:1 75:1 82:1 101:1 124:1 130:1 146:1 150:1 155:1 518:1 
-1 6:1 9:1 10:1 30:1 50:1 65:1 72:1 75:1 89:1 95:1 134:1 136:1 139:1 150:1 166:1 180:1 214:1 264:1 
-1 6:1 30:1 74:1 82:1 89:1 90:1 135:1 136:1 152:1 180:1 
-0.6384764804270049 6:1 9:1 10:1 50:1 53:1 64:1 71:1 72:1 73:1 74:1 75:1 82:1 121:1 133:1 136:1 150:1 192:1 194:1 259:1 260:1 526:1 
-1 6:1 30:1 37:1 73:1 74:1 89:1 122:1 136:1 152:1 180:1 
-0.07727246217388718 6:1 10:1 20:1 30:1 32:1 73:1 74:1 75:1 82:1 100:1 101:1 133:1 136:1 141:1 150:1 151:1 155:1 202:1 467:1 512:1 518:1 
-0.4140362933573821 24:1 30:1 31:1 73:1 130:1 163:1 182:1 187:1 188:1 253:1 254:1 502:1 
-0.5016535012009828 6:1 20:1 21:1 37:1 51:1 52:1 75:1 76:1 101:1 106:1 125:1 126:1 135:1 136:1 139:1 141:1 150:1 180:1 518:1 
-0.6395283289043692 6:1 30:1 73:1 74:1 82:1 98:1 101:1 102:1 136:1 152:1 180:1 519:1 
-1 6:1 30:1 73:1 74:1 82:1 100:1 122:1 127:1 136:1 181:1 
-0.2349991182407476 20:1 21:1 24:1 30:1 31:1 40:1 41:1 73:1 75:1 150:1 152:1 153:1 166:1 180:1 234:1 333:1 340:1 
-1 30:1 73:1 74:1 96:1 98:1 102:1 107:1 121:1 134:1 153:1 182:1 
-1 6:1 20:1 21:1 30:1 49:1 75:1 76:1 84:1 85:1 95:1 101:1 110:1 132:1 133:1 134:1 136:1 150:1 166:1 
-0.6018266400564142 12:1 17:1 18:1 24:1 51:1 95:1 101:1 117:1 158:1 490:1 491:1 503:1 
