svm_type c_svc
kernel_type linear
nr_class 2
total_sv 110
rho -3.3933
label -1 1
nr_sv 73 37
SV
0.01668246968180423 8:1 12:1 18:1 30:1 32:1 33:1 47:1 73:1 74:1 93:1 100:1 101:1 105:1 107:1 118:1 148:1 151:1 155:1 157:1 
0.1013753240019588 5:1 6:1 7:1 8:1 10:1 30:1 49:1 70:1 73:1 97:1 107:1 134:1 141:1 153:1 157:1 166:1 180:1 182:1 237:1 
0.04236510383026146 6:1 8:1 24:1 30:1 31:1 51:1 69:1 70:1 85:1 118:1 156:1 167:1 172:1 182:1 253:1 254:1 255:1 
0.9344269442548014 6:1 8:1 22:1 30:1 32:1 50:1 70:1 75:1 94:1 101:1 107:1 110:1 132:1 134:1 135:1 147:1 157:1 166:1 
0.01474037637599765 6:1 21:1 30:1 41:1 53:1 54:1 62:1 70:1 73:1 75:1 76:1 101:1 107:1 130:1 147:1 156:1 157:1 158:1 234:1 
0.2880924658044289 6:1 8:1 22:1 32:1 41:1 51:1 52:1 55:1 61:1 69:1 70:1 75:1 95:1 107:1 111:1 145:1 157:1 184:1 
0.4025338774217422 6:1 21:1 30:1 53:1 61:1 69:1 70:1 75:1 76:1 95:1 101:1 107:1 110:1 111:1 130:1 145:1 148:1 151:1 157:1 
0.1470934081599478 6:1 8:1 30:1 32:1 33:1 75:1 93:1 94:1 95:1 107:1 111:1 134:1 143:1 150:1 153:1 166:1 285:1 286:1 
0.1432760227012024 6:1 8:1 10:1 25:1 26:1 30:1 32:1 73:1 74:1 85:1 98:1 102:1 107:1 118:1 155:1 172:1 183:1 231:1 255:1 
0.3146353505486038 6:1 8:1 10:1 30:1 32:1 50:1 69:1 73:1 74:1 101:1 110:1 111:1 118:1 129:1 133:1 136:1 172:1 255:1 
0.2515291301692988 6:1 8:1 30:1 32:1 33:1 73:1 81:1 82:1 107:1 111:1 118:1 123:1 124:1 145:1 149:1 161:1 166:1 215:1 528:1 
0.1749366015197479 8:1 18:1 30:1 61:1 73:1 107:1 118:1 123:1 152:1 153:1 157:1 166:1 173:1 180:1 
0.2806960284966268 6:1 8:1 9:1 30:1 73:1 82:1 93:1 101:1 105:1 107:1 118:1 123:1 132:1 157:1 166:1 181:1 329:1 330:1 521:1 
0.7085568600467826 19:1 21:1 30:1 53:1 73:1 74:1 76:1 101:1 107:1 116:1 124:1 128:1 129:1 131:1 145:1 146:1 155:1 157:1 
0.1944056413159536 19:1 21:1 22:1 30:1 60:1 73:1 106:1 107:1 108:1 124:1 125:1 128:1 131:1 152:1 153:1 157:1 166:1 180:1 
0.1638975316555244 8:1 10:1 12:1 18:1 30:1 73:1 97:1 106:1 107:1 118:1 125:1 130:1 152:1 153:1 157:1 163:1 171:1 172:1 529:1 
0.1518063198451219 6:1 10:1 20:1 30:1 51:1 75:1 97:1 106:1 107:1 134:1 135:1 139:1 141:1 150:1 152:1 153:1 163:1 202:1 529:1 
0.07666387274427273 6:1 8:1 30:1 75:1 111:1 124:1 133:1 134:1 136:1 150:1 166:1 200:1 285:1 287:1 
0.3641649707489007 6:1 7:1 21:1 30:1 69:1 70:1 73:1 76:1 101:1 106:1 107:1 108:1 132:1 157:1 160:1 166:1 182:1 317:1 517:1 
0.05454564208339009 3:1 8:1 9:1 10:1 30:1 101:1 107:1 118:1 123:1 125:1 157:1 159:1 166:1 180:1 187:1 188:1 
0.1168902324962563 19:1 21:1 30:1 76:1 95:1 101:1 104:1 105:1 106:1 107:1 108:1 111:1 114:1 128:1 137:1 157:1 166:1 324:1 517:1 
0.1301085534537328 6:1 8:1 30:1 32:1 73:1 116:1 118:1 123:1 124:1 125:1 134:1 136:1 139:1 153:1 166:1 180:1 182:1 
0.1709967289098291 6:1 8:1 10:1 30:1 32:1 61:1 73:1 75:1 107:1 114:1 116:1 130:1 140:1 145:1 152:1 153:1 156:1 157:1 
0.1390691371225491 6:1 8:1 10:1 30:1 32:1 70:1 73:1 75:1 107:1 116:1 125:1 130:1 140:1 147:1 153:1 156:1 157:1 182:1 
0.4364208573963546 6:1 8:1 22:1 30:1 32:1 73:1 74:1 75:1 107:1 116:1 125:1 129:1 134:1 147:1 153:1 156:1 157:1 409:1 
0.2086634064340448 6:1 8:1 10:1 30:1 32:1 75:1 78:1 107:1 125:1 129:1 134:1 135:1 143:1 147:1 153:1 156:1 157:1 166:1 407:1 526:1 
0.412574042367844 6:1 8:1 10:1 30:1 32:1 73:1 75:1 107:1 116:1 124:1 130:1 134:1 145:1 150:1 153:1 156:1 157:1 158:1 
0.7186169166659169 6:1 30:1 53:1 64:1 71:1 73:1 75:1 107:1 125:1 129:1 130:1 134:1 153:1 157:1 163:1 182:1 532:1 
0.364846365449912 6:1 8:1 22:1 30:1 32:1 69:1 73:1 107:1 116:1 118:1 125:1 129:1 130:1 153:1 156:1 157:1 158:1 172:1 519:1 
0.2452537989437666 19:1 21:1 30:1 33:1 49:1 50:1 70:1 73:1 107:1 108:1 128:1 131:1 153:1 156:1 157:1 166:1 172:1 181:1 380:1 
0.1695007946928143 19:1 20:1 30:1 60:1 73:1 74:1 76:1 86:1 91:1 96:1 97:1 100:1 101:1 107:1 124:1 125:1 155:1 157:1 159:1 508:1 
0.003646144126489555 6:1 8:1 30:1 58:1 73:1 116:1 118:1 125:1 129:1 134:1 136:1 153:1 166:1 172:1 180:1 182:1 
0.2847816504963694 6:1 8:1 10:1 30:1 32:1 50:1 61:1 65:1 73:1 74:1 75:1 82:1 107:1 145:1 150:1 157:1 231:1 282:1 
0.05977824971172852 10:1 19:1 21:1 28:1 30:1 60:1 61:1 74:1 86:1 91:1 96:1 101:1 107:1 108:1 111:1 116:1 135:1 137:1 157:1 
0.01583744289228892 6:1 8:1 30:1 32:1 33:1 50:1 81:1 82:1 93:1 94:1 107:1 118:1 123:1 156:1 161:1 182:1 528:1 
0.1256952598116761 6:1 30:1 53:1 73:1 74:1 82:1 89:1 107:1 118:1 122:1 123:1 124:1 163:1 182:1 529:1 
0.0965312330676641 6:1 8:1 10:1 30:1 32:1 43:1 74:1 75:1 107:1 125:1 129:1 134:1 135:1 143:1 147:1 153:1 157:1 158:1 538:1 
0.5618181635950968 6:1 8:1 10:1 30:1 32:1 73:1 75:1 107:1 124:1 125:1 130:1 134:1 148:1 150:1 151:1 153:1 156:1 157:1 158:1 
0.5041393734251962 6:1 8:1 30:1 32:1 64:1 71:1 73:1 75:1 107:1 116:1 125:1 129:1 130:1 134:1 153:1 157:1 163:1 182:1 318:1 
0.3494143318874581 6:1 7:1 21:1 30:1 41:1 44:1 76:1 92:1 107:1 108:1 115:1 134:1 157:1 166:1 170:1 180:1 
0.08437920663225355 6:1 21:1 30:1 49:1 50:1 73:1 75:1 77:1 83:1 100:1 101:1 108:1 133:1 134:1 136:1 166:1 172:1 181:1 
0.01462909445067799 6:1 30:1 32:1 73:1 74:1 75:1 85:1 101:1 107:1 132:1 150:1 157:1 172:1 213:1 216:1 248:1 249:1 321:1 330:1 515:1 517:1 531:1 
0.1842474098706544 6:1 8:1 10:1 24:1 30:1 31:1 32:1 64:1 71:1 94:1 114:1 118:1 153:1 164:1 234:1 
1 6:1 8:1 10:1 30:1 32:1 69:1 73:1 75:1 105:1 107:1 124:1 129:1 143:1 153:1 156:1 157:1 166:1 181:1 
0.2879781294578971 4:1 6:1 8:1 10:1 30:1 32:1 69:1 70:1 73:1 75:1 101:1 107:1 130:1 143:1 147:1 156:1 157:1 182:1 
0.007778538988590199 6:1 8:1 30:1 61:1 65:1 73:1 75:1 77:1 82:1 83:1 101:1 107:1 130:1 157:1 163:1 
0.2983375302537093 6:1 8:1 10:1 30:1 32:1 41:1 51:1 61:1 69:1 101:1 114:1 115:1 118:1 133:1 136:1 167:1 182:1 210:1 
0.04706772947391904 6:1 8:1 30:1 33:1 73:1 107:1 118:1 123:1 132:1 157:1 159:1 166:1 181:1 213:1 231:1 234:1 266:1 317:1 517:1 
0.08482533103213799 1:1 6:1 20:1 21:1 22:1 49:1 50:1 84:1 107:1 157:1 185:1 186:1 192:1 194:1 
0.1931472763622052 19:1 21:1 30:1 33:1 49:1 50:1 73:1 107:1 108:1 153:1 156:1 157:1 166:1 172:1 181:1 185:1 187:1 371:1 372:1 
0.2103232093819167 18:1 20:1 21:1 27:1 30:1 49:1 73:1 76:1 85:1 101:1 107:1 118:1 123:1 130:1 152:1 157:1 168:1 169:1 173:1 
0.08700941620413735 6:1 21:1 30:1 33:1 50:1 73:1 75:1 77:1 82:1 83:1 89:1 90:1 108:1 136:1 152:1 166:1 172:1 180:1 255:1 
0.01771522974383727 6:1 8:1 10:1 30:1 32:1 50:1 70:1 73:1 74:1 75:1 82:1 101:1 105:1 107:1 132:1 147:1 157:1 409:1 
0.1513205890096386 6:1 8:1 30:1 73:1 75:1 77:1 82:1 83:1 104:1 105:1 107:1 111:1 130:1 157:1 158:1 231:1 
0.107993856521977 6:1 8:1 30:1 32:1 37:1 61:1 66:1 75:1 76:1 77:1 83:1 101:1 106:1 107:1 135:1 145:1 157:1 158:1 166:1 406:1 503:1 535:1 
0.1337723833439262 6:1 21:1 22:1 30:1 50:1 53:1 54:1 62:1 70:1 74:1 75:1 82:1 101:1 107:1 110:1 111:1 135:1 147:1 157:1 
0.1888260341487716 4:1 6:1 8:1 10:1 30:1 70:1 73:1 82:1 97:1 106:1 118:1 119:1 120:1 130:1 133:1 136:1 146:1 172:1 231:1 
0.02688167287494195 19:1 20:1 21:1 30:1 49:1 50:1 74:1 76:1 86:1 91:1 96:1 99:1 107:1 111:1 135:1 141:1 157:1 231:1 269:1 508:1 
0.6947998184395734 2:1 6:1 7:1 10:1 30:1 56:1 97:1 101:1 107:1 108:1 115:1 134:1 149:1 157:1 166:1 172:1 237:1 252:1 
0.06403597529844673 5:1 6:1 14:1 20:1 21:1 30:1 44:1 69:1 79:1 95:1 98:1 102:1 107:1 114:1 115:1 118:1 166:1 179:1 
0.1302278884179947 6:1 20:1 21:1 27:1 30:1 37:1 49:1 50:1 55:1 89:1 95:1 107:1 118:1 122:1 123:1 166:1 168:1 169:1 
0.05459458072759266 2:1 6:1 7:1 8:1 10:1 30:1 50:1 73:1 94:1 97:1 104:1 107:1 134:1 152:1 153:1 157:1 166:1 180:1 
0.1522383976231498 18:1 21:1 30:1 33:1 73:1 74:1 103:1 107:1 108:1 115:1 153:1 156:1 157:1 171:1 182:1 186:1 214:1 252:1 521:1 
0.03033958180472855 18:1 30:1 75:1 95:1 103:1 107:1 124:1 126:1 153:1 157:1 166:1 171:1 180:1 518:1 521:1 
0.007139125987226836 6:1 7:1 21:1 30:1 49:1 50:1 73:1 76:1 107:1 108:1 152:1 153:1 157:1 166:1 171:1 172:1 180:1 221:1 222:1 517:1 530:1 
0.3402959949827236 6:1 7:1 21:1 22:1 30:1 61:1 69:1 100:1 101:1 107:1 108:1 114:1 116:1 125:1 157:1 166:1 181:1 
0.1518118500886159 6:1 8:1 9:1 74:1 75:1 77:1 83:1 87:1 88:1 95:1 104:1 107:1 127:1 145:1 157:1 217:1 218:1 234:1 265:1 344:1 514:1 
0.002452791145096284 6:1 8:1 10:1 16:1 30:1 73:1 97:1 101:1 105:1 111:1 118:1 133:1 134:1 136:1 149:1 166:1 172:1 185:1 
0.1509627906383814 6:1 30:1 61:1 69:1 70:1 74:1 101:1 133:1 135:1 136:1 146:1 155:1 533:1 
0.2615546820758708 6:1 8:1 9:1 30:1 105:1 106:1 107:1 114:1 118:1 124:1 153:1 156:1 157:1 330:1 488:1 489:1 517:1 
0.1030704160909887 30:1 73:1 74:1 96:1 98:1 102:1 107:1 121:1 134:1 153:1 182:1 534:1 
0.1191093539573519 6:1 10:1 20:1 30:1 73:1 75:1 97:1 102:1 106:1 107:1 129:1 130:1 134:1 153:1 156:1 160:1 285:1 396:1 444:1 
0.2529902044920764 9:1 10:1 19:1 30:1 53:1 63:1 91:1 96:1 107:1 124:1 129:1 145:1 153:1 156:1 157:1 443:1 
-0.5893769012136589 6:1 30:1 64:1 69:1 70:1 71:1 73:1 74:1 105:1 107:1 153:1 155:1 156:1 157:1 
-0.4720843883236698 6:1 7:1 10:1 21:1 30:1 51:1 69:1 101:1 104:1 105:1 107:1 108:1 157:1 167:1 182:1 185:1 210:1 215:1 
-0.1741009490363924 6:1 8:1 22:1 30:1 32:1 70:1 107:1 118:1 125:1 148:1 151:1 153:1 156:1 157:1 172:1 234:1 
-0.4709108354295646 6:1 21:1 22:1 30:1 75:1 95:1 107:1 108:1 116:1 125:1 134:1 150:1 153:1 156:1 157:1 166:1 172:1 182:1 
-1 10:1 19:1 30:1 53:1 73:1 97:1 106:1 107:1 124:1 128:1 129:1 130:1 131:1 145:1 153:1 157:1 163:1 182:1 529:1 
-0.1145945277426246 6:1 20:1 21:1 30:1 50:1 54:1 61:1 62:1 69:1 75:1 76:1 107:1 114:1 153:1 157:1 168:1 169:1 182:1 
-0.2193304665751399 6:1 8:1 30:1 32:1 33:1 50:1 69:1 75:1 95:1 107:1 114:1 124:1 153:1 155:1 157:1 166:1 180:1 284:1 
-0.6346333014958772 6:1 20:1 21:1 30:1 69:1 73:1 75:1 76:1 94:1 107:1 114:1 130:1 147:1 148:1 151:1 153:1 157:1 182:1 288:1 
-1 6:1 8:1 30:1 32:1 41:1 61:1 73:1 77:1 83:1 111:1 115:1 118:1 133:1 134:1 136:1 166:1 285:1 287:1 
-0.3777622814656715 6:1 8:1 30:1 32:1 33:1 107:1 118:1 123:1 124:1 125:1 134:1 135:1 143:1 153:1 156:1 157:1 166:1 181:1 
-0.2049023605117403 6:1 21:1 30:1 61:1 69:1 70:1 73:1 75:1 106:1 107:1 108:1 145:1 153:1 156:1 157:1 166:1 181:1 
-0.1261231024601617 6:1 10:1 20:1 30:1 75:1 97:1 101:1 106:1 107:1 132:1 134:1 141:1 149:1 150:1 157:1 202:1 
-0.1568693916051516 6:1 10:1 20:1 30:1 51:1 75:1 97:1 101:1 107:1 124:1 129:1 132:1 134:1 135:1 145:1 157:1 159:1 211:1 
-0.381150094212649 6:1 8:1 14:1 30:1 73:1 82:1 101:1 107:1 110:1 111:1 118:1 123:1 157:1 166:1 
-0.3580351522578288 30:1 74:1 96:1 101:1 107:1 110:1 134:1 156:1 157:1 200:1 
-0.7257385622634597 6:1 21:1 22:1 30:1 69:1 73:1 74:1 75:1 101:1 106:1 107:1 108:1 110:1 111:1 124:1 129:1 145:1 157:1 
-0.8404089810418657 6:1 8:1 10:1 30:1 32:1 55:1 64:1 71:1 75:1 107:1 116:1 125:1 129:1 134:1 135:1 157:1 166:1 231:1 296:1 
-0.06807918904375691 6:1 8:1 10:1 25:1 30:1 73:1 93:1 94:1 97:1 107:1 118:1 123:1 153:1 156:1 157:1 164:1 166:1 181:1 
-0.4441924445832225 6:1 8:1 9:1 25:1 30:1 73:1 74:1 76:1 85:1 93:1 94:1 107:1 118:1 123:1 153:1 155:1 156:1 157:1 
-0.1918467269463628 6:1 8:1 10:1 30:1 49:1 69:1 70:1 97:1 107:1 118:1 135:1 153:1 156:1 157:1 166:1 172:1 181:1 212:1 521:1 
-0.1203987621907188 6:1 8:1 10:1 30:1 61:1 69:1 73:1 97:1 107:1 114:1 115:1 116:1 118:1 153:1 157:1 166:1 180:1 182:1 
-0.9380316996037656 6:1 8:1 10:1 30:1 32:1 70:1 75:1 95:1 101:1 107:1 124:1 125:1 143:1 146:1 157:1 166:1 181:1 234:1 
-1 6:1 8:1 10:1 30:1 32:1 73:1 75:1 101:1 107:1 124:1 129:1 130:1 132:1 134:1 145:1 149:1 157:1 252:1 
-1 6:1 8:1 10:1 30:1 32:1 50:1 73:1 75:1 101:1 107:1 129:1 130:1 134:1 146:1 147:1 157:1 158:1 255:1 
-0.3148528522371849 6:1 8:1 30:1 32:1 82:1 93:1 107:1 116:1 118:1 119:1 120:1 123:1 125:1 130:1 135:1 153:1 156:1 157:1 
-1 6:1 8:1 30:1 32:1 70:1 76:1 82:1 107:1 116:1 118:1 125:1 153:1 156:1 157:1 172:1 
-0.5813612310361095 6:1 7:1 30:1 32:1 50:1 61:1 69:1 73:1 105:1 107:1 108:1 114:1 153:1 156:1 157:1 166:1 182:1 
-0.05375212995833016 20:1 21:1 30:1 33:1 39:1 40:1 73:1 75:1 85:1 101:1 107:1 134:1 146:1 150:1 157:1 166:1 181:1 188:1 
-0.01589467544929848 6:1 10:1 20:1 30:1 73:1 75:1 97:1 100:1 101:1 106:1 107:1 129:1 134:1 147:1 157:1 160:1 197:1 434:1 
-0.05655300092230827 6:1 8:1 30:1 32:1 38:1 41:1 61:1 69:1 73:1 76:1 107:1 115:1 118:1 152:1 153:1 157:1 166:1 180:1 
-0.8208567501724514 6:1 21:1 22:1 30:1 49:1 50:1 73:1 75:1 107:1 108:1 134:1 150:1 152:1 153:1 157:1 166:1 172:1 180:1 
-0.06050284772970383 6:1 20:1 21:1 30:1 33:1 41:1 72:1 73:1 75:1 80:1 107:1 120:1 129:1 130:1 134:1 147:1 156:1 157:1 447:1 
-0.1531948894301136 6:1 30:1 53:1 61:1 69:1 73:1 74:1 107:1 114:1 115:1 116:1 118:1 121:1 152:1 153:1 157:1 
-0.119636969941756 6:1 8:1 30:1 38:1 69:1 73:1 74:1 94:1 107:1 118:1 127:1 137:1 157:1 164:1 168:1 169:1 172:1 531:1 
-0.4293959396374766 19:1 21:1 30:1 33:1 53:1 63:1 70:1 73:1 74:1 91:1 96:1 100:1 101:1 107:1 126:1 147:1 157:1 262:1 263:1 443:1 523:1 
-0.321734302277793 30:1 56:1 73:1 74:1 96:1 101:1 107:1 134:1 152:1 157:1 521:1 
-0.04655700707855646 6:1 8:1 9:1 30:1 55:1 73:1 74:1 75:1 101:1 107:1 134:1 150:1 157:1 160:1 212:1 244:1 245:1 265:1 296:1 515:1 531:1 
