svm_type c_svc
kernel_type linear
nr_class 2
total_sv 180
rho 1.16417
label 1 -1
nr_sv 81 99
SV
0.03083390261349792 8:1 9:1 11:1 24:1 25:1 27:1 33:1 34:1 35:1 36:1 37:1 38:1 39:1 40:1 41:1 42:1 43:1 44:1 45:1 46:1 47:1 48:1 49:1 50:1 51:1 52:1 53:1 54:1 55:1 
0.322263286681493 1:1 2:1 7:1 8:1 9:1 17:1 18:1 25:1 26:1 27:1 28:1 29:1 39:1 73:1 74:1 75:1 76:1 77:1 78:1 79:1 80:1 81:1 82:1 83:1 84:1 85:1 86:1 87:1 
0.3941209538608612 2:1 8:1 13:1 17:1 18:1 19:1 23:1 27:1 28:1 29:1 30:1 35:1 36:1 41:1 43:1 44:1 45:1 46:1 54:1 58:1 61:1 67:1 82:1 88:1 89:1 90:1 91:1 92:1 93:1 94:1 95:1 96:1 97:1 98:1 99:1 100:1 101:1 102:1 
0.06302147818947748 1:1 2:1 7:1 8:1 13:1 19:1 20:1 21:1 25:1 27:1 28:1 29:1 30:1 31:1 42:1 54:1 92:1 93:1 117:1 118:1 119:1 120:1 121:1 122:1 123:1 124:1 125:1 126:1 127:1 128:1 129:1 130:1 
0.02330419694925642 9:1 11:1 12:1 13:1 15:1 19:1 27:1 28:1 39:1 43:1 45:1 51:1 53:1 54:1 76:1 88:1 91:1 101:1 112:1 126:1 136:1 138:1 157:1 160:1 177:1 178:1 179:1 180:1 181:1 182:1 183:1 184:1 185:1 186:1 187:1 188:1 189:1 190:1 191:1 192:1 
0.07409703114453178 10:1 25:1 27:1 28:1 29:1 33:1 37:1 45:1 46:1 51:1 59:1 62:1 65:1 71:1 72:1 74:1 75:1 81:1 82:1 104:1 105:1 106:1 108:1 126:1 128:1 129:1 133:1 149:1 155:1 157:1 162:1 193:1 194:1 195:1 
0.3555699401070487 23:1 25:1 33:1 37:1 43:1 45:1 46:1 52:1 60:1 66:1 70:1 71:1 105:1 107:1 123:1 124:1 129:1 132:1 164:1 178:1 215:1 216:1 217:1 
0.1037121715053864 7:1 13:1 19:1 25:1 28:1 29:1 31:1 57:1 64:1 76:1 77:1 82:1 124:1 129:1 132:1 133:1 137:1 140:1 175:1 258:1 259:1 260:1 261:1 262:1 263:1 264:1 265:1 266:1 267:1 268:1 269:1 270:1 271:1 272:1 273:1 
0.1226950303113236 2:1 8:1 11:1 23:1 25:1 27:1 33:1 37:1 43:1 46:1 47:1 50:1 51:1 52:1 54:1 78:1 118:1 129:1 131:1 140:1 143:1 146:1 147:1 152:1 153:1 167:1 171:1 274:1 275:1 276:1 
0.1597375534502969 4:1 11:1 12:1 21:1 22:1 25:1 26:1 27:1 28:1 30:1 42:1 45:1 47:1 65:1 72:1 74:1 81:1 96:1 110:1 155:1 186:1 223:1 224:1 225:1 255:1 298:1 299:1 300:1 301:1 302:1 303:1 
0.5230934140537822 9:1 11:1 12:1 18:1 27:1 28:1 39:1 40:1 41:1 43:1 44:1 45:1 46:1 54:1 61:1 67:1 76:1 81:1 86:1 98:1 112:1 113:1 123:1 128:1 138:1 157:1 159:1 187:1 190:1 192:1 211:1 229:1 255:1 304:1 305:1 306:1 307:1 
0.1751593903012091 12:1 18:1 25:1 27:1 28:1 36:1 45:1 46:1 48:1 49:1 51:1 53:1 61:1 63:1 65:1 71:1 72:1 81:1 93:1 94:1 98:1 105:1 129:1 138:1 155:1 162:1 164:1 190:1 211:1 225:1 274:1 307:1 308:1 309:1 310:1 311:1 312:1 
0.1034391498600949 18:1 25:1 27:1 28:1 33:1 37:1 41:1 46:1 53:1 54:1 62:1 63:1 65:1 66:1 69:1 70:1 81:1 86:1 88:1 91:1 92:1 93:1 94:1 100:1 107:1 118:1 121:1 123:1 138:1 144:1 174:1 238:1 239:1 278:1 279:1 280:1 283:1 284:1 310:1 316:1 317:1 
0.1459049010719578 11:1 12:1 23:1 28:1 45:1 63:1 65:1 74:1 76:1 81:1 86:1 96:1 98:1 101:1 104:1 109:1 112:1 127:1 136:1 138:1 174:1 175:1 178:1 180:1 186:1 190:1 251:1 271:1 299:1 300:1 303:1 313:1 335:1 336:1 337:1 338:1 339:1 340:1 341:1 
0.1173577247341536 12:1 18:1 27:1 28:1 46:1 61:1 62:1 63:1 65:1 71:1 72:1 73:1 74:1 81:1 93:1 94:1 98:1 101:1 104:1 109:1 112:1 127:1 128:1 136:1 138:1 153:1 155:1 157:1 174:1 188:1 190:1 225:1 226:1 279:1 304:1 313:1 342:1 
0.4259042095874631 11:1 18:1 21:1 25:1 27:1 28:1 30:1 31:1 36:1 45:1 46:1 61:1 62:1 63:1 65:1 71:1 72:1 73:1 74:1 76:1 78:1 81:1 88:1 91:1 100:1 104:1 107:1 109:1 127:1 128:1 155:1 157:1 162:1 185:1 214:1 226:1 279:1 314:1 315:1 
0.48628373988389 18:1 25:1 27:1 33:1 37:1 41:1 46:1 53:1 54:1 62:1 63:1 65:1 68:1 69:1 92:1 93:1 100:1 118:1 125:1 144:1 174:1 178:1 279:1 310:1 316:1 317:1 343:1 344:1 
0.2606511482494058 18:1 23:1 25:1 27:1 28:1 30:1 42:1 43:1 44:1 45:1 65:1 71:1 81:1 93:1 103:1 107:1 120:1 121:1 129:1 137:1 148:1 149:1 154:1 155:1 164:1 184:1 253:1 254:1 255:1 269:1 305:1 308:1 411:1 412:1 413:1 414:1 415:1 416:1 
0.2633484521463376 23:1 24:1 30:1 40:1 41:1 58:1 65:1 93:1 94:1 109:1 121:1 122:1 123:1 135:1 153:1 154:1 155:1 160:1 174:1 203:1 205:1 207:1 214:1 216:1 221:1 225:1 340:1 370:1 385:1 386:1 447:1 448:1 449:1 450:1 451:1 452:1 
0.004606162768162236 18:1 23:1 25:1 27:1 28:1 43:1 45:1 46:1 59:1 60:1 61:1 65:1 71:1 72:1 73:1 74:1 81:1 86:1 93:1 94:1 100:1 121:1 135:1 138:1 155:1 159:1 160:1 166:1 178:1 185:1 190:1 207:1 226:1 255:1 301:1 448:1 453:1 
0.1385725637124038 18:1 23:1 25:1 27:1 28:1 43:1 45:1 46:1 59:1 60:1 61:1 63:1 65:1 71:1 72:1 81:1 86:1 93:1 94:1 100:1 119:1 121:1 131:1 135:1 138:1 155:1 159:1 160:1 166:1 167:1 185:1 190:1 307:1 308:1 311:1 453:1 454:1 
0.1654420057564611 10:1 22:1 23:1 24:1 27:1 28:1 29:1 31:1 43:1 44:1 51:1 52:1 54:1 65:1 67:1 72:1 74:1 78:1 81:1 113:1 124:1 149:1 154:1 155:1 164:1 172:1 183:1 269:1 272:1 316:1 317:1 374:1 385:1 469:1 470:1 471:1 472:1 473:1 474:1 475:1 
0.1648472869269154 11:1 12:1 23:1 25:1 27:1 28:1 30:1 43:1 45:1 46:1 51:1 52:1 59:1 60:1 61:1 65:1 71:1 72:1 76:1 81:1 100:1 119:1 124:1 135:1 149:1 155:1 160:1 164:1 166:1 167:1 183:1 185:1 207:1 210:1 214:1 225:1 314:1 315:1 
0.03129525711145136 25:1 27:1 28:1 45:1 46:1 51:1 52:1 53:1 59:1 60:1 61:1 65:1 71:1 72:1 81:1 86:1 93:1 94:1 105:1 119:1 121:1 129:1 138:1 149:1 155:1 159:1 164:1 166:1 167:1 190:1 207:1 306:1 308:1 310:1 311:1 507:1 508:1 509:1 
0.1478764974613528 23:1 25:1 27:1 28:1 43:1 45:1 46:1 52:1 59:1 60:1 61:1 65:1 67:1 71:1 72:1 74:1 81:1 86:1 93:1 94:1 100:1 121:1 124:1 135:1 138:1 155:1 159:1 164:1 167:1 183:1 185:1 190:1 207:1 210:1 221:1 222:1 509:1 
0.423211806942308 12:1 23:1 25:1 27:1 28:1 43:1 45:1 46:1 52:1 60:1 61:1 65:1 71:1 72:1 81:1 88:1 91:1 93:1 94:1 100:1 119:1 124:1 131:1 138:1 155:1 159:1 160:1 164:1 166:1 179:1 183:1 185:1 190:1 221:1 222:1 225:1 226:1 462:1 463:1 
0.1723668914538675 13:1 19:1 23:1 25:1 27:1 28:1 43:1 45:1 46:1 51:1 52:1 57:1 60:1 61:1 64:1 65:1 67:1 71:1 72:1 76:1 100:1 119:1 131:1 149:1 155:1 159:1 164:1 167:1 179:1 185:1 214:1 311:1 
0.2204731376383901 14:1 25:1 27:1 28:1 45:1 46:1 51:1 52:1 53:1 60:1 61:1 65:1 71:1 72:1 81:1 85:1 86:1 93:1 105:1 120:1 121:1 129:1 135:1 136:1 137:1 138:1 143:1 149:1 155:1 160:1 164:1 167:1 210:1 308:1 310:1 311:1 519:1 520:1 521:1 
0.03941795845419961 12:1 21:1 23:1 25:1 27:1 28:1 30:1 43:1 45:1 46:1 50:1 51:1 52:1 54:1 59:1 60:1 61:1 62:1 65:1 81:1 92:1 93:1 94:1 100:1 118:1 119:1 135:1 144:1 149:1 167:1 185:1 207:1 210:1 214:1 314:1 315:1 353:1 
0.1118787877266129 9:1 11:1 12:1 18:1 27:1 28:1 35:1 41:1 44:1 45:1 46:1 58:1 65:1 76:1 81:1 104:1 112:1 113:1 124:1 128:1 138:1 149:1 159:1 160:1 164:1 167:1 190:1 207:1 306:1 340:1 402:1 543:1 544:1 545:1 546:1 547:1 
0.1542018653874379 7:1 8:1 10:1 13:1 19:1 27:1 28:1 29:1 38:1 42:1 54:1 86:1 101:1 110:1 120:1 121:1 122:1 123:1 128:1 161:1 168:1 171:1 255:1 275:1 292:1 361:1 393:1 566:1 567:1 568:1 569:1 570:1 571:1 
0.08471410609754929 8:1 33:1 37:1 45:1 46:1 68:1 93:1 104:1 105:1 112:1 120:1 121:1 134:1 140:1 211:1 248:1 271:1 278:1 305:1 313:1 340:1 370:1 378:1 572:1 573:1 574:1 575:1 576:1 577:1 578:1 
0.05748556056831818 11:1 12:1 18:1 23:1 25:1 27:1 28:1 30:1 36:1 43:1 45:1 46:1 57:1 61:1 64:1 65:1 69:1 71:1 72:1 76:1 81:1 100:1 107:1 155:1 178:1 179:1 185:1 203:1 214:1 221:1 222:1 225:1 226:1 314:1 315:1 355:1 383:1 586:1 587:1 
0.1337921867162347 11:1 16:1 23:1 27:1 33:1 37:1 46:1 52:1 54:1 62:1 63:1 65:1 92:1 93:1 101:1 104:1 112:1 119:1 121:1 135:1 174:1 178:1 199:1 243:1 279:1 316:1 317:1 353:1 413:1 602:1 
0.05566879755869021 25:1 27:1 28:1 43:1 44:1 49:1 50:1 54:1 63:1 65:1 81:1 86:1 92:1 93:1 94:1 99:1 110:1 118:1 121:1 129:1 138:1 144:1 148:1 154:1 165:1 178:1 190:1 205:1 231:1 255:1 309:1 351:1 453:1 509:1 543:1 611:1 612:1 
0.2651924874609468 4:1 18:1 23:1 25:1 27:1 28:1 43:1 45:1 46:1 61:1 65:1 71:1 72:1 74:1 81:1 86:1 93:1 94:1 105:1 121:1 127:1 129:1 138:1 140:1 155:1 190:1 203:1 211:1 213:1 221:1 222:1 274:1 305:1 348:1 378:1 509:1 613:1 
0.01482736329318586 11:1 18:1 21:1 23:1 25:1 27:1 28:1 30:1 43:1 45:1 46:1 57:1 61:1 64:1 65:1 71:1 72:1 76:1 81:1 100:1 107:1 143:1 155:1 172:1 178:1 179:1 185:1 203:1 214:1 221:1 222:1 226:1 305:1 314:1 315:1 378:1 569:1 
0.2562038264848583 1:1 4:1 9:1 11:1 20:1 23:1 25:1 26:1 27:1 28:1 29:1 47:1 65:1 78:1 81:1 110:1 123:1 129:1 134:1 165:1 225:1 301:1 307:1 359:1 378:1 384:1 561:1 583:1 620:1 621:1 
0.4586399086545508 8:1 11:1 12:1 24:1 27:1 28:1 38:1 43:1 44:1 45:1 46:1 53:1 61:1 71:1 76:1 81:1 84:1 86:1 110:1 165:1 188:1 213:1 214:1 237:1 239:1 255:1 301:1 305:1 308:1 309:1 311:1 314:1 315:1 375:1 483:1 563:1 622:1 623:1 
0.1883894722369798 8:1 9:1 11:1 33:1 37:1 38:1 39:1 40:1 46:1 47:1 95:1 109:1 112:1 123:1 128:1 157:1 165:1 174:1 271:1 278:1 309:1 310:1 316:1 317:1 336:1 339:1 340:1 370:1 384:1 624:1 
0.04637376396488386 23:1 25:1 27:1 28:1 43:1 45:1 46:1 52:1 59:1 60:1 61:1 65:1 67:1 71:1 72:1 81:1 86:1 88:1 91:1 93:1 94:1 100:1 119:1 121:1 124:1 138:1 155:1 159:1 160:1 164:1 167:1 183:1 185:1 190:1 210:1 221:1 222:1 462:1 463:1 
0.3208974905994477 9:1 11:1 13:1 19:1 21:1 23:1 25:1 27:1 28:1 30:1 39:1 40:1 41:1 42:1 43:1 45:1 47:1 52:1 54:1 59:1 68:1 69:1 78:1 125:1 127:1 129:1 140:1 185:1 186:1 187:1 210:1 223:1 224:1 229:1 342:1 653:1 654:1 
0.3647436128777755 9:1 18:1 27:1 33:1 37:1 39:1 43:1 45:1 46:1 54:1 60:1 66:1 68:1 69:1 70:1 73:1 105:1 111:1 112:1 113:1 132:1 140:1 145:1 151:1 178:1 187:1 192:1 229:1 274:1 
0.01144186416427996 1:1 2:1 7:1 8:1 12:1 27:1 28:1 54:1 81:1 86:1 92:1 93:1 94:1 101:1 102:1 110:1 112:1 117:1 118:1 140:1 168:1 207:1 214:1 239:1 255:1 284:1 314:1 315:1 437:1 468:1 533:1 
0.5021856848746967 18:1 23:1 25:1 27:1 28:1 41:1 43:1 45:1 46:1 51:1 59:1 60:1 61:1 62:1 65:1 67:1 68:1 71:1 72:1 81:1 86:1 93:1 94:1 98:1 105:1 121:1 124:1 129:1 136:1 138:1 149:1 155:1 183:1 190:1 306:1 307:1 348:1 
0.01758056094727109 17:1 18:1 23:1 25:1 27:1 28:1 36:1 43:1 45:1 46:1 49:1 59:1 61:1 62:1 63:1 65:1 71:1 72:1 81:1 86:1 93:1 94:1 100:1 121:1 127:1 131:1 138:1 155:1 166:1 185:1 190:1 306:1 308:1 311:1 383:1 509:1 613:1 
0.1199560158398732 23:1 25:1 27:1 28:1 35:1 36:1 43:1 45:1 46:1 61:1 65:1 67:1 68:1 69:1 71:1 72:1 73:1 74:1 81:1 86:1 93:1 94:1 100:1 110:1 121:1 127:1 138:1 155:1 185:1 190:1 205:1 210:1 221:1 222:1 274:1 509:1 583:1 
0.1286791809909245 1:1 7:1 12:1 23:1 25:1 28:1 48:1 76:1 81:1 123:1 129:1 174:1 175:1 190:1 210:1 211:1 225:1 259:1 260:1 263:1 264:1 267:1 268:1 270:1 271:1 273:1 306:1 308:1 309:1 310:1 312:1 386:1 434:1 463:1 509:1 669:1 670:1 671:1 
0.201987075621452 23:1 28:1 31:1 42:1 43:1 46:1 61:1 64:1 71:1 76:1 78:1 80:1 81:1 101:1 137:1 146:1 147:1 152:1 153:1 155:1 161:1 214:1 218:1 221:1 222:1 302:1 309:1 315:1 359:1 421:1 434:1 555:1 556:1 561:1 672:1 673:1 674:1 675:1 676:1 
0.2728114136140225 37:1 46:1 53:1 67:1 70:1 71:1 73:1 92:1 93:1 113:1 138:1 204:1 205:1 210:1 211:1 213:1 218:1 310:1 311:1 316:1 317:1 367:1 369:1 435:1 555:1 556:1 674:1 676:1 677:1 678:1 679:1 
0.01486809678790201 7:1 8:1 9:1 13:1 15:1 16:1 18:1 19:1 25:1 26:1 27:1 28:1 29:1 30:1 36:1 45:1 73:1 76:1 77:1 87:1 104:1 105:1 107:1 111:1 112:1 121:1 145:1 151:1 170:1 178:1 294:1 307:1 359:1 454:1 691:1 692:1 693:1 694:1 
0.2613051325858542 8:1 9:1 18:1 26:1 27:1 33:1 34:1 36:1 37:1 43:1 44:1 45:1 46:1 67:1 87:1 112:1 113:1 128:1 213:1 253:1 254:1 255:1 301:1 306:1 308:1 309:1 349:1 692:1 
0.01987055019567159 2:1 7:1 8:1 13:1 18:1 19:1 27:1 28:1 29:1 31:1 53:1 54:1 59:1 82:1 92:1 93:1 94:1 95:1 101:1 102:1 112:1 117:1 118:1 122:1 123:1 131:1 137:1 143:1 157:1 173:1 174:1 255:1 258:1 316:1 317:1 359:1 437:1 561:1 
0.01290933984471387 2:1 8:1 11:1 33:1 36:1 37:1 45:1 46:1 47:1 52:1 68:1 78:1 104:1 105:1 111:1 112:1 118:1 124:1 140:1 143:1 162:1 165:1 211:1 216:1 301:1 340:1 370:1 563:1 696:1 697:1 
0.05480574157940306 8:1 9:1 13:1 18:1 19:1 26:1 27:1 28:1 38:1 39:1 41:1 45:1 53:1 73:1 76:1 84:1 86:1 87:1 88:1 91:1 95:1 109:1 112:1 157:1 179:1 185:1 237:1 239:1 281:1 286:1 295:1 298:1 414:1 473:1 539:1 660:1 699:1 700:1 701:1 
0.7190566646245998 13:1 19:1 24:1 25:1 27:1 28:1 43:1 54:1 62:1 63:1 65:1 68:1 69:1 88:1 91:1 92:1 93:1 94:1 110:1 118:1 121:1 125:1 127:1 136:1 138:1 144:1 160:1 178:1 181:1 185:1 186:1 188:1 330:1 331:1 383:1 397:1 418:1 702:1 
0.8017316992217027 18:1 23:1 25:1 27:1 33:1 36:1 37:1 41:1 42:1 44:1 45:1 46:1 68:1 71:1 90:1 93:1 109:1 120:1 121:1 124:1 129:1 162:1 175:1 198:1 259:1 264:1 279:1 295:1 343:1 344:1 703:1 
0.2247849705614392 23:1 25:1 27:1 28:1 30:1 31:1 41:1 42:1 45:1 49:1 50:1 51:1 52:1 54:1 58:1 65:1 81:1 90:1 92:1 93:1 120:1 121:1 129:1 137:1 186:1 203:1 204:1 269:1 353:1 385:1 412:1 414:1 415:1 707:1 708:1 709:1 
0.1680475709956144 25:1 27:1 54:1 62:1 63:1 65:1 77:1 78:1 92:1 93:1 107:1 109:1 110:1 111:1 112:1 118:1 123:1 143:1 146:1 148:1 173:1 174:1 210:1 317:1 417:1 418:1 419:1 437:1 710:1 711:1 
0.1751042685126631 8:1 10:1 11:1 13:1 18:1 19:1 23:1 25:1 27:1 28:1 30:1 36:1 43:1 45:1 46:1 54:1 61:1 78:1 92:1 107:1 109:1 123:1 127:1 129:1 143:1 157:1 178:1 185:1 191:1 204:1 223:1 224:1 232:1 330:1 331:1 406:1 437:1 713:1 714:1 
0.1447081985522235 18:1 23:1 24:1 25:1 27:1 28:1 36:1 41:1 43:1 44:1 45:1 46:1 48:1 49:1 61:1 63:1 65:1 71:1 72:1 81:1 86:1 93:1 94:1 98:1 109:1 121:1 138:1 155:1 190:1 203:1 205:1 211:1 274:1 307:1 308:1 311:1 497:1 
0.04032086578368612 22:1 23:1 25:1 27:1 28:1 36:1 41:1 43:1 45:1 46:1 49:1 61:1 65:1 71:1 72:1 81:1 86:1 88:1 91:1 93:1 94:1 100:1 107:1 109:1 110:1 121:1 138:1 155:1 185:1 190:1 203:1 205:1 210:1 279:1 308:1 311:1 364:1 368:1 456:1 
0.1489597703348054 4:1 18:1 27:1 28:1 49:1 54:1 65:1 72:1 81:1 86:1 93:1 94:1 111:1 112:1 113:1 121:1 127:1 138:1 145:1 151:1 154:1 155:1 173:1 174:1 190:1 203:1 221:1 274:1 279:1 311:1 316:1 317:1 351:1 364:1 368:1 391:1 470:1 472:1 517:1 518:1 613:1 
0.173741934659686 1:1 7:1 8:1 20:1 21:1 23:1 25:1 26:1 28:1 29:1 30:1 38:1 76:1 77:1 81:1 100:1 121:1 127:1 173:1 174:1 225:1 226:1 278:1 301:1 308:1 313:1 316:1 317:1 336:1 384:1 554:1 555:1 556:1 563:1 564:1 582:1 670:1 
0.4741398003006147 12:1 18:1 26:1 27:1 28:1 62:1 63:1 65:1 67:1 72:1 73:1 74:1 81:1 93:1 94:1 98:1 104:1 109:1 113:1 128:1 138:1 155:1 157:1 181:1 186:1 190:1 205:1 211:1 225:1 274:1 307:1 316:1 317:1 435:1 678:1 701:1 724:1 
0.3002365240184084 11:1 12:1 18:1 24:1 25:1 27:1 28:1 30:1 36:1 44:1 45:1 46:1 49:1 53:1 61:1 63:1 65:1 71:1 72:1 76:1 81:1 98:1 99:1 107:1 109:1 145:1 151:1 155:1 162:1 203:1 214:1 225:1 274:1 279:1 308:1 310:1 311:1 314:1 315:1 
1 8:1 9:1 11:1 12:1 22:1 27:1 28:1 38:1 39:1 41:1 43:1 44:1 46:1 53:1 61:1 71:1 73:1 76:1 81:1 86:1 107:1 109:1 110:1 112:1 113:1 214:1 226:1 231:1 237:1 239:1 253:1 254:1 306:1 314:1 315:1 543:1 611:1 673:1 725:1 
0.08688443120249204 8:1 9:1 18:1 23:1 26:1 27:1 33:1 37:1 38:1 46:1 67:1 73:1 87:1 100:1 106:1 108:1 113:1 174:1 178:1 242:1 255:1 301:1 310:1 316:1 317:1 336:1 
0.193161796464951 13:1 19:1 23:1 24:1 25:1 27:1 28:1 45:1 49:1 50:1 51:1 52:1 54:1 62:1 63:1 65:1 85:1 86:1 92:1 93:1 94:1 118:1 119:1 121:1 135:1 137:1 138:1 144:1 186:1 299:1 353:1 355:1 458:1 543:1 
0.0357188787886329 18:1 23:1 25:1 27:1 33:1 37:1 41:1 43:1 45:1 46:1 50:1 54:1 59:1 60:1 65:1 85:1 86:1 92:1 93:1 100:1 105:1 109:1 118:1 120:1 121:1 138:1 144:1 206:1 274:1 348:1 351:1 367:1 369:1 413:1 453:1 456:1 613:1 735:1 
0.03463282302539613 7:1 8:1 11:1 13:1 19:1 23:1 27:1 28:1 29:1 30:1 47:1 54:1 78:1 80:1 82:1 101:1 110:1 112:1 118:1 125:1 143:1 149:1 191:1 232:1 238:1 240:1 241:1 274:1 275:1 384:1 566:1 567:1 736:1 742:1 
0.1586913297841211 2:1 8:1 9:1 10:1 11:1 18:1 23:1 24:1 25:1 27:1 33:1 37:1 45:1 46:1 49:1 54:1 58:1 78:1 97:1 104:1 105:1 107:1 132:1 199:1 305:1 313:1 332:1 454:1 743:1 744:1 
0.02731341456118576 2:1 8:1 18:1 19:1 25:1 27:1 28:1 29:1 41:1 43:1 45:1 46:1 50:1 54:1 59:1 60:1 61:1 83:1 85:1 86:1 92:1 93:1 107:1 117:1 118:1 120:1 121:1 128:1 129:1 130:1 165:1 185:1 189:1 210:1 374:1 413:1 454:1 746:1 
0.04123776803680346 8:1 17:1 18:1 26:1 27:1 36:1 37:1 43:1 45:1 46:1 53:1 89:1 92:1 93:1 94:1 105:1 112:1 121:1 123:1 145:1 151:1 193:1 232:1 313:1 348:1 349:1 370:1 384:1 506:1 747:1 748:1 
0.2834107472639194 2:1 7:1 8:1 9:1 11:1 12:1 23:1 24:1 25:1 27:1 28:1 30:1 40:1 41:1 42:1 47:1 48:1 49:1 50:1 54:1 55:1 59:1 81:1 109:1 110:1 138:1 173:1 174:1 191:1 258:1 283:1 301:1 316:1 317:1 348:1 427:1 736:1 752:1 
0.2547774736049198 7:1 12:1 18:1 25:1 26:1 27:1 28:1 41:1 53:1 65:1 81:1 86:1 90:1 93:1 94:1 96:1 109:1 112:1 157:1 173:1 174:1 175:1 178:1 206:1 214:1 260:1 274:1 302:1 314:1 315:1 316:1 317:1 336:1 570:1 633:1 644:1 753:1 754:1 755:1 756:1 
0.1447401445421466 27:1 41:1 43:1 54:1 65:1 73:1 77:1 78:1 93:1 97:1 101:1 107:1 109:1 110:1 112:1 128:1 148:1 175:1 178:1 179:1 185:1 260:1 317:1 531:1 597:1 598:1 701:1 753:1 755:1 757:1 758:1 
0.09790083548824265 8:1 9:1 13:1 18:1 19:1 20:1 21:1 22:1 23:1 26:1 27:1 28:1 29:1 30:1 38:1 57:1 59:1 63:1 64:1 76:1 77:1 87:1 100:1 121:1 131:1 166:1 173:1 174:1 226:1 286:1 313:1 316:1 317:1 532:1 554:1 582:1 699:1 700:1 
0.1762640196589635 8:1 9:1 18:1 26:1 27:1 33:1 36:1 37:1 38:1 39:1 40:1 41:1 44:1 45:1 46:1 87:1 112:1 113:1 128:1 157:1 231:1 255:1 295:1 343:1 344:1 539:1 701:1 
0.06669238538805959 1:1 2:1 7:1 8:1 13:1 17:1 18:1 19:1 27:1 28:1 29:1 30:1 31:1 41:1 82:1 87:1 88:1 90:1 91:1 93:1 94:1 95:1 96:1 101:1 104:1 112:1 127:1 174:1 278:1 279:1 302:1 397:1 406:1 702:1 807:1 808:1 809:1 810:1 811:1 
0.0123775431972406 2:1 8:1 9:1 11:1 18:1 24:1 25:1 27:1 33:1 35:1 36:1 37:1 45:1 46:1 47:1 53:1 54:1 55:1 73:1 104:1 107:1 109:1 123:1 134:1 157:1 313:1 693:1 812:1 813:1 
-0.4007132260232987 18:1 23:1 24:1 25:1 27:1 41:1 43:1 44:1 45:1 46:1 57:1 58:1 59:1 60:1 61:1 62:1 63:1 64:1 65:1 66:1 67:1 68:1 69:1 70:1 71:1 72:1 
-0.5777332020269315 1:1 2:1 7:1 8:1 9:1 13:1 17:1 18:1 19:1 23:1 27:1 28:1 29:1 30:1 39:1 54:1 67:1 73:1 74:1 75:1 76:1 77:1 78:1 82:1 96:1 97:1 98:1 99:1 100:1 101:1 114:1 
-0.1099440535876129 2:1 8:1 26:1 27:1 35:1 36:1 41:1 43:1 44:1 45:1 46:1 58:1 61:1 80:1 88:1 89:1 90:1 91:1 92:1 93:1 94:1 95:1 106:1 107:1 108:1 109:1 110:1 111:1 112:1 113:1 116:1 
-0.1432473396259543 1:1 2:1 7:1 8:1 24:1 25:1 27:1 28:1 42:1 51:1 52:1 53:1 54:1 81:1 85:1 86:1 92:1 93:1 98:1 107:1 117:1 118:1 119:1 120:1 121:1 123:1 124:1 136:1 137:1 138:1 139:1 
-0.1236012096940851 8:1 9:1 11:1 12:1 23:1 25:1 27:1 33:1 37:1 38:1 39:1 43:1 45:1 46:1 47:1 51:1 52:1 54:1 68:1 73:1 100:1 105:1 124:1 131:1 132:1 133:1 134:1 135:1 140:1 142:1 
-0.1297469388088187 25:1 27:1 43:1 62:1 65:1 71:1 93:1 109:1 110:1 128:1 129:1 131:1 135:1 145:1 146:1 147:1 148:1 149:1 150:1 151:1 152:1 153:1 154:1 155:1 166:1 167:1 168:1 169:1 
-0.1219930146187932 12:1 13:1 19:1 23:1 25:1 27:1 28:1 45:1 46:1 52:1 54:1 59:1 60:1 61:1 63:1 65:1 67:1 69:1 88:1 91:1 92:1 93:1 94:1 100:1 118:1 119:1 125:1 144:1 159:1 213:1 214:1 218:1 
-0.03028100117347532 23:1 25:1 36:1 43:1 45:1 52:1 65:1 66:1 70:1 71:1 76:1 107:1 123:1 124:1 129:1 148:1 154:1 155:1 164:1 183:1 185:1 209:1 210:1 211:1 212:1 216:1 220:1 
-0.01266156998677589 11:1 12:1 25:1 27:1 28:1 30:1 45:1 46:1 47:1 52:1 59:1 60:1 61:1 65:1 71:1 72:1 81:1 104:1 105:1 118:1 119:1 124:1 128:1 129:1 131:1 135:1 155:1 160:1 164:1 166:1 167:1 207:1 221:1 222:1 223:1 224:1 225:1 
-0.1429453850512094 8:1 23:1 27:1 28:1 29:1 43:1 45:1 46:1 54:1 61:1 74:1 75:1 81:1 82:1 85:1 86:1 92:1 93:1 94:1 95:1 100:1 101:1 102:1 125:1 126:1 137:1 177:1 178:1 179:1 180:1 185:1 193:1 195:1 204:1 226:1 232:1 235:1 250:1 251:1 
-0.1956047206837229 9:1 11:1 12:1 18:1 25:1 27:1 28:1 39:1 40:1 41:1 43:1 44:1 45:1 46:1 48:1 49:1 51:1 53:1 61:1 71:1 76:1 81:1 98:1 129:1 138:1 187:1 190:1 202:1 211:1 225:1 229:1 304:1 305:1 306:1 307:1 311:1 312:1 
-0.2328274328682799 9:1 11:1 12:1 18:1 21:1 23:1 25:1 27:1 28:1 30:1 31:1 39:1 40:1 41:1 43:1 44:1 45:1 46:1 49:1 61:1 71:1 76:1 81:1 100:1 127:1 166:1 187:1 211:1 214:1 229:1 255:1 304:1 305:1 306:1 311:1 314:1 315:1 322:1 
-0.004799420143224851 11:1 18:1 25:1 27:1 28:1 36:1 43:1 45:1 46:1 53:1 54:1 59:1 61:1 63:1 65:1 66:1 69:1 70:1 76:1 78:1 81:1 86:1 100:1 107:1 123:1 138:1 145:1 151:1 155:1 185:1 210:1 218:1 238:1 239:1 280:1 283:1 284:1 308:1 313:1 327:1 
-0.4825353652833978 18:1 23:1 25:1 27:1 33:1 37:1 41:1 46:1 54:1 62:1 63:1 65:1 88:1 91:1 92:1 93:1 94:1 107:1 118:1 121:1 123:1 129:1 157:1 174:1 255:1 278:1 279:1 310:1 316:1 317:1 329:1 
-0.1632702680810431 11:1 12:1 18:1 27:1 28:1 45:1 63:1 65:1 71:1 74:1 76:1 81:1 98:1 101:1 104:1 109:1 112:1 127:1 128:1 136:1 138:1 157:1 174:1 175:1 178:1 180:1 186:1 188:1 190:1 225:1 226:1 299:1 300:1 313:1 335:1 336:1 337:1 345:1 
-0.1695878711697755 10:1 11:1 18:1 25:1 27:1 28:1 29:1 30:1 31:1 45:1 46:1 60:1 61:1 62:1 65:1 66:1 69:1 70:1 71:1 72:1 73:1 78:1 81:1 131:1 137:1 145:1 151:1 155:1 213:1 274:1 301:1 330:1 331:1 353:1 354:1 355:1 
-0.1199601226653952 25:1 27:1 28:1 45:1 46:1 49:1 52:1 58:1 60:1 61:1 62:1 65:1 71:1 72:1 81:1 93:1 94:1 95:1 104:1 105:1 124:1 128:1 129:1 132:1 136:1 138:1 155:1 183:1 190:1 191:1 274:1 301:1 307:1 356:1 357:1 358:1 359:1 
-0.303739104597249 10:1 11:1 18:1 23:1 25:1 27:1 28:1 29:1 30:1 31:1 43:1 45:1 46:1 60:1 61:1 62:1 65:1 67:1 71:1 72:1 78:1 81:1 84:1 88:1 91:1 100:1 131:1 155:1 185:1 213:1 253:1 254:1 255:1 301:1 308:1 309:1 360:1 361:1 362:1 
-0.03688853523616851 23:1 25:1 27:1 43:1 45:1 46:1 48:1 49:1 54:1 59:1 61:1 65:1 85:1 86:1 90:1 92:1 93:1 100:1 105:1 109:1 120:1 121:1 127:1 131:1 138:1 144:1 159:1 203:1 204:1 274:1 309:1 363:1 364:1 365:1 366:1 367:1 368:1 369:1 
-0.03353276149565277 9:1 22:1 27:1 28:1 29:1 43:1 45:1 46:1 51:1 52:1 61:1 68:1 76:1 77:1 78:1 81:1 85:1 86:1 90:1 105:1 111:1 112:1 113:1 119:1 124:1 132:1 135:1 171:1 206:1 264:1 270:1 281:1 305:1 374:1 375:1 376:1 377:1 
-0.03694964324262176 18:1 25:1 27:1 28:1 43:1 44:1 46:1 48:1 49:1 50:1 54:1 58:1 61:1 81:1 84:1 85:1 86:1 92:1 93:1 111:1 120:1 121:1 129:1 138:1 187:1 204:1 205:1 206:1 232:1 255:1 274:1 309:1 335:1 385:1 386:1 387:1 388:1 389:1 
-0.03495491307584489 22:1 23:1 25:1 27:1 28:1 29:1 45:1 46:1 50:1 51:1 52:1 54:1 59:1 60:1 61:1 65:1 67:1 81:1 85:1 86:1 92:1 93:1 94:1 95:1 100:1 105:1 119:1 144:1 164:1 167:1 183:1 204:1 206:1 306:1 310:1 348:1 390:1 
-0.08992524667249109 11:1 18:1 21:1 22:1 23:1 25:1 27:1 28:1 30:1 42:1 43:1 45:1 46:1 47:1 59:1 60:1 61:1 62:1 63:1 65:1 71:1 72:1 73:1 74:1 81:1 105:1 109:1 129:1 155:1 157:1 166:1 223:1 224:1 226:1 348:1 
-0.164424276254643 25:1 27:1 45:1 46:1 52:1 60:1 61:1 65:1 71:1 72:1 104:1 105:1 122:1 123:1 124:1 128:1 129:1 132:1 164:1 222:1 246:1 
-0.04859954413308849 23:1 25:1 27:1 43:1 45:1 46:1 52:1 60:1 61:1 65:1 71:1 72:1 105:1 123:1 124:1 129:1 132:1 164:1 222:1 399:1 400:1 
-0.02025531237406569 9:1 23:1 25:1 27:1 28:1 29:1 30:1 42:1 43:1 45:1 46:1 51:1 52:1 54:1 59:1 60:1 61:1 77:1 78:1 81:1 82:1 93:1 97:1 99:1 105:1 129:1 166:1 167:1 187:1 227:1 229:1 261:1 278:1 350:1 404:1 405:1 
-0.04975539417304526 11:1 12:1 23:1 24:1 25:1 27:1 28:1 30:1 36:1 42:1 43:1 44:1 45:1 46:1 47:1 51:1 52:1 61:1 62:1 65:1 71:1 72:1 74:1 81:1 107:1 149:1 155:1 157:1 162:1 183:1 189:1 223:1 224:1 225:1 226:1 279:1 406:1 
-0.1434986052443247 18:1 23:1 25:1 27:1 28:1 30:1 43:1 45:1 46:1 59:1 60:1 61:1 65:1 71:1 81:1 90:1 92:1 93:1 105:1 107:1 120:1 121:1 129:1 137:1 165:1 204:1 253:1 254:1 255:1 269:1 300:1 309:1 348:1 412:1 413:1 414:1 415:1 424:1 
-0.0825759080145865 8:1 18:1 21:1 22:1 25:1 27:1 28:1 29:1 30:1 45:1 46:1 54:1 59:1 60:1 61:1 68:1 81:1 82:1 90:1 92:1 93:1 94:1 95:1 119:1 128:1 129:1 135:1 140:1 168:1 191:1 204:1 232:1 255:1 426:1 
-0.01902538443324172 9:1 11:1 23:1 25:1 27:1 28:1 39:1 45:1 46:1 47:1 52:1 61:1 66:1 70:1 71:1 73:1 78:1 81:1 86:1 105:1 123:1 124:1 127:1 129:1 132:1 133:1 134:1 138:1 166:1 187:1 229:1 239:1 284:1 313:1 408:1 429:1 430:1 
-0.1679342742354727 18:1 23:1 25:1 27:1 28:1 40:1 41:1 58:1 65:1 71:1 81:1 86:1 93:1 94:1 100:1 121:1 135:1 138:1 153:1 154:1 155:1 159:1 160:1 166:1 174:1 190:1 203:1 207:1 221:1 226:1 255:1 385:1 386:1 447:1 448:1 459:1 
-0.2176397323361683 18:1 23:1 25:1 27:1 28:1 40:1 41:1 58:1 65:1 71:1 81:1 86:1 93:1 94:1 100:1 121:1 135:1 138:1 153:1 154:1 155:1 159:1 160:1 166:1 167:1 174:1 190:1 203:1 221:1 307:1 311:1 385:1 386:1 447:1 454:1 461:1 
-0.2131752768441531 25:1 27:1 28:1 36:1 45:1 46:1 51:1 52:1 61:1 63:1 65:1 67:1 69:1 71:1 72:1 81:1 86:1 93:1 94:1 104:1 105:1 119:1 121:1 127:1 128:1 129:1 138:1 155:1 183:1 190:1 213:1 218:1 306:1 348:1 349:1 359:1 458:1 
-0.1861726929113628 23:1 25:1 27:1 28:1 36:1 43:1 45:1 46:1 51:1 52:1 61:1 65:1 71:1 72:1 74:1 81:1 86:1 93:1 94:1 98:1 100:1 107:1 121:1 124:1 138:1 149:1 155:1 164:1 183:1 185:1 190:1 211:1 226:1 307:1 391:1 458:1 467:1 
-0.3022305243473687 23:1 25:1 27:1 28:1 36:1 43:1 45:1 46:1 49:1 51:1 52:1 61:1 65:1 71:1 72:1 81:1 86:1 93:1 94:1 98:1 100:1 121:1 138:1 149:1 155:1 164:1 185:1 190:1 210:1 274:1 308:1 311:1 349:1 351:1 458:1 462:1 463:1 468:1 
-0.01778569506182433 9:1 22:1 23:1 24:1 27:1 28:1 29:1 31:1 46:1 51:1 52:1 54:1 61:1 67:1 76:1 77:1 81:1 113:1 119:1 124:1 149:1 153:1 173:1 174:1 183:1 187:1 192:1 246:1 265:1 269:1 272:1 306:1 330:1 331:1 374:1 401:1 474:1 475:1 478:1 479:1 
-0.0823058226607298 10:1 15:1 18:1 27:1 28:1 30:1 43:1 44:1 48:1 54:1 65:1 74:1 78:1 81:1 109:1 128:1 149:1 154:1 155:1 157:1 160:1 161:1 164:1 172:1 183:1 207:1 214:1 225:1 314:1 315:1 316:1 317:1 370:1 385:1 469:1 470:1 471:1 472:1 473:1 485:1 
-0.0766812661737898 10:1 33:1 37:1 46:1 54:1 65:1 74:1 122:1 128:1 149:1 155:1 161:1 164:1 168:1 172:1 173:1 174:1 178:1 183:1 243:1 271:1 279:1 316:1 317:1 421:1 473:1 476:1 482:1 483:1 491:1 
-0.01141005856600757 23:1 24:1 25:1 27:1 28:1 45:1 51:1 52:1 65:1 71:1 81:1 93:1 94:1 119:1 121:1 135:1 138:1 149:1 155:1 159:1 160:1 162:1 164:1 166:1 167:1 169:1 186:1 190:1 207:1 211:1 225:1 305:1 308:1 311:1 495:1 
-0.2594850454582113 33:1 37:1 41:1 42:1 46:1 51:1 52:1 53:1 59:1 65:1 68:1 93:1 112:1 120:1 121:1 124:1 131:1 140:1 149:1 155:1 164:1 174:1 216:1 308:1 310:1 316:1 317:1 340:1 370:1 504:1 
-0.103809561957321 9:1 11:1 12:1 27:1 28:1 43:1 45:1 46:1 51:1 52:1 54:1 61:1 74:1 76:1 81:1 86:1 105:1 111:1 112:1 113:1 135:1 138:1 149:1 159:1 160:1 162:1 183:1 187:1 190:1 192:1 211:1 226:1 305:1 307:1 384:1 401:1 478:1 505:1 506:1 
-0.1522845358469544 9:1 11:1 12:1 27:1 28:1 43:1 45:1 46:1 48:1 52:1 54:1 61:1 76:1 81:1 86:1 105:1 111:1 112:1 113:1 119:1 135:1 138:1 149:1 159:1 160:1 187:1 190:1 192:1 211:1 305:1 307:1 308:1 311:1 348:1 401:1 413:1 478:1 517:1 518:1 
-0.06057684339415192 21:1 23:1 25:1 27:1 28:1 30:1 50:1 51:1 52:1 54:1 65:1 81:1 93:1 94:1 100:1 119:1 121:1 154:1 155:1 164:1 167:1 173:1 174:1 183:1 207:1 214:1 221:1 278:1 306:1 314:1 315:1 316:1 317:1 336:1 353:1 470:1 472:1 524:1 
-0.1465306167914529 21:1 23:1 25:1 27:1 28:1 30:1 45:1 46:1 50:1 51:1 52:1 54:1 60:1 61:1 65:1 81:1 93:1 100:1 105:1 120:1 121:1 135:1 143:1 149:1 155:1 164:1 167:1 207:1 210:1 214:1 308:1 310:1 314:1 315:1 353:1 519:1 520:1 526:1 
-0.1467381834274416 20:1 21:1 23:1 25:1 27:1 28:1 29:1 30:1 31:1 43:1 45:1 46:1 51:1 54:1 60:1 61:1 65:1 81:1 92:1 93:1 94:1 95:1 100:1 105:1 107:1 110:1 119:1 123:1 124:1 127:1 131:1 132:1 144:1 165:1 183:1 203:1 204:1 
-0.06405149303181831 10:1 23:1 25:1 27:1 28:1 29:1 35:1 36:1 42:1 43:1 45:1 46:1 49:1 51:1 52:1 61:1 65:1 71:1 72:1 81:1 82:1 84:1 85:1 86:1 120:1 121:1 149:1 152:1 155:1 161:1 164:1 206:1 261:1 308:1 311:1 353:1 538:1 
-0.2263575753205049 14:1 17:1 23:1 25:1 27:1 28:1 30:1 43:1 45:1 46:1 49:1 50:1 54:1 60:1 61:1 62:1 65:1 73:1 78:1 81:1 92:1 93:1 94:1 98:1 100:1 105:1 132:1 134:1 144:1 158:1 178:1 189:1 223:1 224:1 225:1 313:1 542:1 
-0.3708528889030561 11:1 12:1 21:1 23:1 25:1 27:1 28:1 30:1 43:1 45:1 46:1 47:1 52:1 60:1 61:1 65:1 71:1 72:1 81:1 105:1 107:1 118:1 123:1 124:1 127:1 129:1 132:1 143:1 155:1 164:1 178:1 221:1 222:1 223:1 224:1 225:1 274:1 
-0.009165451771691743 7:1 8:1 9:1 11:1 12:1 26:1 38:1 39:1 42:1 47:1 48:1 106:1 108:1 111:1 112:1 113:1 242:1 267:1 292:1 393:1 555:1 556:1 558:1 559:1 565:1 
-0.06275846365919086 7:1 8:1 10:1 38:1 42:1 68:1 112:1 120:1 121:1 140:1 171:1 271:1 275:1 292:1 340:1 370:1 378:1 393:1 566:1 567:1 575:1 576:1 577:1 579:1 
-0.04652687607875216 18:1 23:1 24:1 25:1 27:1 28:1 45:1 65:1 71:1 73:1 74:1 81:1 86:1 93:1 94:1 121:1 127:1 138:1 155:1 169:1 186:1 190:1 205:1 221:1 222:1 274:1 305:1 378:1 384:1 495:1 509:1 583:1 585:1 
-0.2127674402914136 23:1 33:1 37:1 46:1 65:1 73:1 100:1 109:1 113:1 155:1 174:1 210:1 216:1 279:1 310:1 316:1 317:1 340:1 343:1 344:1 365:1 366:1 413:1 452:1 583:1 588:1 589:1 
-0.02572391018964476 7:1 11:1 12:1 18:1 21:1 26:1 27:1 28:1 30:1 31:1 34:1 43:1 44:1 47:1 60:1 81:1 109:1 111:1 112:1 113:1 127:1 134:1 168:1 171:1 175:1 194:1 213:1 214:1 215:1 248:1 263:1 313:1 314:1 315:1 396:1 600:1 603:1 608:1 
-0.2248404433090264 18:1 23:1 25:1 27:1 28:1 43:1 44:1 63:1 65:1 71:1 81:1 86:1 92:1 93:1 94:1 118:1 121:1 127:1 129:1 138:1 140:1 148:1 154:1 165:1 178:1 190:1 213:1 222:1 231:1 309:1 378:1 453:1 509:1 543:1 611:1 613:1 615:1 
-0.0002485458614304563 12:1 18:1 21:1 23:1 25:1 27:1 28:1 30:1 36:1 43:1 45:1 46:1 61:1 65:1 71:1 73:1 74:1 81:1 88:1 91:1 93:1 94:1 100:1 107:1 155:1 169:1 179:1 185:1 214:1 221:1 222:1 226:1 314:1 315:1 375:1 378:1 569:1 583:1 
-0.1533207825734366 1:1 4:1 9:1 11:1 24:1 27:1 28:1 47:1 53:1 65:1 71:1 78:1 81:1 84:1 86:1 110:1 134:1 165:1 188:1 213:1 214:1 237:1 239:1 255:1 301:1 311:1 314:1 315:1 483:1 583:1 625:1 
-0.2476059114845816 8:1 11:1 12:1 38:1 43:1 44:1 45:1 46:1 61:1 76:1 109:1 112:1 123:1 128:1 157:1 165:1 271:1 301:1 305:1 308:1 309:1 339:1 340:1 370:1 375:1 384:1 563:1 622:1 627:1 
-0.0389115987445905 4:1 26:1 27:1 28:1 43:1 45:1 46:1 49:1 52:1 61:1 65:1 81:1 86:1 93:1 94:1 95:1 105:1 112:1 113:1 128:1 138:1 145:1 151:1 159:1 160:1 175:1 190:1 211:1 245:1 247:1 260:1 274:1 278:1 305:1 307:1 311:1 343:1 344:1 620:1 634:1 
-0.0813182083424952 24:1 25:1 27:1 28:1 51:1 52:1 53:1 65:1 71:1 81:1 86:1 93:1 94:1 104:1 119:1 121:1 138:1 155:1 156:1 159:1 164:1 167:1 169:1 174:1 183:1 186:1 190:1 207:1 221:1 279:1 299:1 306:1 311:1 316:1 317:1 469:1 471:1 509:1 
-0.07739307838781988 23:1 25:1 27:1 28:1 52:1 65:1 67:1 71:1 81:1 86:1 93:1 94:1 100:1 104:1 119:1 121:1 124:1 138:1 155:1 159:1 160:1 164:1 167:1 174:1 183:1 186:1 190:1 221:1 222:1 279:1 299:1 306:1 316:1 317:1 459:1 462:1 463:1 469:1 471:1 
-0.05877357507572237 13:1 19:1 23:1 25:1 27:1 28:1 51:1 52:1 65:1 67:1 71:1 93:1 94:1 100:1 104:1 119:1 121:1 138:1 155:1 159:1 160:1 164:1 167:1 174:1 183:1 186:1 190:1 207:1 221:1 279:1 299:1 306:1 311:1 316:1 317:1 409:1 460:1 469:1 471:1 
-0.1501821376113208 8:1 13:1 19:1 25:1 26:1 27:1 28:1 35:1 36:1 44:1 45:1 46:1 58:1 61:1 77:1 80:1 85:1 86:1 93:1 110:1 121:1 128:1 137:1 138:1 140:1 167:1 183:1 204:1 255:1 261:1 295:1 312:1 338:1 355:1 401:1 437:1 574:1 641:1 647:1 648:1 
-0.0006983139990650103 11:1 23:1 25:1 27:1 33:1 37:1 41:1 43:1 44:1 45:1 46:1 50:1 54:1 58:1 65:1 92:1 93:1 95:1 100:1 110:1 118:1 211:1 218:1 255:1 305:1 353:1 456:1 475:1 642:1 643:1 652:1 
-0.2923964341058913 9:1 11:1 18:1 27:1 39:1 40:1 41:1 42:1 43:1 45:1 47:1 54:1 59:1 66:1 68:1 69:1 70:1 78:1 111:1 112:1 113:1 140:1 185:1 186:1 187:1 210:1 229:1 342:1 653:1 655:1 
-0.132454829091457 23:1 28:1 40:1 43:1 45:1 46:1 50:1 61:1 71:1 74:1 81:1 86:1 94:1 100:1 155:1 171:1 178:1 179:1 185:1 226:1 229:1 237:1 238:1 239:1 262:1 265:1 267:1 414:1 441:1 493:1 555:1 556:1 631:1 632:1 659:1 660:1 663:1 664:1 665:1 
-0.05289940606692078 18:1 23:1 25:1 27:1 28:1 43:1 44:1 45:1 51:1 65:1 67:1 68:1 71:1 81:1 86:1 93:1 94:1 98:1 121:1 124:1 129:1 135:1 136:1 138:1 143:1 148:1 149:1 154:1 155:1 164:1 169:1 190:1 278:1 307:1 308:1 336:1 543:1 667:1 
-0.009561854859193969 18:1 23:1 25:1 27:1 28:1 36:1 43:1 45:1 46:1 59:1 61:1 62:1 63:1 65:1 71:1 81:1 86:1 93:1 94:1 100:1 107:1 121:1 127:1 131:1 138:1 155:1 185:1 190:1 205:1 222:1 226:1 306:1 308:1 364:1 368:1 378:1 383:1 459:1 
-0.07118144458387383 23:1 25:1 28:1 43:1 45:1 46:1 48:1 61:1 65:1 75:1 81:1 92:1 93:1 95:1 105:1 123:1 129:1 190:1 204:1 211:1 218:1 225:1 267:1 268:1 270:1 271:1 305:1 312:1 348:1 404:1 463:1 473:1 509:1 549:1 669:1 670:1 671:1 680:1 
-0.2346624597531978 1:1 7:1 12:1 23:1 28:1 31:1 71:1 76:1 80:1 81:1 101:1 137:1 161:1 174:1 175:1 210:1 211:1 214:1 222:1 259:1 260:1 263:1 264:1 302:1 306:1 308:1 309:1 310:1 315:1 359:1 386:1 421:1 434:1 555:1 556:1 561:1 675:1 685:1 
-0.08393625938632387 42:1 43:1 46:1 53:1 61:1 64:1 67:1 70:1 71:1 76:1 78:1 113:1 138:1 146:1 147:1 152:1 153:1 155:1 205:1 213:1 218:1 221:1 309:1 311:1 367:1 369:1 434:1 435:1 555:1 556:1 672:1 673:1 674:1 679:1 688:1 
-0.1042752081992279 18:1 27:1 37:1 46:1 53:1 54:1 67:1 73:1 92:1 93:1 100:1 108:1 125:1 168:1 204:1 210:1 211:1 218:1 310:1 316:1 317:1 483:1 674:1 677:1 678:1 683:1 690:1 
-0.1684348475202436 8:1 9:1 13:1 19:1 24:1 25:1 27:1 28:1 38:1 39:1 41:1 45:1 54:1 68:1 69:1 73:1 76:1 88:1 91:1 95:1 110:1 125:1 127:1 136:1 138:1 160:1 179:1 185:1 188:1 295:1 298:1 397:1 473:1 539:1 699:1 700:1 704:1 
-0.1141193448815351 8:1 9:1 18:1 23:1 25:1 27:1 38:1 39:1 41:1 45:1 68:1 71:1 73:1 76:1 88:1 91:1 95:1 109:1 124:1 129:1 179:1 185:1 295:1 298:1 343:1 344:1 473:1 539:1 699:1 700:1 705:1 
-1 13:1 19:1 24:1 25:1 27:1 28:1 33:1 36:1 37:1 41:1 42:1 44:1 45:1 46:1 54:1 68:1 69:1 90:1 93:1 110:1 120:1 121:1 125:1 127:1 136:1 138:1 160:1 162:1 175:1 188:1 198:1 259:1 264:1 279:1 295:1 397:1 706:1 
-0.653956328822365 18:1 23:1 25:1 27:1 43:1 62:1 63:1 65:1 68:1 71:1 88:1 91:1 92:1 93:1 94:1 109:1 118:1 121:1 124:1 129:1 178:1 181:1 185:1 186:1 330:1 331:1 343:1 344:1 383:1 418:1 615:1 702:1 
-0.08488635892088493 8:1 10:1 11:1 18:1 23:1 24:1 25:1 27:1 36:1 43:1 45:1 46:1 48:1 49:1 54:1 61:1 78:1 92:1 97:1 143:1 178:1 185:1 204:1 232:1 330:1 331:1 437:1 454:1 713:1 719:1 
-0.007248388278576133 18:1 23:1 24:1 25:1 27:1 28:1 36:1 41:1 43:1 45:1 48:1 49:1 63:1 65:1 71:1 81:1 86:1 93:1 94:1 98:1 105:1 109:1 121:1 138:1 155:1 169:1 186:1 190:1 205:1 218:1 274:1 279:1 307:1 308:1 311:1 348:1 495:1 
-0.0488913530014974 9:1 11:1 12:1 18:1 27:1 28:1 36:1 45:1 46:1 49:1 54:1 61:1 63:1 76:1 81:1 86:1 88:1 91:1 104:1 105:1 111:1 112:1 113:1 127:1 138:1 187:1 190:1 192:1 308:1 311:1 348:1 349:1 351:1 364:1 368:1 383:1 401:1 478:1 517:1 518:1 613:1 720:1 
-0.1089483545789609 4:1 13:1 19:1 25:1 27:1 28:1 31:1 53:1 65:1 67:1 69:1 71:1 93:1 94:1 110:1 121:1 129:1 137:1 138:1 145:1 151:1 154:1 155:1 169:1 173:1 174:1 190:1 203:1 205:1 221:1 222:1 274:1 279:1 316:1 317:1 391:1 470:1 472:1 474:1 475:1 509:1 
-0.3211335703268445 11:1 18:1 27:1 33:1 37:1 41:1 43:1 45:1 46:1 47:1 49:1 53:1 54:1 65:1 112:1 113:1 118:1 125:1 155:1 178:1 179:1 185:1 203:1 221:1 228:1 305:1 311:1 343:1 344:1 
-0.2481216053290198 1:1 7:1 8:1 22:1 27:1 28:1 38:1 53:1 71:1 76:1 77:1 81:1 86:1 107:1 109:1 110:1 112:1 113:1 121:1 173:1 174:1 214:1 226:1 237:1 239:1 253:1 254:1 278:1 301:1 308:1 313:1 314:1 315:1 316:1 317:1 336:1 563:1 582:1 728:1 
-0.9325051923934919 8:1 9:1 11:1 12:1 18:1 26:1 27:1 28:1 38:1 39:1 41:1 43:1 44:1 46:1 61:1 67:1 73:1 76:1 81:1 87:1 98:1 109:1 113:1 128:1 138:1 157:1 190:1 205:1 225:1 231:1 306:1 307:1 435:1 543:1 611:1 673:1 701:1 
-0.1778228136277456 8:1 9:1 11:1 12:1 18:1 24:1 25:1 27:1 28:1 30:1 38:1 39:1 41:1 43:1 44:1 46:1 49:1 53:1 61:1 71:1 73:1 76:1 81:1 98:1 99:1 107:1 109:1 214:1 225:1 231:1 306:1 311:1 314:1 315:1 543:1 611:1 673:1 730:1 
-0.5889165913776626 12:1 22:1 27:1 28:1 53:1 62:1 63:1 65:1 71:1 73:1 74:1 81:1 86:1 93:1 94:1 104:1 107:1 109:1 110:1 112:1 113:1 155:1 181:1 186:1 211:1 214:1 226:1 237:1 239:1 253:1 254:1 274:1 314:1 315:1 316:1 317:1 500:1 678:1 724:1 
-0.3137420497560197 11:1 12:1 22:1 27:1 28:1 36:1 44:1 45:1 46:1 53:1 61:1 63:1 65:1 71:1 76:1 81:1 86:1 107:1 109:1 110:1 112:1 113:1 145:1 151:1 155:1 162:1 203:1 214:1 226:1 237:1 239:1 253:1 254:1 274:1 279:1 308:1 310:1 314:1 315:1 502:1 
-0.03630934573275565 18:1 23:1 25:1 27:1 45:1 50:1 54:1 62:1 63:1 65:1 85:1 86:1 92:1 93:1 94:1 100:1 109:1 118:1 119:1 121:1 135:1 138:1 186:1 206:1 208:1 299:1 351:1 367:1 369:1 413:1 543:1 613:1 735:1 
-0.1554065200334468 10:1 11:1 12:1 16:1 26:1 27:1 28:1 30:1 43:1 44:1 45:1 57:1 64:1 65:1 81:1 106:1 108:1 109:1 110:1 112:1 113:1 128:1 155:1 178:1 186:1 191:1 214:1 218:1 274:1 279:1 314:1 315:1 332:1 384:1 427:1 456:1 707:1 708:1 736:1 737:1 
-0.3271633748804242 4:1 8:1 9:1 18:1 25:1 27:1 33:1 34:1 37:1 43:1 44:1 45:1 46:1 53:1 54:1 63:1 74:1 76:1 88:1 91:1 94:1 107:1 121:1 123:1 129:1 157:1 211:1 255:1 305:1 692:1 739:1 
-0.09717976891995649 10:1 11:1 23:1 25:1 45:1 59:1 78:1 104:1 124:1 129:1 140:1 143:1 171:1 174:1 178:1 186:1 215:1 241:1 271:1 274:1 275:1 340:1 342:1 472:1 576:1 620:1 713:1 740:1 741:1 
-0.06152923164471606 2:1 8:1 17:1 18:1 26:1 27:1 41:1 43:1 45:1 46:1 53:1 59:1 60:1 61:1 92:1 93:1 112:1 117:1 118:1 120:1 121:1 123:1 165:1 185:1 210:1 370:1 384:1 506:1 751:1 
-0.409410197563449 2:1 7:1 8:1 9:1 11:1 12:1 18:1 25:1 26:1 27:1 28:1 40:1 41:1 42:1 47:1 53:1 59:1 81:1 86:1 96:1 109:1 112:1 157:1 173:1 174:1 206:1 214:1 258:1 301:1 302:1 314:1 315:1 316:1 317:1 348:1 570:1 644:1 756:1 759:1 
-0.1432879889439719 7:1 12:1 27:1 41:1 54:1 65:1 90:1 93:1 94:1 97:1 101:1 107:1 109:1 110:1 112:1 128:1 173:1 174:1 175:1 178:1 260:1 274:1 316:1 317:1 336:1 701:1 753:1 754:1 755:1 761:1 
-0.05524980406175448 18:1 20:1 21:1 23:1 24:1 25:1 26:1 27:1 28:1 29:1 30:1 35:1 36:1 41:1 45:1 46:1 61:1 65:1 77:1 81:1 90:1 93:1 96:1 121:1 175:1 189:1 191:1 196:1 197:1 198:1 255:1 302:1 333:1 506:1 765:1 
-0.05664211342586228 9:1 11:1 18:1 27:1 28:1 35:1 36:1 43:1 44:1 45:1 46:1 49:1 61:1 63:1 70:1 71:1 76:1 81:1 84:1 86:1 95:1 112:1 113:1 128:1 138:1 215:1 237:1 239:1 280:1 283:1 308:1 311:1 353:1 531:1 679:1 724:1 773:1 774:1 775:1 776:1 777:1 
-0.04980763261242579 4:1 8:1 9:1 11:1 18:1 21:1 26:1 27:1 28:1 30:1 36:1 39:1 41:1 43:1 44:1 45:1 46:1 61:1 67:1 76:1 81:1 87:1 112:1 113:1 121:1 128:1 138:1 157:1 162:1 191:1 211:1 280:1 283:1 306:1 401:1 475:1 604:1 790:1 
-0.01133070080853469 18:1 23:1 25:1 26:1 27:1 33:1 36:1 37:1 45:1 46:1 65:1 77:1 93:1 100:1 104:1 105:1 109:1 121:1 155:1 168:1 250:1 251:1 279:1 308:1 348:1 456:1 531:1 583:1 701:1 774:1 776:1 796:1 
-0.03833594045026013 18:1 23:1 24:1 25:1 27:1 28:1 29:1 35:1 36:1 41:1 42:1 45:1 46:1 54:1 61:1 65:1 68:1 69:1 81:1 82:1 86:1 90:1 93:1 120:1 121:1 125:1 156:1 175:1 190:1 195:1 245:1 247:1 260:1 463:1 818:1 819:1 
-0.06744621304154805 23:1 24:1 25:1 27:1 28:1 36:1 43:1 44:1 45:1 46:1 52:1 61:1 65:1 69:1 71:1 72:1 77:1 81:1 93:1 138:1 155:1 164:1 194:1 221:1 222:1 234:1 236:1 239:1 261:1 262:1 265:1 284:1 285:1 287:1 304:1 410:1 820:1 821:1 822:1 
-0.09362586610620448 23:1 25:1 26:1 28:1 29:1 30:1 41:1 42:1 45:1 46:1 59:1 60:1 61:1 65:1 77:1 81:1 84:1 92:1 93:1 107:1 123:1 124:1 129:1 183:1 301:1 361:1 476:1 555:1 556:1 568:1 620:1 828:1 829:1 830:1 
