svm_type c_svc
kernel_type linear
nr_class 2
total_sv 143
rho -2.16267
label -1 1
nr_sv 105 38
SV
0.1692371948766421 6:1 8:1 10:1 30:1 74:1 75:1 93:1 97:1 105:1 106:1 134:1 135:1 136:1 139:1 150:1 152:1 153:1 180:1 544:1 
0.3784955061021283 6:1 7:1 10:1 21:1 30:1 49:1 50:1 51:1 82:1 100:1 107:1 108:1 122:1 158:1 167:1 171:1 172:1 192:1 527:1 
0.03190222853585521 6:1 8:1 9:1 16:1 72:1 75:1 76:1 82:1 139:1 150:1 153:1 232:1 233:1 515:1 
0.3932591589118122 6:1 20:1 25:1 30:1 55:1 75:1 89:1 95:1 107:1 139:1 141:1 150:1 166:1 168:1 169:1 202:1 534:1 
0.3502534509552162 6:1 30:1 73:1 101:1 129:1 130:1 133:1 134:1 136:1 163:1 182:1 529:1 
0.3213505153927798 3:1 8:1 10:1 17:1 41:1 73:1 96:1 97:1 115:1 118:1 123:1 130:1 139:1 153:1 154:1 158:1 165:1 180:1 527:1 549:1 550:1 
0.04526689434456113 13:1 19:1 21:1 30:1 49:1 76:1 107:1 108:1 116:1 128:1 131:1 135:1 153:1 156:1 157:1 166:1 172:1 181:1 547:1 548:1 551:1 
0.03301011441937069 6:1 30:1 73:1 74:1 82:1 122:1 136:1 144:1 152:1 180:1 
0.06665116856326869 6:1 10:1 20:1 30:1 75:1 97:1 100:1 101:1 107:1 115:1 150:1 157:1 170:1 174:1 221:1 222:1 515:1 517:1 531:1 
0.3258140180624243 6:1 30:1 73:1 134:1 136:1 138:1 139:1 156:1 166:1 181:1 
0.1105287133647969 6:1 21:1 30:1 49:1 50:1 53:1 64:1 71:1 73:1 75:1 76:1 82:1 107:1 111:1 122:1 130:1 150:1 161:1 182:1 
0.004164039514524251 6:1 19:1 20:1 21:1 30:1 31:1 33:1 37:1 44:1 50:1 51:1 90:1 100:1 141:1 155:1 167:1 176:1 220:1 271:1 
0.2124084478886704 6:1 21:1 30:1 41:1 75:1 95:1 101:1 107:1 108:1 115:1 134:1 146:1 147:1 157:1 166:1 181:1 247:1 546:1 
0.05754784378956965 6:1 20:1 21:1 30:1 50:1 54:1 61:1 62:1 69:1 75:1 76:1 107:1 114:1 153:1 157:1 168:1 169:1 182:1 546:1 
0.1330232496430809 6:1 20:1 21:1 30:1 69:1 73:1 75:1 76:1 94:1 107:1 114:1 130:1 147:1 148:1 151:1 153:1 157:1 182:1 288:1 546:1 551:1 
0.2802968101521137 6:1 8:1 10:1 30:1 41:1 61:1 73:1 75:1 97:1 115:1 130:1 136:1 139:1 150:1 152:1 153:1 289:1 290:1 544:1 
0.4959538536065192 6:1 30:1 73:1 100:1 101:1 129:1 130:1 133:1 134:1 136:1 158:1 527:1 
0.2718647086091924 6:1 52:1 73:1 82:1 130:1 133:1 136:1 163:1 177:1 182:1 
0.3070928123585951 6:1 10:1 20:1 30:1 73:1 74:1 75:1 81:1 97:1 111:1 115:1 134:1 136:1 137:1 138:1 150:1 170:1 174:1 515:1 
0.1863166363879427 6:1 17:1 82:1 95:1 100:1 153:1 165:1 181:1 207:1 345:1 
0.1803068681351049 6:1 8:1 10:1 51:1 75:1 95:1 97:1 115:1 116:1 117:1 124:1 134:1 136:1 138:1 139:1 150:1 152:1 163:1 544:1 
0.2890764389625362 7:1 17:1 21:1 38:1 50:1 51:1 94:1 96:1 108:1 135:1 139:1 153:1 154:1 165:1 172:1 180:1 182:1 548:1 550:1 
0.3260531771070753 6:1 52:1 66:1 73:1 82:1 122:1 130:1 136:1 138:1 158:1 
0.3466356286065459 6:1 21:1 30:1 49:1 73:1 74:1 75:1 76:1 99:1 100:1 101:1 108:1 116:1 133:1 134:1 136:1 150:1 172:1 
0.1958304497843123 19:1 30:1 60:1 73:1 101:1 104:1 105:1 107:1 110:1 111:1 128:1 130:1 131:1 157:1 548:1 551:1 
0.0003886873794412434 8:1 10:1 12:1 18:1 30:1 73:1 97:1 106:1 107:1 118:1 125:1 130:1 152:1 153:1 157:1 163:1 171:1 172:1 529:1 551:1 
0.02267609948938007 6:1 13:1 30:1 95:1 133:1 134:1 136:1 153:1 166:1 179:1 180:1 
0.2773781796668256 6:1 8:1 43:1 52:1 73:1 75:1 124:1 130:1 133:1 134:1 136:1 150:1 158:1 177:1 544:1 
0.3408121656438624 6:1 8:1 14:1 30:1 73:1 82:1 101:1 107:1 110:1 111:1 118:1 123:1 157:1 166:1 546:1 
0.6252142433847493 6:1 51:1 82:1 89:1 90:1 117:1 135:1 136:1 158:1 180:1 549:1 
0.2610403977206251 6:1 17:1 51:1 53:1 75:1 82:1 124:1 150:1 152:1 153:1 165:1 167:1 180:1 207:1 544:1 
0.1920660415596412 6:1 8:1 30:1 75:1 111:1 124:1 133:1 134:1 136:1 150:1 166:1 200:1 285:1 287:1 544:1 
0.332991752338949 6:1 10:1 21:1 30:1 75:1 108:1 127:1 134:1 136:1 139:1 150:1 152:1 172:1 180:1 243:1 267:1 515:1 
0.1012064493836357 19:1 20:1 21:1 30:1 73:1 86:1 91:1 94:1 96:1 101:1 107:1 110:1 132:1 141:1 157:1 164:1 166:1 265:1 269:1 508:1 
0.03717791167650471 10:1 12:1 16:1 17:1 18:1 20:1 39:1 40:1 51:1 56:1 95:1 97:1 109:1 112:1 117:1 139:1 155:1 238:1 300:1 301:1 510:1 
0.7563491524995599 30:1 74:1 95:1 96:1 100:1 133:1 134:1 136:1 153:1 182:1 
0.1090849854249926 4:1 6:1 8:1 10:1 30:1 32:1 37:1 47:1 55:1 61:1 73:1 89:1 118:1 122:1 130:1 136:1 148:1 151:1 180:1 548:1 
0.04430910523964297 6:1 10:1 20:1 41:1 75:1 97:1 115:1 134:1 139:1 150:1 170:1 515:1 
0.3505309380157533 6:1 20:1 21:1 30:1 33:1 49:1 75:1 82:1 85:1 95:1 100:1 122:1 127:1 136:1 141:1 150:1 166:1 181:1 534:1 
0.04517035061365859 6:1 8:1 25:1 26:1 30:1 50:1 73:1 87:1 100:1 105:1 118:1 122:1 166:1 172:1 231:1 342:1 547:1 
0.2325856905427333 6:1 8:1 9:1 25:1 30:1 73:1 74:1 76:1 85:1 93:1 94:1 107:1 118:1 123:1 153:1 155:1 156:1 157:1 546:1 
0.1257525548047352 6:1 7:1 21:1 22:1 30:1 37:1 38:1 49:1 73:1 85:1 90:1 108:1 110:1 127:1 130:1 132:1 136:1 172:1 547:1 
0.1199621046216094 6:1 20:1 21:1 22:1 25:1 27:1 44:1 50:1 51:1 75:1 87:1 94:1 117:1 136:1 150:1 156:1 157:1 167:1 515:1 
0.05998577429540286 6:1 8:1 10:1 30:1 50:1 73:1 74:1 75:1 93:1 94:1 97:1 110:1 132:1 133:1 134:1 136:1 150:1 153:1 544:1 
0.2255738462351138 6:1 8:1 10:1 30:1 32:1 73:1 75:1 82:1 107:1 124:1 125:1 130:1 142:1 143:1 150:1 156:1 161:1 182:1 544:1 549:1 552:1 
0.08548699321138648 6:1 25:1 26:1 30:1 73:1 98:1 101:1 102:1 107:1 130:1 146:1 158:1 547:1 
0.2553262467484643 6:1 30:1 36:1 37:1 73:1 107:1 109:1 111:1 112:1 130:1 149:1 
0.001788368233928568 6:1 20:1 51:1 75:1 85:1 107:1 117:1 134:1 139:1 150:1 153:1 158:1 167:1 168:1 169:1 170:1 213:1 266:1 330:1 515:1 530:1 538:1 
0.1770379830917227 6:1 21:1 22:1 30:1 53:1 64:1 71:1 73:1 75:1 107:1 116:1 125:1 130:1 134:1 139:1 150:1 153:1 156:1 182:1 540:1 
0.4076084982718417 6:1 30:1 73:1 75:1 89:1 129:1 130:1 134:1 136:1 139:1 152:1 180:1 548:1 
0.1664964215041371 30:1 73:1 96:1 98:1 102:1 107:1 130:1 134:1 153:1 156:1 158:1 534:1 
0.2699368088834583 6:1 21:1 22:1 27:1 30:1 37:1 56:1 73:1 75:1 108:1 122:1 125:1 136:1 137:1 138:1 143:1 150:1 166:1 402:1 515:1 
0.04754056643948316 30:1 74:1 96:1 100:1 101:1 126:1 133:1 134:1 135:1 136:1 
0.1697050927505848 6:1 8:1 9:1 30:1 50:1 75:1 76:1 93:1 94:1 95:1 110:1 134:1 136:1 139:1 150:1 153:1 156:1 166:1 544:1 
0.01866605238170361 6:1 7:1 30:1 32:1 47:1 48:1 73:1 82:1 90:1 101:1 106:1 107:1 108:1 110:1 132:1 166:1 202:1 548:1 
0.1519971856166196 8:1 9:1 17:1 18:1 19:1 52:1 76:1 87:1 88:1 90:1 94:1 116:1 127:1 130:1 162:1 200:1 236:1 258:1 547:1 
0.05837682453205727 51:1 52:1 57:1 73:1 96:1 121:1 133:1 134:1 136:1 259:1 260:1 
0.009489361585800885 6:1 10:1 20:1 30:1 41:1 75:1 82:1 95:1 97:1 100:1 115:1 122:1 136:1 141:1 150:1 166:1 181:1 192:1 515:1 
0.1264878182050189 6:1 8:1 10:1 15:1 30:1 50:1 73:1 74:1 75:1 93:1 97:1 101:1 132:1 133:1 134:1 136:1 150:1 155:1 544:1 
0.0840159525791675 6:1 21:1 22:1 30:1 50:1 66:1 69:1 73:1 75:1 101:1 108:1 110:1 115:1 130:1 133:1 136:1 147:1 436:1 548:1 
0.1296242010652038 6:1 30:1 51:1 75:1 107:1 111:1 129:1 134:1 135:1 139:1 161:1 211:1 528:1 
0.06101584955914066 6:1 8:1 9:1 30:1 31:1 72:1 75:1 110:1 134:1 139:1 150:1 153:1 156:1 197:1 215:1 232:1 233:1 265:1 515:1 
0.2185226108796962 17:1 56:1 73:1 90:1 96:1 117:1 119:1 120:1 130:1 290:1 292:1 502:1 534:1 
0.1390900515029604 6:1 51:1 52:1 56:1 58:1 73:1 80:1 110:1 134:1 136:1 
0.2331522850026997 6:1 8:1 22:1 30:1 31:1 50:1 73:1 75:1 93:1 94:1 97:1 101:1 110:1 113:1 132:1 134:1 150:1 166:1 544:1 
0.05135251788895523 6:1 20:1 22:1 24:1 30:1 31:1 37:1 65:1 73:1 75:1 84:1 94:1 143:1 150:1 166:1 180:1 231:1 332:1 
0.3461408805624144 6:1 21:1 30:1 33:1 49:1 73:1 75:1 107:1 119:1 120:1 130:1 134:1 139:1 150:1 153:1 156:1 172:1 308:1 321:1 506:1 
0.1246806347523175 6:1 26:1 30:1 57:1 73:1 100:1 130:1 133:1 136:1 158:1 234:1 527:1 536:1 
0.2072799641201237 6:1 30:1 32:1 73:1 74:1 75:1 85:1 101:1 107:1 132:1 150:1 157:1 172:1 213:1 216:1 248:1 249:1 321:1 330:1 515:1 517:1 531:1 
1 6:1 30:1 73:1 82:1 98:1 101:1 102:1 107:1 130:1 152:1 163:1 
0.1013226901216619 6:1 8:1 21:1 30:1 33:1 73:1 75:1 89:1 105:1 116:1 136:1 139:1 150:1 152:1 166:1 180:1 198:1 258:1 507:1 
0.05027099545214142 21:1 91:1 95:1 96:1 105:1 107:1 108:1 114:1 127:1 130:1 155:1 157:1 163:1 172:1 337:1 344:1 443:1 532:1 
0.9252991632337684 17:1 51:1 96:1 100:1 134:1 153:1 165:1 167:1 181:1 199:1 
0.005454179666334888 17:1 20:1 21:1 49:1 50:1 52:1 73:1 76:1 84:1 86:1 90:1 91:1 96:1 100:1 101:1 126:1 185:1 186:1 197:1 
1 6:1 21:1 30:1 73:1 75:1 76:1 106:1 110:1 111:1 134:1 136:1 138:1 139:1 150:1 166:1 213:1 214:1 367:1 368:1 
0.8060016432723751 6:1 30:1 37:1 51:1 90:1 136:1 152:1 167:1 180:1 201:1 
0.4395127868584803 6:1 8:1 30:1 32:1 33:1 50:1 75:1 93:1 94:1 132:1 134:1 136:1 139:1 149:1 150:1 153:1 166:1 200:1 544:1 
0.1397756655955271 18:1 20:1 21:1 27:1 30:1 49:1 73:1 76:1 85:1 101:1 107:1 118:1 123:1 130:1 152:1 157:1 168:1 169:1 173:1 547:1 551:1 
0.9471353615171084 6:1 30:1 56:1 73:1 74:1 82:1 136:1 137:1 138:1 139:1 
0.8313291911248744 6:1 8:1 10:1 30:1 32:1 37:1 54:1 61:1 62:1 73:1 75:1 85:1 90:1 107:1 111:1 130:1 150:1 152:1 161:1 
1 6:1 30:1 73:1 82:1 107:1 109:1 111:1 112:1 122:1 130:1 158:1 
0.4394343415384391 6:1 30:1 70:1 73:1 98:1 100:1 101:1 102:1 107:1 134:1 166:1 181:1 
0.2447387887713391 6:1 30:1 73:1 82:1 107:1 109:1 110:1 111:1 112:1 139:1 166:1 
0.08914038248229543 6:1 21:1 22:1 27:1 51:1 52:1 73:1 75:1 82:1 87:1 88:1 105:1 108:1 136:1 138:1 142:1 143:1 150:1 402:1 478:1 515:1 
0.1344427113223236 6:1 21:1 30:1 73:1 75:1 82:1 98:1 102:1 105:1 107:1 108:1 130:1 150:1 152:1 163:1 172:1 231:1 518:1 532:1 
0.05266322803788268 6:1 8:1 9:1 37:1 72:1 75:1 85:1 122:1 136:1 138:1 150:1 317:1 330:1 
0.09370309882173938 6:1 20:1 21:1 27:1 30:1 37:1 49:1 50:1 55:1 89:1 95:1 107:1 118:1 122:1 123:1 166:1 168:1 169:1 
0.1572334636044905 17:1 21:1 33:1 51:1 52:1 73:1 75:1 77:1 83:1 90:1 96:1 100:1 101:1 154:1 155:1 159:1 172:1 268:1 321:1 322:1 
0.01226821363437421 6:1 37:1 51:1 52:1 67:1 90:1 95:1 121:1 136:1 152:1 
0.1613391997490608 1:1 30:1 87:1 95:1 96:1 100:1 101:1 133:1 136:1 166:1 
0.6168772981917999 30:1 95:1 96:1 101:1 110:1 133:1 134:1 136:1 156:1 166:1 
0.143070548025657 6:1 8:1 9:1 10:1 17:1 41:1 51:1 75:1 81:1 101:1 111:1 134:1 150:1 152:1 160:1 165:1 200:1 232:1 233:1 515:1 
0.03182082582268148 6:1 8:1 9:1 22:1 30:1 37:1 73:1 74:1 75:1 78:1 100:1 101:1 116:1 133:1 136:1 150:1 160:1 232:1 233:1 515:1 531:1 
0.01845663539104345 6:1 8:1 9:1 10:1 30:1 37:1 45:1 72:1 75:1 85:1 95:1 107:1 109:1 111:1 112:1 150:1 152:1 166:1 232:1 233:1 515:1 530:1 
0.0134212450115146 6:1 8:1 9:1 10:1 37:1 41:1 51:1 52:1 73:1 75:1 90:1 99:1 136:1 138:1 150:1 160:1 178:1 232:1 233:1 515:1 
0.09850572794722244 6:1 8:1 9:1 10:1 42:1 43:1 50:1 51:1 52:1 72:1 75:1 134:1 136:1 138:1 139:1 150:1 232:1 233:1 515:1 530:1 
0.1267184387397616 6:1 20:1 21:1 49:1 50:1 51:1 52:1 66:1 75:1 76:1 81:1 82:1 135:1 136:1 138:1 141:1 150:1 179:1 519:1 534:1 
0.04334843988898445 6:1 9:1 10:1 30:1 50:1 65:1 72:1 75:1 89:1 95:1 134:1 136:1 139:1 150:1 166:1 180:1 214:1 264:1 534:1 
0.009872734983284613 2:1 6:1 7:1 30:1 73:1 107:1 130:1 152:1 153:1 157:1 163:1 214:1 248:1 249:1 264:1 517:1 529:1 533:1 551:1 
0.04793832370292585 6:1 20:1 21:1 37:1 51:1 52:1 75:1 76:1 101:1 106:1 125:1 126:1 135:1 136:1 139:1 141:1 150:1 180:1 518:1 534:1 
0.02313752585537703 30:1 73:1 74:1 96:1 98:1 102:1 107:1 121:1 134:1 153:1 182:1 534:1 
0.1225193380569762 6:1 10:1 20:1 30:1 73:1 75:1 97:1 102:1 106:1 107:1 129:1 130:1 134:1 153:1 156:1 160:1 285:1 396:1 444:1 
0.1555788295496612 6:1 51:1 52:1 82:1 89:1 122:1 136:1 167:1 179:1 180:1 
0.08149022660441287 6:1 20:1 21:1 49:1 50:1 51:1 75:1 76:1 84:1 107:1 112:1 117:1 134:1 139:1 150:1 163:1 182:1 445:1 
0.2938354273469674 6:1 30:1 73:1 74:1 111:1 134:1 136:1 137:1 138:1 139:1 
-1 6:1 30:1 73:1 74:1 82:1 98:1 100:1 101:1 102:1 107:1 158:1 527:1 
-1 6:1 30:1 73:1 100:1 130:1 134:1 136:1 139:1 153:1 181:1 547:1 
-1 6:1 30:1 37:1 73:1 101:1 133:1 136:1 152:1 166:1 180:1 
-0.5834256082408952 6:1 8:1 10:1 30:1 61:1 73:1 75:1 97:1 115:1 116:1 130:1 134:1 136:1 139:1 150:1 152:1 153:1 180:1 544:1 548:1 
-1 6:1 30:1 73:1 111:1 130:1 134:1 136:1 138:1 139:1 158:1 527:1 
-0.02359480885501497 30:1 73:1 96:1 98:1 102:1 107:1 134:1 152:1 153:1 166:1 180:1 549:1 
-0.5391391362096936 6:1 21:1 22:1 30:1 75:1 95:1 107:1 108:1 116:1 125:1 134:1 150:1 153:1 156:1 157:1 166:1 172:1 182:1 544:1 546:1 
-0.3848432707030298 6:1 21:1 30:1 49:1 50:1 75:1 95:1 107:1 108:1 111:1 139:1 149:1 150:1 161:1 166:1 172:1 249:1 528:1 
-0.1953377896551494 4:1 6:1 20:1 21:1 30:1 75:1 76:1 82:1 98:1 101:1 102:1 106:1 107:1 110:1 132:1 150:1 277:1 548:1 
-0.9746272245217154 6:1 8:1 30:1 32:1 33:1 75:1 93:1 94:1 95:1 107:1 111:1 134:1 143:1 150:1 153:1 166:1 285:1 286:1 544:1 
-0.3646610921518164 6:1 20:1 21:1 30:1 39:1 40:1 41:1 73:1 75:1 76:1 82:1 107:1 109:1 112:1 122:1 130:1 132:1 150:1 158:1 547:1 
-1 6:1 8:1 10:1 30:1 50:1 54:1 62:1 73:1 90:1 97:1 111:1 118:1 123:1 124:1 130:1 136:1 137:1 290:1 292:1 544:1 
-0.762459489473461 17:1 51:1 96:1 134:1 137:1 139:1 165:1 167:1 168:1 169:1 177:1 
-0.2549888351757978 6:1 30:1 73:1 110:1 111:1 130:1 134:1 136:1 138:1 139:1 548:1 
-0.5444495925255505 6:1 10:1 20:1 27:1 30:1 73:1 75:1 85:1 97:1 115:1 130:1 134:1 136:1 138:1 139:1 150:1 156:1 158:1 527:1 
-0.6005282814072856 6:1 21:1 30:1 49:1 73:1 75:1 82:1 85:1 89:1 90:1 107:1 108:1 150:1 163:1 166:1 172:1 182:1 529:1 
-0.0143449674597866 6:1 10:1 20:1 30:1 75:1 97:1 101:1 106:1 107:1 132:1 134:1 141:1 149:1 150:1 157:1 202:1 546:1 
-0.4801387312571507 6:1 30:1 95:1 107:1 134:1 153:1 157:1 166:1 179:1 180:1 546:1 
-1 6:1 30:1 37:1 73:1 101:1 130:1 133:1 136:1 152:1 163:1 529:1 
-1 30:1 74:1 96:1 101:1 107:1 110:1 134:1 156:1 157:1 200:1 546:1 
-0.02310753082636135 6:1 21:1 22:1 30:1 73:1 74:1 75:1 89:1 107:1 108:1 134:1 139:1 150:1 152:1 163:1 172:1 174:1 255:1 529:1 
-0.1913073052632068 6:1 8:1 9:1 30:1 73:1 75:1 106:1 107:1 109:1 112:1 130:1 134:1 139:1 150:1 156:1 160:1 182:1 270:1 317:1 318:1 548:1 
-1 6:1 21:1 30:1 56:1 73:1 75:1 82:1 106:1 107:1 109:1 112:1 122:1 150:1 152:1 166:1 213:1 214:1 367:1 368:1 
-0.9445300457140334 6:1 30:1 55:1 56:1 73:1 82:1 90:1 136:1 138:1 345:1 
-1 6:1 21:1 51:1 52:1 75:1 76:1 82:1 85:1 90:1 94:1 100:1 127:1 136:1 150:1 167:1 172:1 181:1 321:1 515:1 
-1 17:1 51:1 96:1 134:1 139:1 153:1 165:1 167:1 180:1 182:1 
-1 6:1 25:1 30:1 73:1 74:1 100:1 101:1 133:1 136:1 155:1 
-0.379506991649968 6:1 8:1 10:1 30:1 32:1 50:1 75:1 94:1 95:1 101:1 107:1 132:1 134:1 139:1 150:1 158:1 166:1 258:1 527:1 540:1 
-0.3017146481545349 6:1 8:1 10:1 30:1 32:1 73:1 75:1 105:1 107:1 111:1 130:1 134:1 139:1 148:1 149:1 150:1 151:1 161:1 258:1 528:1 
-0.6134664179769277 17:1 51:1 96:1 100:1 134:1 135:1 139:1 153:1 165:1 181:1 549:1 
-0.8466336258785297 51:1 52:1 87:1 88:1 96:1 133:1 134:1 135:1 136:1 177:1 
-0.4435837565492576 6:1 21:1 22:1 30:1 73:1 75:1 78:1 81:1 105:1 108:1 111:1 130:1 136:1 138:1 150:1 172:1 174:1 198:1 549:1 
-0.2537875698873016 17:1 51:1 73:1 96:1 117:1 134:1 139:1 152:1 153:1 163:1 529:1 
-1 6:1 20:1 21:1 30:1 49:1 50:1 73:1 75:1 76:1 82:1 89:1 122:1 130:1 136:1 141:1 150:1 152:1 180:1 549:1 
-1 6:1 30:1 37:1 66:1 73:1 110:1 122:1 130:1 136:1 138:1 534:1 548:1 
-0.2534710511615482 5:1 6:1 20:1 30:1 33:1 73:1 75:1 82:1 97:1 98:1 101:1 102:1 107:1 110:1 115:1 132:1 150:1 166:1 170:1 548:1 
-0.6931533112861427 6:1 8:1 9:1 10:1 41:1 51:1 72:1 75:1 82:1 95:1 102:1 107:1 110:1 111:1 117:1 150:1 161:1 232:1 233:1 444:1 515:1 528:1 
-0.1042711159186698 6:1 8:1 9:1 30:1 55:1 73:1 74:1 75:1 101:1 107:1 134:1 150:1 157:1 160:1 212:1 244:1 245:1 265:1 296:1 515:1 531:1 546:1 
