svm_type c_svc
kernel_type linear
nr_class 2
total_sv 113
rho -2.05951
label -1 1
nr_sv 73 40
SV
0.04194968704149554 25:1 27:1 33:1 37:1 40:1 41:1 45:1 46:1 59:1 65:1 71:1 72:1 104:1 105:1 109:1 110:1 128:1 129:1 149:1 162:1 163:1 164:1 165:1 166:1 167:1 168:1 
0.3715365299821268 23:1 25:1 27:1 45:1 46:1 49:1 50:1 51:1 52:1 54:1 59:1 60:1 61:1 65:1 67:1 92:1 93:1 94:1 100:1 119:1 121:1 131:1 135:1 183:1 203:1 204:1 208:1 
0.1278799085411844 12:1 13:1 19:1 23:1 25:1 27:1 28:1 45:1 46:1 52:1 54:1 59:1 60:1 61:1 63:1 65:1 67:1 69:1 88:1 91:1 92:1 93:1 94:1 100:1 118:1 119:1 125:1 144:1 159:1 213:1 214:1 218:1 
0.08040646464847305 23:1 25:1 36:1 43:1 45:1 52:1 65:1 66:1 70:1 71:1 76:1 107:1 123:1 124:1 129:1 148:1 154:1 155:1 164:1 183:1 185:1 209:1 210:1 211:1 212:1 216:1 220:1 
0.2081545130260925 23:1 25:1 33:1 37:1 43:1 45:1 46:1 52:1 60:1 66:1 70:1 71:1 105:1 107:1 123:1 124:1 129:1 132:1 164:1 178:1 215:1 216:1 217:1 
0.4537416250726811 11:1 12:1 27:1 28:1 30:1 31:1 45:1 46:1 47:1 50:1 51:1 52:1 53:1 54:1 59:1 60:1 61:1 65:1 81:1 104:1 105:1 112:1 113:1 118:1 119:1 131:1 135:1 137:1 155:1 164:1 166:1 221:1 223:1 224:1 226:1 227:1 228:1 
0.009542152373701695 12:1 18:1 25:1 27:1 28:1 36:1 45:1 46:1 48:1 49:1 51:1 53:1 61:1 63:1 65:1 71:1 72:1 81:1 93:1 94:1 98:1 105:1 129:1 138:1 155:1 162:1 164:1 190:1 211:1 225:1 274:1 307:1 308:1 309:1 310:1 311:1 312:1 
0.03654905847856852 18:1 25:1 27:1 28:1 33:1 37:1 41:1 46:1 53:1 54:1 62:1 63:1 65:1 66:1 69:1 70:1 81:1 86:1 88:1 91:1 92:1 93:1 94:1 100:1 107:1 118:1 121:1 123:1 138:1 144:1 174:1 238:1 239:1 278:1 279:1 280:1 283:1 284:1 310:1 316:1 317:1 
0.06946489135257038 12:1 18:1 27:1 28:1 46:1 61:1 62:1 63:1 65:1 71:1 72:1 73:1 74:1 81:1 93:1 94:1 98:1 101:1 104:1 109:1 112:1 127:1 128:1 136:1 138:1 153:1 155:1 157:1 174:1 188:1 190:1 225:1 226:1 279:1 304:1 313:1 342:1 
0.007651687269123523 11:1 18:1 21:1 25:1 27:1 28:1 30:1 31:1 36:1 45:1 46:1 61:1 62:1 63:1 65:1 71:1 72:1 73:1 74:1 76:1 78:1 81:1 88:1 91:1 100:1 104:1 107:1 109:1 127:1 128:1 155:1 157:1 162:1 185:1 214:1 226:1 279:1 314:1 315:1 
0.1862160619134054 18:1 23:1 25:1 27:1 28:1 29:1 30:1 31:1 45:1 46:1 58:1 60:1 61:1 62:1 65:1 67:1 71:1 81:1 84:1 93:1 94:1 95:1 100:1 104:1 105:1 132:1 155:1 169:1 183:1 213:1 253:1 254:1 255:1 274:1 301:1 356:1 360:1 361:1 
0.6223691609960722 43:1 45:1 46:1 48:1 51:1 52:1 59:1 61:1 65:1 90:1 92:1 93:1 105:1 106:1 108:1 111:1 112:1 120:1 121:1 131:1 203:1 204:1 216:1 235:1 274:1 309:1 340:1 363:1 370:1 371:1 
0.08441991262436858 8:1 25:1 27:1 28:1 31:1 40:1 45:1 46:1 48:1 49:1 54:1 59:1 60:1 61:1 81:1 92:1 93:1 120:1 121:1 125:1 126:1 128:1 129:1 130:1 131:1 138:1 152:1 204:1 232:1 238:1 239:1 274:1 280:1 283:1 284:1 309:1 310:1 378:1 
0.0182089208845087 8:1 23:1 25:1 27:1 40:1 45:1 46:1 54:1 59:1 60:1 61:1 92:1 93:1 120:1 121:1 124:1 125:1 126:1 129:1 131:1 152:1 167:1 204:1 232:1 274:1 309:1 310:1 353:1 381:1 
0.1548382911579393 10:1 25:1 27:1 36:1 45:1 46:1 52:1 61:1 65:1 71:1 74:1 75:1 120:1 121:1 122:1 123:1 124:1 128:1 129:1 149:1 155:1 164:1 174:1 183:1 211:1 222:1 310:1 394:1 395:1 
0.007865955179479916 8:1 9:1 10:1 11:1 14:1 18:1 27:1 39:1 43:1 45:1 46:1 60:1 61:1 68:1 69:1 73:1 95:1 101:1 105:1 128:1 129:1 132:1 178:1 293:1 294:1 340:1 401:1 402:1 403:1 
0.04424114966477102 9:1 23:1 25:1 27:1 28:1 29:1 30:1 42:1 43:1 45:1 46:1 51:1 52:1 54:1 59:1 60:1 61:1 77:1 78:1 81:1 82:1 93:1 97:1 99:1 105:1 129:1 166:1 167:1 187:1 227:1 229:1 261:1 278:1 350:1 404:1 405:1 
0.2504988579120503 11:1 12:1 23:1 25:1 27:1 28:1 36:1 42:1 43:1 44:1 45:1 46:1 47:1 51:1 52:1 61:1 62:1 65:1 71:1 74:1 81:1 100:1 137:1 138:1 149:1 155:1 162:1 166:1 167:1 183:1 239:1 253:1 254:1 279:1 284:1 319:1 407:1 408:1 409:1 
0.08750710392603961 18:1 23:1 25:1 27:1 28:1 30:1 42:1 43:1 44:1 45:1 65:1 71:1 81:1 93:1 103:1 107:1 120:1 121:1 129:1 137:1 148:1 149:1 154:1 155:1 164:1 184:1 253:1 254:1 255:1 269:1 305:1 308:1 411:1 412:1 413:1 414:1 415:1 416:1 
0.1618946976429589 27:1 43:1 45:1 46:1 50:1 51:1 52:1 53:1 59:1 60:1 61:1 65:1 90:1 92:1 93:1 105:1 112:1 113:1 120:1 121:1 165:1 204:1 281:1 300:1 309:1 348:1 420:1 421:1 422:1 425:1 
0.09078543425346446 9:1 11:1 23:1 25:1 27:1 28:1 39:1 45:1 46:1 47:1 52:1 61:1 66:1 70:1 71:1 73:1 78:1 81:1 86:1 105:1 123:1 124:1 127:1 129:1 132:1 133:1 134:1 138:1 166:1 187:1 229:1 239:1 284:1 313:1 408:1 429:1 430:1 
0.08346341504265131 11:1 25:1 27:1 36:1 42:1 43:1 45:1 46:1 47:1 54:1 61:1 62:1 63:1 65:1 68:1 78:1 105:1 125:1 126:1 128:1 129:1 131:1 140:1 175:1 211:1 261:1 378:1 404:1 432:1 
0.09996944403263135 18:1 23:1 25:1 27:1 43:1 44:1 45:1 46:1 49:1 50:1 54:1 58:1 59:1 60:1 61:1 65:1 77:1 78:1 90:1 92:1 93:1 129:1 140:1 204:1 255:1 300:1 309:1 437:1 440:1 
0.007077158826212905 8:1 9:1 11:1 12:1 41:1 45:1 46:1 51:1 52:1 61:1 73:1 76:1 105:1 111:1 112:1 123:1 124:1 133:1 135:1 166:1 179:1 216:1 301:1 304:1 310:1 340:1 370:1 401:1 445:1 
0.1520491530550349 23:1 25:1 27:1 28:1 36:1 45:1 46:1 51:1 52:1 61:1 63:1 65:1 71:1 81:1 86:1 93:1 94:1 98:1 100:1 104:1 105:1 107:1 119:1 121:1 124:1 138:1 155:1 183:1 190:1 218:1 226:1 306:1 307:1 348:1 349:1 458:1 459:1 
0.06116651893378664 23:1 25:1 27:1 28:1 43:1 45:1 46:1 51:1 52:1 59:1 60:1 61:1 65:1 71:1 73:1 74:1 81:1 86:1 93:1 94:1 98:1 100:1 107:1 121:1 124:1 135:1 138:1 155:1 169:1 178:1 185:1 190:1 226:1 301:1 307:1 453:1 458:1 
0.2008234068197047 23:1 25:1 27:1 28:1 36:1 43:1 45:1 46:1 49:1 51:1 52:1 61:1 65:1 71:1 74:1 81:1 86:1 93:1 94:1 98:1 100:1 121:1 138:1 149:1 155:1 164:1 183:1 185:1 190:1 211:1 311:1 351:1 391:1 458:1 459:1 462:1 463:1 467:1 
0.05112850280511719 23:1 25:1 27:1 36:1 43:1 45:1 46:1 49:1 61:1 65:1 71:1 74:1 93:1 94:1 100:1 110:1 121:1 149:1 155:1 164:1 183:1 185:1 211:1 253:1 254:1 351:1 391:1 457:1 461:1 467:1 
0.08865906613056651 23:1 25:1 27:1 36:1 43:1 45:1 46:1 49:1 61:1 65:1 71:1 93:1 94:1 100:1 110:1 121:1 149:1 155:1 164:1 185:1 210:1 253:1 254:1 274:1 308:1 349:1 351:1 457:1 459:1 468:1 
0.006174778652098154 23:1 25:1 27:1 33:1 36:1 37:1 43:1 45:1 46:1 49:1 65:1 71:1 72:1 100:1 110:1 185:1 210:1 253:1 254:1 300:1 349:1 351:1 456:1 457:1 
0.07641610738105582 10:1 22:1 23:1 24:1 27:1 28:1 29:1 31:1 43:1 44:1 51:1 52:1 54:1 65:1 67:1 72:1 74:1 78:1 81:1 113:1 124:1 149:1 154:1 155:1 164:1 172:1 183:1 269:1 272:1 316:1 317:1 374:1 385:1 469:1 470:1 471:1 472:1 473:1 474:1 475:1 
0.004804683251492465 8:1 40:1 45:1 46:1 47:1 54:1 59:1 60:1 61:1 105:1 120:1 121:1 122:1 128:1 131:1 161:1 168:1 171:1 232:1 243:1 271:1 275:1 293:1 310:1 313:1 421:1 482:1 483:1 490:1 
0.02142832991812108 12:1 23:1 24:1 25:1 27:1 28:1 43:1 44:1 45:1 46:1 51:1 52:1 59:1 60:1 61:1 65:1 71:1 72:1 81:1 93:1 94:1 119:1 135:1 138:1 149:1 155:1 159:1 160:1 164:1 166:1 167:1 190:1 207:1 225:1 308:1 311:1 497:1 
0.1470561915298611 25:1 27:1 28:1 45:1 46:1 51:1 52:1 53:1 59:1 60:1 61:1 65:1 71:1 72:1 81:1 86:1 93:1 94:1 105:1 119:1 121:1 129:1 138:1 149:1 155:1 159:1 164:1 166:1 167:1 190:1 207:1 306:1 308:1 310:1 311:1 507:1 508:1 509:1 
0.3294551843044732 12:1 23:1 25:1 27:1 28:1 43:1 45:1 46:1 52:1 60:1 61:1 65:1 71:1 72:1 81:1 88:1 91:1 93:1 94:1 100:1 119:1 124:1 131:1 138:1 155:1 159:1 160:1 164:1 166:1 179:1 183:1 185:1 190:1 221:1 222:1 225:1 226:1 462:1 463:1 
0.2758669800582659 23:1 25:1 43:1 45:1 46:1 52:1 57:1 60:1 61:1 64:1 65:1 66:1 67:1 70:1 71:1 76:1 100:1 119:1 124:1 131:1 149:1 155:1 164:1 167:1 179:1 185:1 216:1 220:1 
0.1218035698569689 14:1 25:1 27:1 28:1 45:1 46:1 51:1 52:1 53:1 60:1 61:1 65:1 71:1 72:1 81:1 85:1 86:1 93:1 105:1 120:1 121:1 129:1 135:1 136:1 137:1 138:1 143:1 149:1 155:1 160:1 164:1 167:1 210:1 308:1 310:1 311:1 519:1 520:1 521:1 
0.2008897881252577 12:1 21:1 23:1 25:1 27:1 28:1 30:1 43:1 45:1 46:1 50:1 51:1 52:1 54:1 59:1 60:1 61:1 62:1 65:1 81:1 92:1 93:1 94:1 100:1 118:1 119:1 135:1 144:1 149:1 167:1 185:1 207:1 210:1 214:1 314:1 315:1 353:1 
0.1115912675044271 12:1 18:1 27:1 43:1 45:1 46:1 49:1 51:1 59:1 60:1 61:1 62:1 65:1 71:1 92:1 93:1 94:1 111:1 112:1 113:1 118:1 119:1 124:1 135:1 149:1 166:1 185:1 210:1 528:1 
0.1112548898850747 9:1 22:1 23:1 25:1 28:1 29:1 30:1 39:1 45:1 46:1 52:1 60:1 61:1 69:1 71:1 73:1 74:1 76:1 77:1 81:1 121:1 129:1 140:1 191:1 222:1 259:1 264:1 360:1 361:1 531:1 533:1 534:1 535:1 
0.1123813529769768 8:1 23:1 25:1 27:1 28:1 29:1 45:1 46:1 49:1 51:1 52:1 59:1 60:1 61:1 71:1 74:1 75:1 81:1 82:1 84:1 85:1 86:1 92:1 93:1 94:1 95:1 161:1 162:1 193:1 204:1 206:1 232:1 311:1 353:1 537:1 
0.1337682012236684 6:1 21:1 23:1 25:1 27:1 28:1 30:1 43:1 44:1 45:1 46:1 52:1 59:1 60:1 61:1 65:1 71:1 81:1 107:1 120:1 121:1 123:1 124:1 127:1 129:1 131:1 175:1 196:1 197:1 198:1 222:1 223:1 224:1 225:1 248:1 296:1 549:1 550:1 
0.0917989837524308 21:1 23:1 25:1 27:1 28:1 30:1 43:1 45:1 46:1 51:1 52:1 57:1 60:1 61:1 64:1 65:1 71:1 81:1 93:1 94:1 100:1 119:1 124:1 131:1 135:1 149:1 155:1 164:1 167:1 169:1 179:1 185:1 191:1 223:1 343:1 344:1 438:1 628:1 630:1 
0.07643140189079183 11:1 23:1 24:1 25:1 27:1 30:1 33:1 37:1 41:1 43:1 44:1 45:1 46:1 48:1 58:1 65:1 71:1 72:1 92:1 93:1 95:1 110:1 118:1 138:1 191:1 205:1 211:1 218:1 253:1 254:1 255:1 305:1 367:1 369:1 413:1 456:1 642:1 643:1 644:1 645:1 646:1 
0.002859654726234311 23:1 24:1 25:1 27:1 28:1 43:1 44:1 45:1 50:1 51:1 52:1 54:1 65:1 72:1 81:1 86:1 93:1 94:1 121:1 135:1 136:1 138:1 143:1 148:1 149:1 154:1 155:1 160:1 164:1 190:1 207:1 213:1 278:1 308:1 336:1 384:1 543:1 667:1 668:1 
0.1714669694987481 18:1 23:1 25:1 27:1 28:1 41:1 43:1 45:1 46:1 51:1 59:1 60:1 61:1 62:1 65:1 67:1 68:1 71:1 72:1 81:1 86:1 93:1 94:1 98:1 105:1 121:1 124:1 129:1 136:1 138:1 149:1 155:1 183:1 190:1 306:1 307:1 348:1 
0.05524745749164096 17:1 18:1 23:1 25:1 27:1 28:1 36:1 43:1 45:1 46:1 49:1 59:1 61:1 62:1 63:1 65:1 71:1 72:1 81:1 86:1 93:1 94:1 100:1 121:1 127:1 131:1 138:1 155:1 166:1 185:1 190:1 306:1 308:1 311:1 383:1 509:1 613:1 
0.03386307361419393 18:1 23:1 25:1 27:1 36:1 43:1 45:1 46:1 61:1 65:1 66:1 69:1 70:1 71:1 73:1 93:1 100:1 107:1 155:1 169:1 179:1 185:1 203:1 209:1 212:1 226:1 375:1 
0.02147861280368796 23:1 28:1 31:1 43:1 45:1 46:1 61:1 65:1 71:1 75:1 80:1 81:1 92:1 93:1 95:1 101:1 105:1 137:1 161:1 204:1 211:1 214:1 218:1 222:1 302:1 305:1 315:1 348:1 359:1 404:1 421:1 473:1 549:1 555:1 556:1 561:1 675:1 681:1 
0.04672683335636479 2:1 7:1 8:1 52:1 59:1 68:1 92:1 93:1 94:1 95:1 111:1 112:1 117:1 118:1 124:1 131:1 140:1 143:1 173:1 174:1 216:1 258:1 316:1 317:1 340:1 370:1 437:1 696:1 698:1 
0.02917090952723761 23:1 25:1 27:1 28:1 30:1 31:1 41:1 42:1 45:1 49:1 50:1 51:1 52:1 54:1 58:1 65:1 81:1 90:1 92:1 93:1 120:1 121:1 129:1 137:1 186:1 203:1 204:1 269:1 353:1 385:1 412:1 414:1 415:1 707:1 708:1 709:1 
0.02336938055768162 25:1 27:1 54:1 62:1 63:1 65:1 77:1 78:1 92:1 93:1 107:1 109:1 110:1 111:1 112:1 118:1 123:1 143:1 146:1 148:1 173:1 174:1 210:1 317:1 417:1 418:1 419:1 437:1 710:1 711:1 
0.157322641518309 10:1 13:1 18:1 19:1 23:1 25:1 27:1 28:1 30:1 43:1 45:1 46:1 54:1 59:1 60:1 61:1 62:1 65:1 73:1 95:1 105:1 107:1 109:1 120:1 123:1 127:1 129:1 131:1 145:1 151:1 155:1 157:1 191:1 223:1 224:1 274:1 301:1 406:1 717:1 
0.01922561050944399 10:1 18:1 23:1 24:1 25:1 27:1 43:1 45:1 46:1 48:1 49:1 54:1 59:1 60:1 61:1 62:1 65:1 73:1 95:1 97:1 105:1 120:1 131:1 145:1 151:1 155:1 274:1 301:1 454:1 718:1 
0.02415759535869848 8:1 10:1 11:1 13:1 18:1 19:1 23:1 25:1 27:1 28:1 30:1 36:1 43:1 45:1 46:1 54:1 61:1 78:1 92:1 107:1 109:1 123:1 127:1 129:1 143:1 157:1 178:1 185:1 191:1 204:1 223:1 224:1 232:1 330:1 331:1 406:1 437:1 713:1 714:1 
0.01848554820865656 18:1 23:1 25:1 27:1 28:1 36:1 41:1 43:1 45:1 46:1 49:1 61:1 63:1 65:1 71:1 72:1 81:1 86:1 93:1 94:1 100:1 107:1 109:1 121:1 138:1 155:1 165:1 185:1 190:1 203:1 205:1 210:1 279:1 307:1 308:1 311:1 355:1 
0.1501423994066584 22:1 23:1 25:1 27:1 28:1 36:1 41:1 43:1 45:1 46:1 49:1 61:1 65:1 71:1 72:1 81:1 86:1 88:1 91:1 93:1 94:1 100:1 107:1 109:1 110:1 121:1 138:1 155:1 185:1 190:1 203:1 205:1 210:1 279:1 308:1 311:1 364:1 368:1 456:1 
0.03458176917710998 18:1 23:1 25:1 27:1 33:1 36:1 37:1 43:1 45:1 46:1 49:1 63:1 65:1 67:1 71:1 72:1 100:1 179:1 185:1 218:1 253:1 254:1 255:1 375:1 
0.1073099294463606 9:1 11:1 12:1 18:1 23:1 25:1 27:1 28:1 30:1 36:1 45:1 46:1 61:1 63:1 66:1 70:1 71:1 76:1 81:1 88:1 91:1 98:1 100:1 104:1 105:1 107:1 187:1 223:1 224:1 226:1 308:1 322:1 348:1 349:1 378:1 383:1 401:1 478:1 720:1 
0.0525530778191692 18:1 23:1 25:1 27:1 28:1 30:1 36:1 42:1 45:1 46:1 61:1 65:1 66:1 70:1 71:1 73:1 74:1 78:1 81:1 93:1 94:1 98:1 100:1 105:1 107:1 155:1 169:1 209:1 210:1 212:1 223:1 224:1 226:1 310:1 378:1 519:1 520:1 583:1 
0.1435747658325878 13:1 19:1 23:1 24:1 25:1 27:1 28:1 45:1 49:1 50:1 51:1 52:1 54:1 62:1 63:1 65:1 85:1 86:1 92:1 93:1 94:1 118:1 119:1 121:1 135:1 137:1 138:1 144:1 186:1 299:1 353:1 355:1 458:1 543:1 
0.1452125672186784 9:1 11:1 18:1 25:1 27:1 43:1 45:1 46:1 47:1 53:1 54:1 61:1 63:1 73:1 105:1 107:1 123:1 129:1 134:1 157:1 162:1 187:1 229:1 255:1 305:1 313:1 336:1 428:1 
0.05674373671340386 11:1 20:1 25:1 27:1 28:1 29:1 30:1 43:1 45:1 46:1 47:1 52:1 54:1 60:1 61:1 65:1 68:1 69:1 78:1 81:1 83:1 105:1 117:1 118:1 125:1 128:1 129:1 132:1 140:1 143:1 175:1 178:1 191:1 196:1 197:1 274:1 432:1 767:1 
0.1019039236172457 9:1 11:1 23:1 24:1 25:1 26:1 35:1 36:1 43:1 44:1 45:1 46:1 61:1 63:1 76:1 95:1 97:1 215:1 308:1 351:1 413:1 531:1 534:1 724:1 773:1 774:1 775:1 776:1 778:1 779:1 780:1 
0.03205461559875988 9:1 10:1 11:1 23:1 25:1 26:1 35:1 36:1 43:1 45:1 46:1 52:1 61:1 78:1 100:1 105:1 149:1 172:1 216:1 226:1 264:1 348:1 384:1 392:1 549:1 552:1 553:1 620:1 786:1 787:1 
0.01729928057547985 9:1 10:1 16:1 23:1 27:1 36:1 39:1 42:1 44:1 45:1 46:1 52:1 54:1 61:1 65:1 101:1 112:1 120:1 121:1 125:1 150:1 162:1 196:1 197:1 310:1 332:1 336:1 353:1 791:1 793:1 
0.04677263954353956 11:1 18:1 27:1 35:1 36:1 43:1 45:1 46:1 47:1 53:1 54:1 61:1 65:1 68:1 101:1 105:1 112:1 118:1 140:1 143:1 168:1 175:1 196:1 197:1 200:1 255:1 260:1 348:1 437:1 
0.1298401941449945 12:1 23:1 24:1 25:1 41:1 43:1 45:1 46:1 52:1 61:1 65:1 69:1 71:1 93:1 94:1 103:1 105:1 107:1 165:1 175:1 216:1 222:1 245:1 247:1 260:1 305:1 349:1 387:1 413:1 802:1 
0.0251973154298245 25:1 27:1 28:1 40:1 45:1 46:1 51:1 52:1 54:1 60:1 61:1 65:1 81:1 86:1 121:1 123:1 127:1 128:1 129:1 157:1 175:1 198:1 237:1 239:1 245:1 247:1 384:1 414:1 467:1 473:1 493:1 660:1 803:1 804:1 
0.06573074972879779 23:1 25:1 26:1 28:1 29:1 30:1 41:1 42:1 45:1 46:1 59:1 60:1 61:1 65:1 77:1 81:1 84:1 92:1 93:1 107:1 123:1 124:1 129:1 183:1 301:1 361:1 476:1 555:1 556:1 568:1 620:1 828:1 829:1 830:1 
0.07756598955050875 23:1 24:1 25:1 36:1 43:1 44:1 45:1 46:1 52:1 61:1 65:1 66:1 70:1 71:1 73:1 77:1 92:1 93:1 121:1 124:1 134:1 135:1 162:1 166:1 216:1 279:1 301:1 701:1 828:1 829:1 831:1 
0.08957904403784055 11:1 20:1 21:1 22:1 25:1 27:1 28:1 29:1 30:1 31:1 45:1 46:1 47:1 52:1 54:1 59:1 60:1 61:1 63:1 65:1 69:1 78:1 81:1 125:1 128:1 129:1 134:1 175:1 213:1 313:1 337:1 353:1 432:1 828:1 829:1 
0.01866146795797673 43:1 44:1 45:1 46:1 58:1 59:1 60:1 61:1 63:1 65:1 67:1 69:1 112:1 113:1 128:1 175:1 261:1 268:1 271:1 340:1 341:1 392:1 620:1 828:1 829:1 832:1 833:1 
-0.1018399632028895 18:1 23:1 24:1 25:1 27:1 41:1 43:1 44:1 45:1 46:1 57:1 58:1 59:1 60:1 61:1 62:1 63:1 64:1 65:1 66:1 67:1 68:1 69:1 70:1 71:1 72:1 
-0.2379590714839006 11:1 23:1 25:1 27:1 36:1 40:1 41:1 45:1 46:1 47:1 54:1 61:1 62:1 65:1 69:1 107:1 110:1 121:1 123:1 125:1 129:1 131:1 170:1 171:1 172:1 173:1 174:1 175:1 176:1 
-0.09668258368146751 23:1 25:1 27:1 28:1 45:1 46:1 51:1 52:1 54:1 59:1 60:1 61:1 65:1 81:1 85:1 86:1 92:1 93:1 94:1 100:1 107:1 119:1 121:1 123:1 124:1 131:1 135:1 138:1 144:1 183:1 203:1 204:1 205:1 206:1 207:1 
-0.6403029492560388 23:1 25:1 27:1 43:1 45:1 46:1 49:1 50:1 51:1 52:1 54:1 59:1 60:1 61:1 65:1 67:1 92:1 93:1 100:1 105:1 119:1 131:1 144:1 183:1 203:1 204:1 
-0.5804906699481267 12:1 23:1 25:1 45:1 46:1 52:1 59:1 60:1 61:1 63:1 65:1 66:1 70:1 71:1 88:1 91:1 92:1 93:1 94:1 107:1 118:1 119:1 123:1 124:1 129:1 216:1 218:1 219:1 
-0.4503455383885669 11:1 12:1 25:1 27:1 28:1 30:1 45:1 46:1 47:1 52:1 59:1 60:1 61:1 65:1 71:1 72:1 81:1 104:1 105:1 118:1 119:1 124:1 128:1 129:1 131:1 135:1 155:1 160:1 164:1 166:1 167:1 207:1 221:1 222:1 223:1 224:1 225:1 
-0.4998644390994199 9:1 27:1 28:1 30:1 31:1 42:1 43:1 45:1 46:1 50:1 51:1 52:1 53:1 54:1 60:1 61:1 74:1 76:1 81:1 112:1 113:1 120:1 121:1 131:1 137:1 149:1 166:1 179:1 183:1 185:1 187:1 192:1 223:1 224:1 226:1 227:1 229:1 
-0.02728089601758424 10:1 11:1 18:1 25:1 27:1 28:1 29:1 30:1 31:1 45:1 46:1 60:1 61:1 62:1 65:1 66:1 69:1 70:1 71:1 72:1 73:1 78:1 81:1 131:1 137:1 145:1 151:1 155:1 213:1 274:1 301:1 330:1 331:1 353:1 354:1 355:1 
-0.1786981576061281 25:1 27:1 28:1 45:1 46:1 49:1 52:1 58:1 60:1 61:1 62:1 65:1 71:1 72:1 81:1 93:1 94:1 95:1 104:1 105:1 124:1 128:1 129:1 132:1 136:1 138:1 155:1 183:1 190:1 191:1 274:1 301:1 307:1 356:1 357:1 358:1 359:1 
-0.2381474165820553 10:1 11:1 18:1 23:1 25:1 27:1 28:1 29:1 30:1 31:1 43:1 45:1 46:1 60:1 61:1 62:1 65:1 67:1 71:1 72:1 78:1 81:1 84:1 88:1 91:1 100:1 131:1 155:1 185:1 213:1 253:1 254:1 255:1 301:1 308:1 309:1 360:1 361:1 362:1 
-0.2481976106050989 23:1 25:1 27:1 43:1 45:1 46:1 48:1 49:1 54:1 59:1 61:1 65:1 85:1 86:1 90:1 92:1 93:1 100:1 105:1 109:1 120:1 121:1 127:1 131:1 138:1 144:1 159:1 203:1 204:1 274:1 309:1 363:1 364:1 365:1 366:1 367:1 368:1 369:1 
-0.3629362812541288 43:1 45:1 48:1 51:1 52:1 65:1 73:1 92:1 93:1 94:1 105:1 106:1 108:1 111:1 112:1 134:1 148:1 154:1 164:1 209:1 212:1 216:1 235:1 279:1 313:1 340:1 363:1 370:1 372:1 373:1 
-0.01686002780079278 22:1 23:1 25:1 27:1 28:1 29:1 45:1 46:1 50:1 51:1 52:1 54:1 59:1 60:1 61:1 65:1 67:1 81:1 85:1 86:1 92:1 93:1 94:1 95:1 100:1 105:1 119:1 144:1 164:1 167:1 183:1 204:1 206:1 306:1 310:1 348:1 390:1 
-0.1068383607500489 11:1 18:1 21:1 22:1 23:1 25:1 27:1 28:1 30:1 42:1 43:1 45:1 46:1 47:1 59:1 60:1 61:1 62:1 63:1 65:1 71:1 72:1 73:1 74:1 81:1 105:1 109:1 129:1 155:1 157:1 166:1 223:1 224:1 226:1 348:1 
-0.05622509392710384 10:1 25:1 27:1 28:1 29:1 36:1 45:1 46:1 51:1 52:1 53:1 61:1 65:1 71:1 72:1 74:1 75:1 81:1 82:1 85:1 86:1 107:1 112:1 120:1 121:1 124:1 137:1 149:1 155:1 164:1 174:1 183:1 195:1 211:1 226:1 310:1 394:1 
-0.02483696895069632 25:1 27:1 45:1 46:1 52:1 60:1 61:1 65:1 71:1 72:1 104:1 105:1 122:1 123:1 124:1 128:1 129:1 132:1 164:1 222:1 246:1 
-0.01964929462337203 4:1 23:1 25:1 27:1 36:1 43:1 45:1 46:1 54:1 61:1 65:1 69:1 92:1 93:1 100:1 105:1 107:1 110:1 125:1 144:1 162:1 203:1 204:1 226:1 279:1 
-0.1967698079590132 24:1 25:1 36:1 44:1 45:1 46:1 52:1 59:1 61:1 69:1 71:1 162:1 164:1 167:1 215:1 216:1 217:1 222:1 295:1 353:1 397:1 
-0.1242041762169553 11:1 12:1 23:1 24:1 25:1 27:1 28:1 30:1 36:1 42:1 43:1 44:1 45:1 46:1 47:1 51:1 52:1 61:1 62:1 65:1 71:1 72:1 74:1 81:1 107:1 149:1 155:1 157:1 162:1 183:1 189:1 223:1 224:1 225:1 226:1 279:1 406:1 
-0.4335028735616933 23:1 25:1 27:1 28:1 45:1 46:1 51:1 52:1 57:1 61:1 64:1 65:1 71:1 81:1 93:1 94:1 100:1 105:1 119:1 121:1 135:1 137:1 138:1 149:1 155:1 164:1 166:1 167:1 169:1 239:1 253:1 254:1 284:1 304:1 305:1 310:1 407:1 408:1 409:1 410:1 
-0.2305301987412844 18:1 23:1 25:1 27:1 28:1 30:1 43:1 45:1 46:1 59:1 60:1 61:1 65:1 71:1 81:1 90:1 92:1 93:1 105:1 107:1 120:1 121:1 129:1 137:1 165:1 204:1 253:1 254:1 255:1 269:1 300:1 309:1 348:1 412:1 413:1 414:1 415:1 424:1 
-0.09060762276878011 18:1 23:1 25:1 27:1 43:1 44:1 45:1 46:1 50:1 54:1 61:1 62:1 63:1 65:1 92:1 93:1 109:1 121:1 143:1 165:1 194:1 199:1 304:1 305:1 413:1 433:1 434:1 435:1 436:1 
-0.1475119708808073 18:1 22:1 27:1 28:1 30:1 31:1 43:1 44:1 45:1 46:1 54:1 58:1 59:1 60:1 61:1 65:1 68:1 77:1 78:1 81:1 90:1 92:1 93:1 101:1 109:1 111:1 112:1 140:1 168:1 204:1 223:1 300:1 309:1 359:1 437:1 438:1 439:1 
-0.1356801875047515 45:1 46:1 51:1 52:1 59:1 60:1 61:1 62:1 63:1 65:1 92:1 93:1 105:1 111:1 112:1 118:1 120:1 121:1 123:1 124:1 143:1 166:1 216:1 262:1 310:1 340:1 348:1 370:1 371:1 
-0.1529133112601878 23:1 24:1 25:1 27:1 43:1 45:1 46:1 54:1 60:1 61:1 62:1 65:1 68:1 69:1 73:1 92:1 93:1 105:1 120:1 121:1 125:1 126:1 131:1 132:1 134:1 135:1 156:1 301:1 446:1 
-0.07411060841892639 25:1 27:1 28:1 36:1 45:1 46:1 51:1 52:1 61:1 63:1 65:1 67:1 69:1 71:1 72:1 81:1 86:1 93:1 94:1 104:1 105:1 119:1 121:1 127:1 128:1 129:1 138:1 155:1 183:1 190:1 213:1 218:1 306:1 348:1 349:1 359:1 458:1 
-0.3733966810530784 23:1 25:1 27:1 28:1 36:1 43:1 45:1 46:1 51:1 52:1 61:1 65:1 71:1 72:1 74:1 81:1 86:1 93:1 94:1 98:1 100:1 107:1 121:1 124:1 138:1 149:1 155:1 164:1 183:1 185:1 190:1 211:1 226:1 307:1 391:1 458:1 467:1 
-0.5056814469394879 23:1 25:1 27:1 28:1 36:1 43:1 45:1 46:1 49:1 51:1 52:1 61:1 65:1 71:1 72:1 81:1 86:1 93:1 94:1 98:1 100:1 121:1 138:1 149:1 155:1 164:1 185:1 190:1 210:1 274:1 308:1 311:1 349:1 351:1 458:1 462:1 463:1 468:1 
-0.1707212525758181 45:1 46:1 51:1 52:1 53:1 59:1 60:1 61:1 65:1 68:1 90:1 92:1 93:1 94:1 112:1 119:1 124:1 135:1 140:1 185:1 203:1 204:1 216:1 310:1 340:1 370:1 373:1 469:1 471:1 
-0.1614860743537351 41:1 43:1 45:1 46:1 47:1 52:1 53:1 54:1 59:1 60:1 61:1 62:1 65:1 73:1 94:1 101:1 105:1 112:1 125:1 131:1 175:1 216:1 235:1 274:1 289:1 290:1 301:1 530:1 
-0.1310049141909979 10:1 11:1 22:1 23:1 25:1 28:1 29:1 30:1 36:1 43:1 45:1 46:1 52:1 61:1 69:1 71:1 81:1 95:1 105:1 129:1 140:1 155:1 164:1 191:1 199:1 221:1 222:1 264:1 332:1 348:1 349:1 360:1 361:1 437:1 533:1 534:1 536:1 
-0.03136232540966855 10:1 23:1 25:1 27:1 28:1 29:1 35:1 36:1 42:1 43:1 45:1 46:1 49:1 51:1 52:1 61:1 65:1 71:1 72:1 81:1 82:1 84:1 85:1 86:1 120:1 121:1 149:1 152:1 155:1 161:1 164:1 206:1 261:1 308:1 311:1 353:1 538:1 
-0.07686644126091433 23:1 36:1 45:1 46:1 51:1 52:1 61:1 65:1 107:1 112:1 113:1 124:1 131:1 149:1 155:1 164:1 170:1 174:1 183:1 216:1 226:1 310:1 340:1 452:1 
-0.07370649934597746 11:1 12:1 21:1 23:1 25:1 27:1 28:1 30:1 43:1 45:1 46:1 47:1 52:1 60:1 61:1 65:1 71:1 72:1 81:1 105:1 107:1 118:1 123:1 124:1 127:1 129:1 132:1 143:1 155:1 164:1 178:1 221:1 222:1 223:1 224:1 225:1 274:1 
-0.05807789974624057 10:1 11:1 20:1 21:1 23:1 25:1 27:1 28:1 29:1 30:1 43:1 45:1 46:1 51:1 52:1 59:1 61:1 65:1 71:1 72:1 81:1 95:1 100:1 127:1 149:1 155:1 164:1 166:1 185:1 191:1 290:1 308:1 311:1 313:1 471:1 580:1 581:1 582:1 
-0.08088869470296357 18:1 21:1 23:1 25:1 27:1 28:1 29:1 30:1 31:1 45:1 46:1 54:1 59:1 60:1 61:1 62:1 63:1 65:1 81:1 82:1 92:1 93:1 94:1 95:1 100:1 107:1 118:1 123:1 127:1 143:1 144:1 157:1 255:1 437:1 
-0.1214144849561588 23:1 25:1 27:1 43:1 44:1 45:1 46:1 50:1 54:1 61:1 62:1 65:1 92:1 93:1 100:1 110:1 118:1 144:1 165:1 255:1 278:1 309:1 330:1 331:1 353:1 475:1 542:1 543:1 
-0.08269289266065463 10:1 18:1 23:1 25:1 27:1 28:1 29:1 43:1 45:1 46:1 59:1 60:1 61:1 62:1 65:1 66:1 69:1 70:1 71:1 72:1 73:1 81:1 85:1 95:1 105:1 120:1 129:1 131:1 145:1 151:1 155:1 191:1 206:1 213:1 274:1 301:1 353:1 374:1 716:1 
-0.1671801399422696 9:1 11:1 18:1 27:1 28:1 35:1 36:1 43:1 44:1 45:1 46:1 49:1 61:1 63:1 70:1 71:1 76:1 81:1 84:1 86:1 95:1 112:1 113:1 128:1 138:1 215:1 237:1 239:1 280:1 283:1 308:1 311:1 353:1 531:1 679:1 724:1 773:1 774:1 775:1 776:1 777:1 
-0.07181236523979459 23:1 24:1 25:1 36:1 43:1 44:1 45:1 46:1 52:1 61:1 69:1 71:1 107:1 164:1 178:1 215:1 216:1 217:1 222:1 336:1 413:1 
