svm_type c_svc
kernel_type linear
nr_class 2
total_sv 126
rho -3.10192
label -1 1
nr_sv 85 41
SV
0.3718705814135561 6:1 7:1 10:1 21:1 30:1 51:1 69:1 101:1 104:1 105:1 107:1 108:1 157:1 167:1 182:1 185:1 210:1 215:1 
0.1168534289726598 6:1 8:1 22:1 30:1 32:1 70:1 107:1 118:1 125:1 148:1 151:1 153:1 156:1 157:1 172:1 234:1 
0.06907289628983003 7:1 21:1 22:1 46:1 47:1 48:1 106:1 108:1 131:1 202:1 
0.6876590252130165 10:1 19:1 30:1 53:1 73:1 97:1 106:1 107:1 124:1 128:1 129:1 130:1 131:1 145:1 153:1 157:1 163:1 182:1 
0.3363740338893941 2:1 6:1 7:1 8:1 10:1 17:1 73:1 74:1 79:1 93:1 97:1 105:1 106:1 139:1 153:1 165:1 179:1 248:1 249:1 
0.1430546320281682 8:1 12:1 18:1 30:1 32:1 33:1 44:1 94:1 95:1 107:1 118:1 143:1 157:1 166:1 171:1 172:1 179:1 180:1 
0.7218817835364706 19:1 21:1 22:1 30:1 53:1 55:1 60:1 73:1 74:1 104:1 105:1 107:1 128:1 131:1 132:1 143:1 157:1 231:1 
0.07985469731504057 6:1 7:1 21:1 22:1 24:1 25:1 30:1 31:1 41:1 51:1 53:1 56:1 70:1 84:1 95:1 145:1 152:1 226:1 274:1 
0.1604735013565068 6:1 8:1 10:1 30:1 50:1 73:1 82:1 93:1 94:1 97:1 107:1 118:1 123:1 156:1 157:1 166:1 182:1 287:1 
1 8:1 18:1 30:1 61:1 73:1 107:1 118:1 123:1 152:1 153:1 157:1 166:1 173:1 180:1 
0.06957411119075652 10:1 17:1 19:1 20:1 28:1 36:1 50:1 51:1 56:1 96:1 97:1 138:1 141:1 152:1 154:1 165:1 167:1 219:1 220:1 
0.1863477025104192 1:1 2:1 6:1 7:1 30:1 32:1 44:1 76:1 107:1 115:1 143:1 157:1 166:1 170:1 180:1 320:1 321:1 
0.1103823245405211 1:1 2:1 6:1 7:1 8:1 30:1 32:1 44:1 55:1 76:1 105:1 107:1 143:1 156:1 157:1 166:1 258:1 
0.2767490984696926 19:1 21:1 30:1 53:1 73:1 74:1 76:1 101:1 107:1 116:1 124:1 128:1 129:1 131:1 145:1 146:1 155:1 157:1 
0.7539188608029225 8:1 18:1 30:1 46:1 73:1 104:1 105:1 107:1 118:1 123:1 153:1 156:1 157:1 166:1 181:1 
0.3880007026913701 19:1 21:1 22:1 30:1 60:1 73:1 106:1 107:1 108:1 124:1 125:1 128:1 131:1 152:1 153:1 157:1 166:1 180:1 
0.05904962604372672 6:1 10:1 20:1 30:1 75:1 97:1 101:1 106:1 107:1 132:1 134:1 141:1 149:1 150:1 157:1 202:1 
0.1251493178252843 6:1 19:1 21:1 22:1 30:1 44:1 50:1 53:1 69:1 70:1 94:1 107:1 156:1 157:1 166:1 181:1 209:1 
0.03716212915806106 10:1 12:1 18:1 19:1 20:1 30:1 50:1 60:1 73:1 97:1 101:1 104:1 107:1 125:1 132:1 137:1 157:1 166:1 
0.1163497983960459 8:1 10:1 17:1 36:1 93:1 96:1 97:1 105:1 106:1 118:1 123:1 138:1 154:1 165:1 379:1 
0.04490439848583704 10:1 19:1 21:1 24:1 30:1 31:1 50:1 60:1 61:1 100:1 101:1 108:1 115:1 128:1 131:1 
0.952333458638535 3:1 8:1 9:1 10:1 30:1 101:1 107:1 118:1 123:1 125:1 157:1 159:1 166:1 180:1 187:1 188:1 
0.2771037545783658 6:1 8:1 9:1 25:1 30:1 73:1 74:1 76:1 85:1 93:1 94:1 107:1 118:1 123:1 153:1 155:1 156:1 157:1 
0.1823162737131703 8:1 17:1 18:1 32:1 45:1 46:1 50:1 51:1 93:1 94:1 101:1 118:1 123:1 132:1 135:1 137:1 165:1 318:1 
0.1236269875007171 2:1 6:1 7:1 17:1 21:1 51:1 52:1 76:1 90:1 101:1 106:1 108:1 110:1 125:1 132:1 172:1 221:1 222:1 
0.3025276163964191 3:1 9:1 10:1 19:1 30:1 44:1 53:1 55:1 73:1 107:1 129:1 131:1 145:1 157:1 162:1 163:1 166:1 174:1 
0.01986690699531152 6:1 8:1 10:1 30:1 32:1 61:1 73:1 75:1 107:1 114:1 116:1 130:1 140:1 145:1 152:1 153:1 156:1 157:1 
0.1984945349004138 6:1 8:1 30:1 32:1 70:1 76:1 82:1 107:1 116:1 118:1 125:1 153:1 156:1 157:1 172:1 
0.7103884090327118 19:1 21:1 30:1 33:1 49:1 50:1 70:1 73:1 107:1 108:1 128:1 131:1 153:1 156:1 157:1 166:1 172:1 181:1 380:1 
0.2634593016787939 6:1 7:1 30:1 32:1 50:1 61:1 69:1 73:1 105:1 107:1 108:1 114:1 153:1 156:1 157:1 166:1 182:1 
0.3222144514663106 18:1 19:1 21:1 26:1 30:1 49:1 76:1 85:1 100:1 101:1 103:1 107:1 108:1 135:1 157:1 172:1 197:1 216:1 
0.1078448477835416 12:1 18:1 19:1 21:1 30:1 44:1 70:1 95:1 107:1 108:1 157:1 166:1 172:1 176:1 179:1 180:1 265:1 428:1 
0.04145393145318277 17:1 19:1 21:1 22:1 36:1 51:1 53:1 60:1 61:1 95:1 111:1 116:1 138:1 145:1 155:1 165:1 188:1 358:1 
0.2347397145887106 6:1 10:1 20:1 30:1 73:1 75:1 97:1 100:1 101:1 106:1 107:1 129:1 134:1 147:1 157:1 160:1 197:1 434:1 
0.08744483380899089 3:1 9:1 19:1 30:1 53:1 54:1 62:1 70:1 73:1 76:1 100:1 107:1 128:1 131:1 157:1 159:1 166:1 181:1 201:1 
0.2597682814604668 7:1 21:1 33:1 51:1 52:1 79:1 80:1 107:1 108:1 115:1 123:1 128:1 152:1 157:1 167:1 170:1 267:1 324:1 377:1 508:1 
0.1620105637528274 7:1 21:1 22:1 30:1 31:1 85:1 100:1 101:1 108:1 113:1 115:1 170:1 185:1 187:1 188:1 
0.1402385334224038 8:1 10:1 18:1 30:1 41:1 65:1 68:1 93:1 95:1 97:1 107:1 115:1 123:1 166:1 168:1 169:1 173:1 323:1 339:1 
0.0528512355474668 7:1 8:1 9:1 17:1 29:1 51:1 92:1 93:1 96:1 99:1 105:1 117:1 135:1 139:1 153:1 154:1 163:1 330:1 
0.02835563211195787 4:1 8:1 10:1 30:1 31:1 47:1 68:1 74:1 93:1 97:1 100:1 101:1 106:1 118:1 126:1 135:1 234:1 340:1 
0.01761924483750189 6:1 8:1 10:1 30:1 32:1 50:1 61:1 65:1 73:1 74:1 75:1 82:1 107:1 145:1 150:1 157:1 231:1 282:1 
0.1760799613689549 8:1 10:1 18:1 30:1 32:1 93:1 95:1 107:1 116:1 118:1 123:1 125:1 166:1 173:1 182:1 183:1 189:1 292:1 502:1 
0.3037769619001012 10:1 19:1 21:1 28:1 30:1 60:1 61:1 74:1 86:1 91:1 96:1 101:1 107:1 108:1 111:1 116:1 135:1 137:1 157:1 
1 12:1 18:1 19:1 21:1 30:1 41:1 60:1 61:1 73:1 101:1 107:1 108:1 110:1 115:1 132:1 157:1 166:1 
0.2949768526763695 6:1 30:1 53:1 61:1 69:1 73:1 74:1 107:1 114:1 115:1 116:1 118:1 121:1 152:1 153:1 157:1 
0.04948520517305093 18:1 21:1 22:1 30:1 43:1 53:1 65:1 73:1 74:1 94:1 103:1 107:1 114:1 147:1 157:1 164:1 231:1 337:1 
0.5526237378100904 6:1 7:1 21:1 30:1 41:1 44:1 76:1 92:1 107:1 108:1 115:1 134:1 157:1 166:1 170:1 180:1 
0.1441375041925805 2:1 7:1 8:1 21:1 30:1 86:1 91:1 95:1 96:1 107:1 124:1 125:1 132:1 137:1 157:1 166:1 203:1 231:1 
0.0067156802591596 20:1 21:1 28:1 29:1 76:1 84:1 96:1 117:1 122:1 135:1 154:1 158:1 180:1 185:1 186:1 192:1 327:1 342:1 503:1 
0.04747413794878116 35:1 42:1 52:1 53:1 71:1 73:1 75:1 76:1 94:1 106:1 107:1 150:1 157:1 195:1 197:1 234:1 332:1 340:1 451:1 
0.1168682805859184 8:1 33:1 46:1 47:1 118:1 124:1 131:1 159:1 213:1 266:1 
0.1320768352591863 4:1 19:1 21:1 30:1 33:1 60:1 91:1 95:1 96:1 101:1 104:1 106:1 107:1 108:1 110:1 132:1 157:1 166:1 455:1 508:1 
0.01543104299671655 20:1 21:1 24:1 28:1 29:1 30:1 31:1 51:1 56:1 75:1 77:1 83:1 95:1 141:1 155:1 234:1 253:1 254:1 340:1 
0.08907004007952503 18:1 19:1 21:1 46:1 76:1 93:1 105:1 106:1 108:1 171:1 
0.3018893836086742 18:1 19:1 21:1 41:1 60:1 61:1 76:1 108:1 115:1 173:1 235:1 
0.03509469061597711 2:1 6:1 7:1 21:1 22:1 30:1 41:1 73:1 107:1 108:1 115:1 134:1 152:1 153:1 156:1 157:1 166:1 170:1 237:1 
0.08585802988478845 1:1 6:1 20:1 21:1 22:1 49:1 50:1 84:1 107:1 157:1 185:1 186:1 192:1 194:1 
0.09818264406690758 7:1 8:1 10:1 30:1 74:1 92:1 93:1 97:1 98:1 101:1 102:1 105:1 106:1 107:1 110:1 111:1 187:1 188:1 200:1 
0.04242580543091177 19:1 21:1 30:1 33:1 49:1 50:1 73:1 107:1 108:1 153:1 156:1 157:1 166:1 172:1 181:1 185:1 187:1 371:1 372:1 
0.7643720917289479 18:1 20:1 21:1 27:1 30:1 49:1 73:1 76:1 85:1 101:1 107:1 118:1 123:1 130:1 152:1 157:1 168:1 169:1 173:1 
0.06429197997573659 2:1 4:1 6:1 7:1 8:1 10:1 25:1 30:1 56:1 81:1 95:1 97:1 104:1 106:1 107:1 109:1 112:1 238:1 310:1 357:1 
0.07501926863541905 8:1 9:1 18:1 34:1 46:1 51:1 52:1 133:1 135:1 136:1 158:1 160:1 184:1 186:1 215:1 317:1 318:1 431:1 509:1 511:1 
0.04126993314664867 6:1 8:1 30:1 32:1 37:1 61:1 66:1 75:1 76:1 77:1 83:1 101:1 106:1 107:1 135:1 145:1 157:1 158:1 166:1 406:1 503:1 
0.2486773770850187 1:1 6:1 7:1 30:1 32:1 33:1 63:1 92:1 104:1 107:1 132:1 145:1 157:1 166:1 181:1 231:1 334:1 
0.1341527505971655 1:1 2:1 6:1 7:1 8:1 10:1 30:1 50:1 73:1 93:1 94:1 97:1 101:1 107:1 152:1 157:1 166:1 180:1 
0.08763716937274199 10:1 14:1 18:1 19:1 30:1 32:1 53:1 59:1 70:1 73:1 74:1 98:1 99:1 102:1 107:1 132:1 145:1 148:1 151:1 231:1 512:1 
0.1914960361302939 7:1 8:1 10:1 38:1 51:1 52:1 57:1 73:1 93:1 97:1 105:1 106:1 107:1 121:1 157:1 182:1 187:1 188:1 501:1 
0.3268848463071302 6:1 19:1 20:1 21:1 22:1 30:1 49:1 50:1 73:1 107:1 111:1 141:1 157:1 166:1 181:1 222:1 231:1 269:1 272:1 
0.5012424744862838 8:1 9:1 10:1 30:1 50:1 73:1 74:1 86:1 91:1 96:1 101:1 107:1 110:1 111:1 123:1 157:1 160:1 271:1 317:1 323:1 
0.2016448870998689 18:1 21:1 30:1 33:1 73:1 74:1 103:1 107:1 108:1 115:1 153:1 156:1 157:1 171:1 182:1 186:1 214:1 252:1 
0.1469299288456757 18:1 21:1 30:1 33:1 50:1 73:1 74:1 107:1 108:1 113:1 156:1 161:1 172:1 173:1 182:1 185:1 186:1 255:1 
0.04911243883778293 3:1 10:1 18:1 19:1 20:1 30:1 60:1 73:1 74:1 78:1 97:1 101:1 103:1 107:1 132:1 157:1 159:1 268:1 
0.07728450559479233 10:1 18:1 19:1 20:1 30:1 60:1 61:1 67:1 68:1 73:1 97:1 106:1 107:1 121:1 158:1 160:1 166:1 173:1 
0.5873785942564123 6:1 7:1 21:1 22:1 30:1 61:1 69:1 100:1 101:1 107:1 108:1 114:1 116:1 125:1 157:1 166:1 181:1 
0.06081865139471532 19:1 21:1 30:1 33:1 53:1 63:1 70:1 73:1 74:1 91:1 96:1 100:1 101:1 107:1 126:1 147:1 157:1 262:1 263:1 443:1 
0.05910628425016206 2:1 6:1 7:1 8:1 17:1 51:1 52:1 90:1 93:1 100:1 101:1 105:1 135:1 155:1 221:1 222:1 322:1 
0.07988761811669913 8:1 9:1 17:1 19:1 51:1 76:1 87:1 90:1 95:1 96:1 100:1 106:1 127:1 154:1 160:1 165:1 219:1 220:1 317:1 
0.1071303632309899 19:1 20:1 21:1 30:1 31:1 73:1 76:1 84:1 113:1 130:1 137:1 163:1 188:1 213:1 215:1 225:1 226:1 269:1 358:1 502:1 
0.1832739877550698 19:1 30:1 60:1 73:1 74:1 105:1 107:1 124:1 128:1 131:1 152:1 153:1 157:1 178:1 
0.5355237099806557 12:1 18:1 19:1 21:1 30:1 60:1 61:1 76:1 95:1 100:1 101:1 107:1 108:1 115:1 116:1 157:1 166:1 181:1 
0.1489442024423446 14:1 19:1 21:1 22:1 30:1 31:1 41:1 108:1 111:1 115:1 128:1 129:1 131:1 149:1 175:1 184:1 197:1 448:1 
0.3847990404036067 7:1 8:1 30:1 32:1 33:1 54:1 61:1 62:1 63:1 73:1 92:1 107:1 110:1 153:1 156:1 157:1 166:1 187:1 188:1 
0.000738741663697816 13:1 19:1 20:1 21:1 41:1 76:1 128:1 131:1 160:1 317:1 
0.03389382912147521 14:1 18:1 19:1 21:1 33:1 46:1 50:1 51:1 52:1 94:1 133:1 135:1 136:1 155:1 177:1 195:1 261:1 264:1 
0.1213395693372183 6:1 7:1 8:1 10:1 26:1 30:1 40:1 73:1 85:1 97:1 107:1 152:1 153:1 157:1 166:1 180:1 333:1 488:1 489:1 
-0.2274478189699477 3:1 8:1 10:1 18:1 30:1 32:1 73:1 74:1 107:1 110:1 118:1 121:1 123:1 145:1 153:1 157:1 173:1 240:1 241:1 
-0.4449578480550171 3:1 8:1 18:1 30:1 32:1 33:1 73:1 107:1 118:1 123:1 130:1 145:1 152:1 157:1 159:1 163:1 173:1 225:1 226:1 502:1 
-0.5601150974958919 7:1 8:1 10:1 30:1 32:1 73:1 74:1 93:1 101:1 107:1 111:1 116:1 125:1 137:1 157:1 171:1 187:1 188:1 
-0.1855768758405955 9:1 19:1 30:1 53:1 65:1 73:1 76:1 93:1 107:1 116:1 125:1 157:1 166:1 180:1 185:1 188:1 231:1 314:1 
-0.9984024547779757 8:1 10:1 18:1 30:1 50:1 94:1 97:1 104:1 107:1 118:1 123:1 135:1 153:1 156:1 157:1 173:1 182:1 197:1 
-0.3654898738076365 3:1 4:1 8:1 10:1 18:1 30:1 73:1 97:1 100:1 106:1 107:1 118:1 123:1 153:1 157:1 166:1 173:1 181:1 
-0.2216138495887627 8:1 10:1 50:1 73:1 74:1 94:1 97:1 107:1 118:1 123:1 131:1 138:1 155:1 157:1 173:1 178:1 258:1 274:1 326:1 
-0.5572305274790099 18:1 19:1 20:1 21:1 28:1 29:1 30:1 33:1 46:1 60:1 61:1 73:1 107:1 152:1 153:1 157:1 166:1 180:1 
-0.7694586582750248 8:1 18:1 30:1 32:1 33:1 93:1 107:1 116:1 118:1 123:1 125:1 153:1 156:1 157:1 173:1 
-1 19:1 21:1 30:1 41:1 44:1 60:1 61:1 76:1 107:1 108:1 115:1 128:1 131:1 157:1 166:1 180:1 380:1 
-1 6:1 7:1 21:1 30:1 69:1 70:1 73:1 76:1 101:1 106:1 107:1 108:1 132:1 157:1 160:1 166:1 182:1 317:1 
-0.6969801186374279 19:1 21:1 30:1 76:1 95:1 101:1 104:1 105:1 106:1 107:1 108:1 111:1 114:1 128:1 137:1 157:1 166:1 324:1 
-0.3100673434614987 18:1 19:1 21:1 22:1 30:1 44:1 46:1 53:1 55:1 61:1 105:1 107:1 114:1 116:1 135:1 157:1 163:1 166:1 
-0.6080508137535096 9:1 19:1 46:1 51:1 52:1 53:1 107:1 124:1 125:1 129:1 131:1 143:1 157:1 167:1 168:1 169:1 177:1 179:1 265:1 404:1 
-0.01549102893831805 5:1 18:1 28:1 30:1 33:1 97:1 104:1 107:1 130:1 135:1 153:1 156:1 157:1 173:1 182:1 185:1 186:1 334:1 
-0.1329227827831823 19:1 21:1 22:1 30:1 46:1 53:1 73:1 107:1 116:1 125:1 129:1 131:1 132:1 147:1 157:1 166:1 181:1 231:1 404:1 
-0.9276086428876773 9:1 10:1 19:1 30:1 53:1 60:1 61:1 63:1 107:1 145:1 153:1 157:1 187:1 188:1 
-0.4191054265945617 3:1 8:1 18:1 30:1 32:1 33:1 107:1 110:1 118:1 123:1 145:1 153:1 156:1 157:1 159:1 173:1 
-1 8:1 10:1 12:1 18:1 30:1 73:1 93:1 97:1 101:1 105:1 106:1 107:1 118:1 123:1 132:1 157:1 166:1 216:1 
-0.2980301699264423 6:1 7:1 30:1 92:1 95:1 100:1 101:1 104:1 107:1 157:1 166:1 181:1 221:1 222:1 334:1 
-0.8545891954858382 7:1 17:1 21:1 22:1 36:1 41:1 73:1 74:1 79:1 96:1 99:1 108:1 115:1 153:1 165:1 170:1 185:1 389:1 
-0.413266454800427 8:1 9:1 10:1 18:1 30:1 46:1 74:1 85:1 100:1 101:1 107:1 123:1 124:1 155:1 157:1 160:1 200:1 271:1 323:1 
-0.02758593833368456 30:1 32:1 73:1 75:1 104:1 107:1 128:1 130:1 145:1 152:1 157:1 163:1 185:1 212:1 253:1 254:1 265:1 324:1 334:1 502:1 
-0.4169288438778664 6:1 8:1 30:1 33:1 73:1 107:1 118:1 123:1 132:1 157:1 159:1 166:1 181:1 213:1 231:1 234:1 266:1 317:1 
-0.06659565033330088 4:1 19:1 21:1 22:1 30:1 46:1 53:1 70:1 95:1 101:1 107:1 131:1 146:1 147:1 148:1 151:1 157:1 166:1 181:1 404:1 479:1 
-1 19:1 21:1 22:1 30:1 44:1 50:1 60:1 61:1 73:1 107:1 108:1 115:1 128:1 131:1 152:1 157:1 166:1 180:1 
-0.7568883571022591 19:1 21:1 30:1 41:1 56:1 61:1 70:1 73:1 107:1 108:1 110:1 115:1 128:1 131:1 157:1 166:1 231:1 
-0.7722811605315626 20:1 21:1 27:1 30:1 31:1 49:1 50:1 51:1 76:1 95:1 96:1 152:1 154:1 156:1 184:1 185:1 186:1 235:1 
-0.09211341199355505 6:1 7:1 8:1 21:1 30:1 50:1 73:1 74:1 92:1 105:1 107:1 110:1 121:1 153:1 157:1 248:1 249:1 258:1 
-0.2279410586610717 6:1 7:1 21:1 22:1 30:1 92:1 101:1 107:1 108:1 125:1 132:1 143:1 149:1 157:1 172:1 248:1 249:1 
-0.6177805818280235 19:1 20:1 21:1 30:1 73:1 76:1 100:1 101:1 107:1 129:1 141:1 157:1 166:1 181:1 188:1 213:1 215:1 358:1 
-0.2021176016003332 2:1 6:1 7:1 30:1 53:1 73:1 107:1 124:1 152:1 157:1 166:1 180:1 221:1 222:1 231:1 
-0.4428118307950909 10:1 14:1 18:1 19:1 21:1 30:1 46:1 53:1 60:1 73:1 74:1 101:1 105:1 107:1 110:1 132:1 143:1 157:1 
-1 2:1 6:1 7:1 21:1 30:1 49:1 73:1 85:1 100:1 101:1 107:1 108:1 157:1 166:1 172:1 181:1 221:1 222:1 
-0.01816770409908141 2:1 6:1 7:1 8:1 22:1 30:1 32:1 73:1 87:1 105:1 107:1 146:1 157:1 164:1 166:1 231:1 248:1 249:1 258:1 
-0.2860603884545809 2:1 6:1 7:1 30:1 73:1 107:1 130:1 152:1 153:1 157:1 163:1 214:1 248:1 249:1 264:1 
-0.326342747191753 6:1 7:1 21:1 22:1 30:1 92:1 105:1 107:1 108:1 116:1 153:1 157:1 172:1 248:1 249:1 
-0.1645343573246984 6:1 7:1 8:1 10:1 30:1 50:1 61:1 73:1 74:1 92:1 97:1 101:1 107:1 115:1 152:1 157:1 168:1 169:1 248:1 249:1 
-0.2722169920285486 6:1 8:1 9:1 30:1 105:1 106:1 107:1 114:1 118:1 124:1 153:1 156:1 157:1 330:1 488:1 489:1 
-0.293970967516313 6:1 8:1 9:1 10:1 30:1 61:1 73:1 74:1 101:1 107:1 110:1 111:1 114:1 115:1 116:1 118:1 157:1 488:1 489:1 
-0.05361566422086008 6:1 7:1 30:1 70:1 73:1 74:1 107:1 141:1 153:1 155:1 156:1 157:1 160:1 488:1 489:1 
